svm_type c_svc
kernel_type linear
nr_class 4
total_sv 30
rho -44.114175855960625 -22.125030904760706 -1.3370158907533631 15.875456092356735 7.609546212664913 -3.7328989885752404
label 3 5 0 4
nr_sv 3 10 12 5
SV
0.0 0.0032416451747577795 8.748349406566863E-4 1:-0.8418198762305804 2:-0.5283970958464146 3:0.9939135751743181 4:-35.88415428427398 5:-0.861200136488162 6:-0.3041397985801137 7:0.9133272645484645 8:-48.54891416652565 9:-0.85566291927171 10:-0.07434528409736094 11:0.8588866355253773 12:-63.03425922363765 13:-0.8335140504059025 14:0.14991201316893996 15:0.8468879996294775 16:-78.1959492394925 17:-0.7781418782413838 18:0.36586348461056306 19:0.8598609608793809 20:-93.18177437895035 21:-0.6480172736547648 22:0.5596660871863787 23:0.8562432575509518 24:-108.81583366506896 25:-0.4846693657694345 26:0.7313198208963867 27:0.8773443306657136 28:-124.4662724116037 29:-0.2991725890182967 30:0.891899120173491 31:0.9407381562295419 32:-139.45683657423822 33:-0.08875833479312548 34:0.9472712923380099 35:0.9514204871049246 36:-152.64707387708597 37:0.13826757108140136 38:0.9361968579051061 39:0.9463521955192705 40:13.598679522067286 41:0.3459132166983466 42:0.8171466877513908 43:0.8873469799293094 44:-0.9438338192229452 45:0.5314099934494844 46:0.678716257340094 47:0.8620048370605153 48:-16.059644256245953 49:0.6781462496854591 50:0.5042939150218599 51:0.8451004015444129 52:-31.36418220762591 53:0.7639731165404632 54:0.3021854866213665 55:0.8215661818266013 56:-46.418990256965984 57:0.8193452887049819 58:0.08900262378796936 59:0.8241651346448676 60:-61.80046710660715 61:0.8774860694777266 62:-0.12694884765365375 63:0.8866215720633353 64:-76.23205600469286 65:0.9051721555599859 66:-0.34566892770350277 67:0.9689291195855354 68:-88.90095529991476 69:-0.7006208372110576 70:-0.6502158746083558 71:0.9558505328381799 72:-25.136936592858326 73:-0.5788020584491164 74:-0.8107951738854602 75:0.9961930720803512 76:-13.521889181631998 77:-0.3822308472650748 78:-0.8467870857923974 79:0.9290580117870777 80:-2.293919388261429 81:-0.18842824468925923 82:-0.8052579566690083 83:0.8270100242291032 84:8.829900922977131 85:-0.02231172819570299 86:-0.7111252639893264 87:0.7114751958423907 88:20.20292050649853 89:0.19640835185414604 90:-0.6945136123399708 91:0.7217516182202693 92:-142.2091044085837 93:0.3902109544299616 94:-0.7554230017209415 95:0.8502520217477987 96:-130.6815525013226 97:0.5784763397893253 98:-0.7526543931127155 99:0.9492752557440466 100:-120.45478189339018 101:0.7501300734993335 102:-0.6612903090412596 103:1.0 104:-109.39835348602638 105:0.8304197231378856 106:-0.4924051839394774 107:0.9654324325124328 108:-98.66621997181429 109:0.06905235587575292 110:-0.5145540528052849 111:0.5191667372919182 112:-150.35666048616935 113:0.049672095618171375 114:-0.33459449327059904 115:0.3382614255425967 116:-149.55584977459054 117:0.027523226752363874 118:-0.15186632512768716 119:0.15434023687506257 120:-147.72759887504327 121:0.008142966494782316 122:0.0253246257987728 123:0.026601589711575814 124:4.175147744583427 125:-0.2105771135550667 126:0.06408514631393591 127:0.22011275912872935 128:-84.92663141428625 129:-0.11921302948361079 130:0.10838288404555091 131:0.16111671531126617 132:-110.27563691455549 133:-0.019543119587477054 134:0.15544923038539185 135:0.1566728973071637 136:-150.83435359249847 137:0.08012679030865667 138:0.14160618734426217 139:0.16270407130537853 140:-7.503023337685505 141:0.17425948298833854 142:0.1305317529113584 143:0.21772667711944485 144:-31.1643881033813 145:-0.506818234635242 146:-0.5145540528052849 147:0.7222399851968367 148:-22.566053178918132 149:-0.3905366730897526 150:-0.5477773561039961 151:0.6727398642033163 152:-13.486887248082922 153:-0.2714865029360373 154:-0.5311657044546405 155:0.59652487531136 156:-5.072235000684678 157:-0.17735381025635547 158:-0.46471909785721804 159:0.4974115136641631 160:1.1113158430244283 161:-0.28532954597716703 162:-0.4591818806407662 163:0.5406116437113865 164:-9.8562710772907 165:-0.4043797161308823 166:-0.467487706465444 167:0.6181162597071962 168:-18.860005235845136 169:0.2822352187091501 170:-0.41765275151737713 171:0.5040739425221639 172:-123.9505389559682 173:0.40959121468754317 174:-0.467487706465444 175:0.6215381877612496 176:-116.77664877150475 177:0.5258727762330325 178:-0.4481074462078624 179:0.6908997468012051 180:-108.43502718948261 181:0.6200054689127144 182:-0.3927352740433437 183:0.7339262748802329 184:-100.35173991759794 185:0.5203355590165807 186:-0.3622805793528584 187:0.6340317911219754 188:-102.84733876115095 189:0.40128538886286536 190:-0.37889223100221403 191:0.5518960826357224 192:-111.35591122069924 193:-0.3877680644815267 194:0.28280522636378497 195:0.47994048369607356 196:-104.10384776036634 197:-0.2548748512866817 198:0.2717307919308812 199:0.3725571272996827 200:-114.83333514233567 201:-0.13859328974119234 202:0.26896218332265526 203:0.30257024972554014 204:-130.7384407978488 205:-0.0527664228861883 206:0.31325992105427025 207:0.31767290335049303 208:-148.43868391829093 209:0.049672095618171375 210:0.3021854866213665 211:0.3062407311376017 212:12.665413406329847 213:0.1797967002047904 214:0.34925183296120743 215:0.39281509165419604 216:-5.239650449593789 217:0.3348387822654429 218:0.3797065276516927 219:0.5062549330626916 220:-19.406999358755634 221:0.16595365716366073 222:0.4683020031149227 223:0.4968373802839747 224:2.4870399952219344 225:0.024754618144137937 226:0.4959880891971821 227:0.49660545279420154 228:19.14275554141092 229:-0.08045250896844768 230:0.49321948058895615 231:0.499737993584396 232:-148.73567206297884 233:-0.17458520164812952 234:0.4683020031149227 235:0.4997867132647357 236:-137.5543069271621 237:-0.27979232876071514 238:0.40185539651750024 239:0.48966468827513127 240:-123.15238590435382 241:-0.33516450092523387 242:0.29941687801314054 243:0.44942820285291063 244:-109.77578706747612 245:-0.14689911556587015 246:0.3547890501776593 247:0.3839982034853816 248:-135.50817741014248 249:-0.05830364010264017 250:0.3824751362599187 251:0.38689345342905657 252:-149.33268551123712 253:0.046903487009945434 254:0.3824751362599187 255:0.3853403261413675 256:15.008641522947627 257:0.2766980014926982 258:0.3852437448681446 259:0.4743147973551799 260:-13.687471833034586 261:0.03306044396881575 262:0.3824751362599187 263:0.38390131910747394 264:17.059738093399716 265:-0.06937807453554393 266:0.3797065276516927 267:0.3859926998889554 268:-147.6454223163401 269:-0.15797354999877392 270:0.35202044156943335 271:0.38584198032608374 272:-133.8312485835222 
0.0 0.0 1.4445395591162585E-4 1:-0.7339524910285607 2:-0.49056159421059947 3:0.8828006212058725 4:-29.241893569118574 5:-0.7507673048000193 6:-0.2935880614592275 7:0.8061299496905399 8:-41.64198321264105 9:-0.7531694210530848 10:-0.08460394744252801 11:0.7579063297877232 12:-56.59079996764815 13:-0.7387567235346918 14:0.13879286409256458 15:0.7516814190138865 16:-73.6403310137618 17:-0.6763017009549884 18:0.35738544312152615 19:0.7649237515398383 20:-90.85380241049806 21:-0.5561958883017128 22:0.5639674408851602 23:0.7920941487868017 24:-108.39750454916802 25:-0.4312858431423063 26:0.7633430898895976 27:0.8767554684044853 28:-123.53372256455918 29:-0.279952519199179 30:0.933893343857249 31:0.9749513786373352 32:-136.312885223391 33:-0.08538110270087258 34:0.9963483664369522 35:1.0 36:-148.1020598849384 37:0.1139945463035649 38:0.9699250876532316 39:0.9766009585527164 40:20.296822352636852 41:0.28214268401815074 42:0.8209938799631699 43:0.8681217916179422 44:8.034208545921885 45:0.4286717754551469 46:0.6552478585016496 47:0.7830129291032594 48:-6.193239816992708 49:0.5655924018798811 50:0.47028490701560516 51:0.7355696152173017 52:-23.256786938919703 53:0.664079168255567 54:0.2685071417581022 55:0.7163080530652376 56:-40.98503817908053 57:0.7169257258230083 58:0.0619251439944682 59:0.7195951777253533 60:-58.06327532903185 61:0.7553595858720565 62:-0.1470589700222313 63:0.7695417107816861 64:-74.01695169373082 65:0.7817828646557772 66:-0.3560430840389308 67:0.8590408169355787 68:-87.4856831412979 69:-0.5922276320976956 70:-0.6346885693945302 71:0.8680801508732467 72:-16.01790707061987 73:-0.5081535632404026 74:-0.7740113120723299 75:0.9259122825893646 76:-6.2856819469793095 77:-0.34961389053807884 78:-0.8172494046275091 79:0.8888905792172566 80:3.8390812556349942 81:-0.18146575282349303 82:-0.7932282420968539 83:0.8137203841049223 84:14.114260084625656 85:-0.03974089389262785 86:-0.713958405745692 87:0.7150635942224407 88:23.81404657359576 89:0.15002629009954757 90:-0.685133010708906 91:0.701366616031932 92:-140.64866719147318 93:0.3085659628018713 94:-0.7403816845294127 95:0.8021084665969164 96:-130.37528248767097 97:0.4839204492756537 98:-0.7355774520232816 99:0.8804846331153166 100:-119.65994962886201 101:0.6400580057249119 102:-0.6563076156721198 103:0.9167409323695405 104:-108.71815026304967 105:0.7049151445576808 106:-0.502572175475927 107:0.8657275279147486 108:-98.48712750156409 109:0.04673529121773057 110:-0.4761488966922064 111:0.4784369961305371 112:-147.39422148846575 113:0.032322593699337494 114:-0.3080007589776206 115:0.3096921335685535 116:-147.00912442690128 117:0.017909896180944428 118:-0.13745050500996928 119:0.1386124298492303 120:-145.57614635398812 121:0.005899314915616868 122:0.03309974895768206 123:0.03362135181005062 124:16.894376846564228 125:-0.2174974966194757 126:0.045110330223009615 127:0.22212632200747354 128:-74.71736861437077 129:-0.11660861399072422 130:0.09075053903125434 131:0.1477607159948169 132:-100.89180284278953 133:-0.006111266349710691 134:0.14119498034563008 135:0.1413271737890487 136:-150.52164446376162 137:0.10678819754436836 138:0.10996746905577844 139:0.15328588775653362 140:-17.15967235799974 141:0.21248131267925088 142:0.07873995776592678 143:0.22660160896798043 144:-42.66662596465305 145:-0.4408943081545683 146:-0.46654043167994436 147:0.6419094681925204 148:-16.38112480322298 149:-0.3400054255258168 150:-0.4689425479330099 151:0.5792329433387703 152:-8.943879986781035 153:-0.24632289165626187 154:-0.45933408292074784 155:0.5212127844619192 156:-1.2029177615883455 157:-0.1502382415336414 158:-0.4305086878839617 159:0.45597067840234096 160:7.762114919329903 161:-0.24872500790932736 162:-0.4305086878839617 163:0.4971939861895609 164:-3.0170358438064255 165:-0.34961389053807884 166:-0.4401171528962237 167:0.5620791587762793 168:-11.462417727258618 169:0.2389045914629715 170:-0.39928117659411005 171:0.4652965310471014 172:-122.10636742742166 173:0.34940193910398504 174:-0.4112917578594376 175:0.5396689958972362 176:-112.6513230786382 177:0.4454865892266055 178:-0.39687906034104453 179:0.5966332958509312 180:-104.69748957995111 181:0.5319627743369639 182:-0.37766213031652046 183:0.6523902803962456 184:-98.37250044777079 185:0.44068235672047446 186:-0.3632494327981274 187:0.5710963928732808 188:-102.49836900911319 189:0.339793474091723 190:-0.3704557815573239 191:0.5026898558003434 192:-110.47199217286986 193:-0.4192752618769787 194:0.17962884039467827 195:0.45613404337271946 196:-86.19159881816176 197:-0.279952519199179 198:0.17242249163548173 199:0.32879009812911714 200:-94.6288763016523 201:-0.1262170790029863 202:0.1844330729008093 203:0.22348670969809661 204:-118.61414788222791 205:-0.022926080121169274 206:0.21566058419066095 207:0.21687575411552906 208:-146.93188747295937 209:0.09237550002597529 210:0.2036500029253334 211:0.2236214584885298 212:2.600988951648972 213:0.25091517272829905 214:0.21566058419066095 215:0.33085935301685115 216:-22.321073340302434 217:0.3758252178877057 218:0.2637029092519712 219:0.45911198933190017 220:-27.944055008564867 221:0.236502475209906 222:0.4919039532931948 223:0.5458048369572092 224:1.3222202566988983 225:0.07315857000145119 226:0.5927928359219463 227:0.5972901494960726 228:19.964508890459655 229:-0.0493493589048899 230:0.6048034171872738 231:0.6068134249221314 232:-148.33524480607446 233:-0.16945517155816547 234:0.5783801384035532 235:0.6026928236403024 236:-136.6703468729296 237:-0.31358214674209617 238:0.4534700932441466 239:0.5513337357918854 240:-118.33549411468665 241:-0.3712329368156685 242:0.2036500029253334 243:0.4234232127178131 244:-91.74817771835933 245:-0.1334234277621828 246:0.23968174672131606 247:0.2743157866167959 248:-123.89666404266893 249:-0.025328196374234783 250:0.2637029092519712 251:0.26491648095112 252:-147.5136717083671 253:0.08757126751984426 254:0.2540944442397091 255:0.26876144345593694 256:7.983968340525237 257:0.33258712533252643 258:0.2709092580111677 259:0.428959231178343 260:-23.835418899802292 261:0.08036491876064773 262:0.4919039532931948 263:0.498425540510194 264:17.72126398997851 265:-0.037338777639562344 266:0.5063166508115878 267:0.5076915748805371 268:-148.78230597255748 269:-0.1526403577867069 270:0.4750891395217362 271:0.4990077848258057 272:-135.18842025841457 
0.00726092855866959 0.0028192542469559424 0.0 1:-0.8655669433470804 2:-0.483514964011538 3:0.9914599607842399 4:-42.81180676874849 5:-0.8890645438850718 6:-0.2808481593713613 7:0.9323687316806868 8:-54.46910288926245 9:-0.8890645438850718 10:-0.07524415466393569 11:0.8922429299269684 12:-67.16241731508093 13:-0.8743785435488272 14:0.14798305044698354 15:0.8868127314366674 16:-81.60592380179904 17:-0.8244461424055952 18:0.3653358554234049 19:0.901765894778361 20:-95.89951282519509 21:-0.6981465395138909 22:0.5650654599963326 23:0.8981690067665927 24:-110.98599687583196 25:-0.5307261356807015 26:0.7442346640985178 27:0.9140872312533438 28:-126.50669971521268 29:-0.33687093124227163 30:0.8940318675282136 31:0.9553925918029826 32:-141.3536063954305 33:-0.11364372613135243 34:0.9527758688731923 35:0.9595294434232253 36:-155.19809777400786 37:0.12720667938306043 38:0.9557130689404413 39:0.9641415919994435 40:10.418417721307577 41:0.3563082846284775 42:0.8587854667212264 43:0.9297677514016512 44:-4.533459319513952 45:0.5560378892014053 46:0.7207370635605264 47:0.9102966818666344 48:-19.649650265790342 49:0.7087722926983501 50:0.5503794596600879 51:0.8973715576686204 52:-34.16976449477942 53:0.7910138945813203 54:0.3477126550199113 55:0.8640642753185112 56:-48.27074450962435 57:0.8468206958590501 58:0.13329705011073886 59:0.8572475689690993 60:-63.05453894847774 61:0.8908786968677841 62:-0.07230695459668676 63:0.8938082278743514 64:-76.64016257185955 65:0.9114390973385267 66:-0.2867225595058592 67:0.955474256213562 68:-89.46264986006918 69:-0.7040209396483889 70:-0.6538725679119763 71:0.9608302756112561 72:-29.11502949923465 73:-0.5865329369584313 74:-0.8066069714089211 75:0.997314239576752 76:-18.02317717522849 77:-0.3926777325200015 78:-0.8565393725521531 79:0.9422608441132879 80:-6.628937002291607 81:-0.19588532801432268 82:-0.8271673718796636 83:0.8500452475213238 84:4.67695981582402 85:-0.013778923844888553 86:-0.7390513698621956 87:0.7391798062971627 88:16.93189734877285 89:0.19182508086253705 90:-0.715553769324204 91:0.740819855593784 92:-146.99305040935792 93:0.38568028530096693 94:-0.7713605706019339 95:0.8624073355144749 96:-135.43494882292202 97:0.5883470899411436 98:-0.7537373701984402 99:0.9561758841739697 100:-124.02536056122693 101:0.7616418939088309 102:-0.6479981677774784 103:1.0 104:-112.39084178815787 105:0.8291974954555564 106:-0.4600173634735465 107:0.9482533739285722 108:-101.0203822308847 109:0.07139987810533063 110:-0.5246357649530231 111:0.5294720280253714 112:-154.2499909822423 113:0.05377667770183701 114:-0.3601525611870826 115:0.36414529846513544 116:-153.50754470936383 117:0.033216277231094445 118:-0.19273215735389318 119:0.19557352978196915 120:-152.221463055288 121:0.015593076827600819 122:-0.025311753520703764 123:0.029729260186629622 124:-130.36522963306416 125:-0.20469692821606947 126:0.030495047757026047 127:0.20695598652563305 128:-80.4734095370024 129:-0.11070652606410349 130:0.0745530487657601 131:0.1334694421710521 132:-105.9574904592584 133:-0.00790452371039068 134:0.1215482498417431 135:0.12180500209219215 136:-158.2791812526891 137:0.09489747864332213 138:0.10392504943824948 139:0.1407336042088114 140:-24.400260945047073 141:0.19769948099703494 142:0.0892390491020048 143:0.21690710608720729 144:-47.70618461491962 145:-0.5131029352772079 146:-0.5011381644150316 147:0.71722666014542 148:-27.67587388811237 149:-0.4014893327217483 150:-0.5187613648185252 151:0.6559779248707488 152:-19.737663313999107 153:-0.2928129302335376 154:-0.5099497646167784 155:0.5880375621885546 156:-11.864423512269838 157:-0.1841365277453269 158:-0.4717661637425422 159:0.5064282516827638 160:-3.3213543970537387 161:-0.29868733036803546 162:-0.4600173634735465 163:0.5484798045685337 164:-14.995493478230557 165:-0.41030093292349507 166:-0.46589176360804435 167:0.6208075313297224 168:-23.369683851023176 169:0.3034386834179967 170:-0.4130221623975635 171:0.5125059426250651 172:-125.69605880940587 173:0.42680108624245205 174:-0.436519762935555 175:0.6104987065105463 176:-117.64496952328282 177:0.5384146887979117 178:-0.4130221623975635 179:0.6785850600660991 180:-109.49209837838109 181:0.6324050909498776 182:-0.36602696132158047 183:0.7306927777620584 184:-102.06164055298426 185:0.5266658885289159 186:-0.3513409609853358 187:0.6331014365850481 188:-105.70741444149434 189:0.4121150859062074 190:-0.3689641613888294 191:0.5531486205540449 192:-113.83789422199371 193:-0.4044265327889972 194:0.2713454532714389 195:0.4870207135582762 196:-105.85919338563367 197:-0.2634409295610482 198:0.26253385306969207 199:0.3719208885981101 200:-116.90118993373193 201:-0.13126692653484603 202:0.2566594529351942 203:0.288279518493593 204:-134.91280111154543 205:-0.04021372445012899 206:0.2948430538094304 207:0.29757279783915325 208:-154.23333570995698 209:0.05965107783633488 210:0.2860314536076836 211:0.2921852897391669 212:6.219963970139105 213:0.18888788079528812 214:0.3359638547509155 215:0.38542229205175615 216:-11.345861009135554 217:0.33868508422498395 218:0.3770846556924006 219:0.5068534540033646 220:-23.92914332718145 221:0.17713908052629238 222:0.456389057508122 223:0.4895602370115981 224:-3.212813503845368 225:0.03909067736559232 226:0.48282385811336237 227:0.4844037149118214 228:13.371280475185472 229:-0.06664852505536943 230:0.48282385811336237 231:0.48740219927235506 232:-154.14061601720948 233:-0.1665133273418333 234:0.456389057508122 235:0.4858164879824483 236:-141.95552661680406 237:-0.28693853009903975 238:0.3888334559613964 239:0.48324442731425343 240:-125.57463583573774 241:-0.3486197315112674 242:0.2919058537421815 243:0.45469192278722087 244:-111.94007125201175 245:-0.14007852673659285 246:0.3359638547509155 247:0.3639968479970515 248:-139.3665369082697 249:-0.04608812458462686 250:0.36239865535615595 251:0.365317533977878 252:-154.75230379973004 253:0.056713877769085944 254:0.36239865535615595 255:0.36680955458596864 256:9.105592112453905 257:0.27406668274550733 258:0.38295905582689854 259:0.47092481887341225 260:-17.589605457057715 261:0.04790227756733913 262:0.3653358554234049 263:0.3684629091972344 264:10.530078438339643 265:-0.05489972478637368 266:0.3653358554234049 267:0.3694377715388217 268:-153.4539972964276 269:-0.14595292687109074 270:0.3359638547509155 271:0.366297650226332 272:-138.51840614140957 
-2.167898830529246E-4 0.004582567184214017 5.336322441140973E-4 1:-0.8596480611766297 2:-0.4328012682149697 3:0.9624508958140278 4:-43.27642187514061 5:-0.8660245071171818 6:-0.20324921435509627 7:0.8895553327722349 8:-56.79216153704734 9:-0.8468951692955257 10:0.026302839504777166 11:0.8473035271625577 12:-71.77891841282882 13:-0.8213893855333175 14:0.25266667039437457 15:0.8593724274114107 16:-87.09836231558795 17:-0.7608131490980732 18:0.479030501283972 19:0.8990588796073927 20:-102.19573393471325 21:-0.6428488991978605 22:0.6671356565302572 23:0.926458143368581 24:-116.06212648630853 25:-0.4770613047435074 26:0.807417467222402 27:0.9378221872292297 28:-129.42335130699695 29:-0.2793914805863941 30:0.8934994874198546 31:0.936162877625363 32:-142.63587563186496 33:-0.04027475781569264 34:0.9221934941523388 35:0.9230725306139342 36:-157.49932281317822 37:0.20203018792528488 38:0.8966877103901306 39:0.9191654077465169 40:7.302865045030487 41:0.4124529039635022 42:0.8233585820737822 43:0.9208891098620263 44:-6.608102256749774 45:0.6101227281206154 46:0.7149590010843975 47:0.939902184592068 48:-20.476362074844474 49:0.7408398699019323 50:0.5459831836597684 51:0.9202941647514495 52:-33.61057720299869 53:0.8237336671291088 54:0.3355604676215511 55:0.8894593761338195 56:-47.8357260208179 57:0.8651805657426971 58:0.11238485970222971 59:0.8724492925260144 60:-62.59885878936097 61:0.9066274643562853 62:-0.10122607930626364 63:0.9122609704776509 64:-76.370759551277 65:0.9289450251482174 66:-0.32440168722558504 67:0.9839590003767579 68:-89.2499759133295 69:-0.7225544734547609 70:-0.6400357612829111 71:0.9652620073485136 72:-28.465610202876505 73:-0.6173431154356522 74:-0.7866940179156079 75:1.0 76:-18.12237321697117 77:-0.43561440612991914 78:-0.8472702543508523 79:0.9526944918155453 80:-7.209448615925652 81:-0.2411328049430819 82:-0.8217644705886441 83:0.8564122107615895 84:3.6465711159828516 85:-0.07215698751845284 86:-0.7420588963317437 87:0.7455588752558873 88:14.446082601908472 89:0.1287010596089364 90:-0.7101766666289835 91:0.7217443180023777 92:-149.72811140945026 93:0.3136179918849456 94:-0.7803175719750559 95:0.8409826145450288 96:-138.10427704668416 97:0.5176642619826108 98:-0.7771293490047799 99:0.9337592372868897 100:-126.33147613931675 101:0.696204748318068 102:-0.6942355517776033 103:0.9831907510410062 104:-114.91885550544006 105:0.7918514374263486 106:-0.5220715113826983 107:0.948465793769912 108:-103.39705932091164 109:0.020301478619551738 110:-0.5507655181151825 111:0.551139552181501 112:-157.88900607000903 113:0.010736809708723677 114:-0.38816614663110544 115:0.3883146101721672 116:-158.41558293966847 117:-0.002016082172380403 118:-0.22556677514702841 119:0.2255757846878868 120:19.48791250938595 121:-0.008392528112932443 122:-0.05977918069267538 123:0.06036542861948298 124:12.008353785528783 125:-0.20606235227004568 126:0.03905573138588125 127:0.2097308827453661 128:-80.73217104728866 129:-0.1136038861320411 130:0.06774973811836542 131:0.13227195454596133 132:-100.81050374870077 133:-0.0179571970237605 134:0.09325552188057358 135:0.09496869634868267 136:-149.10058409566886 137:0.08406593802507213 138:0.07412618405891747 139:0.1120793161077091 140:-28.595363897347973 141:0.18608907307390476 142:0.05180862326698533 143:0.193166447817227 144:-54.44239010392131 145:-0.5535786560301319 146:-0.46787172088800594 147:0.724812579649961 148:-29.796287614895874 149:-0.4483672980110232 150:-0.4965657276204901 151:0.6690371856429002 152:-22.080030759675438 153:-0.33040304811081045 154:-0.4965657276204901 155:0.596442533734962 156:-13.63885148101594 157:-0.2092505752403217 158:-0.45511882900690187 159:0.5009181088311931 160:-4.691614169495011 161:-0.33040304811081045 162:-0.4296130452446937 163:0.5419719022655454 164:-17.56285003004536 165:-0.4483672980110232 166:-0.4296130452446937 167:0.620967473037135 168:-26.22369043301844 169:0.24985353247942518 170:-0.4328012682149697 171:0.49974365975060986 172:-130.00242230425562 173:0.377382451290466 174:-0.4614952749474539 175:0.5961504871597666 176:-120.72581164493101 177:0.4921584782204027 178:-0.4455541600960738 179:0.6638813728845993 180:-112.1547408991079 181:0.5878051673286833 182:-0.40410726148248555 183:0.7133145123444323 184:-104.5079411096838 185:0.4857820322798507 186:-0.37860147772027736 187:0.6158922485450841 188:-107.9316007716125 189:0.3678177823796379 190:-0.38816614663110544 191:0.5347549704538664 192:-116.54182372563619 193:-0.3846028386055028 194:0.3483133595026552 195:0.5188849004080157 196:-112.16538216629314 197:-0.23475635900252986 198:0.28136067712685875 199:0.366434685483524 200:-120.15969907725449 201:-0.10722744019148907 202:0.24629022445382254 203:0.2686198030516992 204:-136.47312317974075 205:-0.014768974053484483 206:0.2686077852457547 207:0.2690135031726511 208:-156.8528511317639 209:0.0776894920845201 210:0.24947844742409855 211:0.2612951452084203 212:2.7030129220448487 213:0.20203018792528488 214:0.29730179197823886 215:0.35945034753995986 216:-14.197903652891256 217:0.32955910673632566 218:0.37700736623513936 219:0.5007432066722437 220:-21.15816827440512 221:0.19565374198473284 222:0.4471482715812118 223:0.48807987412993536 224:-3.632214108577955 225:0.06812482317369203 226:0.4599011634623159 227:0.46491942493989064 228:11.574089443714982 229:-0.030710088904864583 230:0.4630893864325919 231:0.46410654960586273 232:-156.20594653801942 233:-0.12635677801314518 234:0.4535247175217638 235:0.47079794472051273 236:-144.43160129781097 237:-0.25069747385390995 238:0.4343953797001077 239:0.501546178633167 240:-130.0099740115587 241:-0.3335912710810865 242:0.3483133595026552 243:0.4822917504473001 244:-116.23680420009251 245:-0.11041566316176508 246:0.32599579871072304 247:0.3441872738038038 248:-141.28861982036958 249:-0.0179571970237605 250:0.3355604676215511 251:0.3360406052180959 252:-156.9367930967961 253:0.08087771505479611 254:0.32599579871072304 255:0.3358786470877943 256:6.066565654703126 257:0.27535931624163335 258:0.37063092029458733 259:0.4617250611776153 260:-16.61041082694983 261:0.07450126911424408 262:0.35150158247293123 263:0.3593101746132551 264:8.03317587037624 265:-0.024333642964312542 266:0.35787802841348326 267:0.3587043481769305 268:-156.1102043541934 269:-0.11679210910231712 270:0.3483133595026552 271:0.36737255362451 272:-141.4633072248342 
-0.0 1.271267288922218E-4 0.0 1:-0.8232747288458879 2:-0.5280703720432391 3:0.978079545326532 4:-44.32280465774922 5:-0.8555842351432968 6:-0.3019038279613768 7:0.9072873330778255 8:-57.563959730045994 9:-0.8620461364027786 10:-0.07250633324977367 11:0.8650900008948694 12:-72.19219257086664 13:-0.8588151857730377 14:0.1568911614618295 15:0.8730282697938362 16:-87.35281862349304 17:-0.8265056794756288 18:0.38628865617343267 19:0.9123215245152049 20:-102.05024322879729 21:-0.732808111213143 22:0.5898385458471087 23:0.9407003975904369 24:-115.8306496963031 25:-0.5647986784666168 26:0.7546170279638941 27:0.9425732895062842 28:-130.18671129834559 29:-0.36124878879294076 30:0.8709312506345661 31:0.9428795950365327 32:-144.4720836219962 33:-0.12215844219211493 34:0.9193955100806794 35:0.9274754923744978 36:-159.4315419366834 37:0.13308665755741533 38:0.9161645594509386 39:0.9257805130881385 40:4.734741820746578 41:0.3624841522690185 42:0.8353907937074163 43:0.910644024225326 44:-10.456488670792396 45:0.5692649925724355 46:0.7223075216664852 47:0.9196688467184669 48:-25.242350789826517 49:0.7146577709107754 50:0.5639909408091816 51:0.9103963482121311 52:-38.72033667129306 53:0.7986624872840385 54:0.36367200176524644 55:0.8775642959137914 56:-52.51779138558797 57:0.847126746730152 58:0.1568911614618295 59:0.8615326816612664 60:-66.50748729924628 61:0.9020529074357471 62:-0.043427777582105656 63:0.9030976800319029 64:-79.75627807797383 65:0.9279005124736742 66:-0.2534395685152635 67:0.9618892742608736 68:-92.27671436628421 69:-0.6681890986183253 70:-0.6928488541600245 71:0.9625571184211504 72:-30.96200885683063 73:-0.5551058265773942 74:-0.8317797312388827 75:1.0 76:-20.718004161818484 77:-0.36447973942268164 78:-0.8770130400552552 79:0.9497354120367348 80:-9.567387213835161 81:-0.16739175100848738 82:-0.8350106818686236 83:0.8516236475934609 84:1.664363951281004 85:0.007079582997520651 86:-0.7445440642358787 87:0.7445777219903232 88:-166.45521289905355 89:0.18801281826301047 90:-0.7122345579384698 91:0.7366321234870276 92:-152.2126087552407 93:0.37540795478798206 94:-0.7606988173845831 95:0.8482887617364733 96:-140.73347376714491 97:0.5789578444616581 98:-0.7413131136061378 99:0.9406047618782907 100:-129.0105330795659 101:0.7534291784676661 102:-0.6346917428246884 103:0.9851340697470079 104:-117.11092018692027 105:0.8212791416922248 106:-0.44406565566997597 107:0.9336454011691608 108:-105.40009070629 109:0.06846764496259755 110:-0.5668417796001297 111:0.570961838923554 112:-160.11272656430612 113:0.045850990554411324 114:-0.40852519874282617 115:0.4110901985485501 116:-160.59618449352783 117:0.02646528677596599 118:-0.25020861788552257 119:0.25160437966839444 120:-160.9621105565451 121:0.007079582997520651 122:-0.08543013576873722 123:0.08572297587510397 124:-162.2627315085679 125:-0.1964703066761554 126:0.014729333753230354 127:0.19702166042909242 128:-81.28743097628197 129:-0.10600368904341048 130:0.04703884005063925 131:0.1159716972546392 132:-100.92912066381253 133:-0.015537071410665576 134:0.08581024760752992 135:0.0872054997261395 136:-156.737036403535 137:0.084622398111302 138:0.07288644508856637 139:0.11168430570029206 140:-36.26122324449882 141:0.18155091700352868 142:0.05350074131012103 143:0.1892698200600261 144:-60.58042660537586 145:-0.5131034683907626 146:-0.5086846682647937 147:0.7225200765392569 148:-32.24777839001411 149:-0.4097130482390541 150:-0.5280703720432391 151:0.6683734732372482 152:-24.806751882228156 153:-0.2933988255683821 154:-0.5183775201540164 155:0.5956493299298955 156:-16.509622418242763 157:-0.18031555352745093 158:-0.47960611259712577 159:0.5123823982968558 160:-7.604549834823786 161:-0.30309167745760474 162:-0.4602204088186804 163:0.551060241386818 164:-20.368076746391452 165:-0.4161749494985359 166:-0.4634513594484213 167:0.6228874305720887 168:-28.923540077098927 169:0.2946341890444598 170:-0.42144900126178975 171:0.5142261817706743 172:-132.0426763867907 173:0.4206412636043545 174:-0.43437280378075327 175:0.6046642087233383 176:-122.92009207496416 177:0.5304935850155448 178:-0.4052942481130853 179:0.66759783649754 180:-114.3796331251495 181:0.6209602026482897 182:-0.3632918899264537 183:0.7194251667542215 184:-107.32970817036174 185:0.5143388318668403 186:-0.3439061861480084 187:0.6187211802072194 188:-110.76816868714057 189:0.40125555982590916 190:-0.3697537911859355 191:0.5456408071135957 192:-119.66032015243141 193:-0.3580178381631999 194:0.37659580428420997 195:0.519616370265143 196:-123.44866927802519 197:-0.24493456612226874 198:0.3216696435786149 199:0.40430718677943034 200:-129.71262962348294 201:-0.12538939282185582 202:0.28936013728120596 203:0.3153597768892413 204:-143.57130719125462 205:-0.038153725818851805 206:0.3216696435786149 207:0.3239244763735109 208:-160.23566406966899 209:0.05877479307337488 210:0.3055148904299104 211:0.3111170592802944 212:2.110507038998776 213:0.16216521322508334 214:0.3701339030247282 215:0.4040998175558307 216:-10.6594661996714 217:0.25909373211731 218:0.4573695700277322 219:0.5256581451949822 220:-16.530972223104854 221:0.142779509446638 222:0.4573695700277322 223:0.47913767531386553 224:-4.337077334174239 225:0.032927188035447766 226:0.43798386624928687 227:0.43921983881263255 228:8.700648365878294 229:-0.0672322814865198 230:0.434752915619546 231:0.43992076253977686 232:-158.20914158085412 233:-0.1576988991192647 234:0.41859816247084153 235:0.4473179679013499 236:-146.35705348200224 237:-0.26432026990071406 238:0.405674359951878 239:0.48418683522247097 240:-133.91343401584462 241:-0.29986072682786385 242:0.38628865617343267 243:0.48901470466849084 244:-129.1792131296387 245:-0.13831319534081937 246:0.41536721184110065 247:0.43779043008960056 248:-148.58274901828395 249:-0.04461562707833358 250:0.4315219649898051 251:0.43382226827153014 252:-161.09708748440676 253:0.052312891813893106 254:0.4315219649898051 255:0.4346813142045499 256:6.087830857044693 257:0.19447471952249223 258:0.4573695700277322 259:0.4969983300985071 260:-10.03532233039654 261:0.045850990554411324 262:0.29259108791094685 263:0.2961618781337871 264:4.09379798108418 265:-0.05107752833781536 266:0.28936013728120596 267:0.2938336314115501 268:-156.9893366811838 269:-0.13831319534081937 270:0.2699744335027606 271:0.3033426029269944 272:-139.8730467585433 
-0.0 3.914440370058754E-4 3.935169477082328E-5 1:-0.832704801911807 2:-0.4621910651128493 3:0.9523748567644631 4:-42.96762647356962 5:-0.8421694653612168 6:-0.241348917959952 7:0.8760700363482575 8:-56.008756815336405 9:-0.8358596897282768 10:-0.020506770807054747 11:0.8361112058581588 12:-70.59460172331755 13:-0.8200852506459271 14:0.20349026416231247 15:0.8449544993287157 16:-85.93552386338052 17:-0.7727619333988777 18:0.42433241131520977 19:0.8816002501150687 20:-100.77169175668931 21:-0.6749604110883088 22:0.6230903437528172 23:0.9185930181612002 24:-114.71167993039123 25:-0.5172160202648108 26:0.7776798467598454 27:0.9339691406438361 28:-128.37308395103787 29:-0.32161297564367325 30:0.8754813690704142 31:0.9326856564200957 32:-141.82890980178084 33:-0.08184150159195622 34:0.9164949106845237 35:0.9201418111864385 36:-156.89711536713918 37:0.1673946359091707 38:0.9038753594186438 39:0.9192451411323023 40:7.507891111646813 41:0.37246234397971817 42:0.8186933883739549 43:0.8994370805398747 44:-6.4630333159596915 45:0.5617556129679159 46:0.6956527635316264 47:0.8941488333102873 48:-20.921672686126016 49:0.6942609012596542 50:0.5315985970751884 51:0.8744113834061036 52:-34.558562013134924 53:0.7794428723043432 54:0.32968577682111094 55:0.846300125619856 56:-49.072795058991424 57:0.8362308530008025 58:0.1214631809340935 59:0.8450061205891221 60:-63.73554069946334 61:0.8835541702478519 62:-0.08360452713645397 63:0.8875008105461538 64:-77.40540320323109 65:0.9087932727796115 66:-0.2981368986564113 67:0.9564469786610968 68:-90.16249050464987 69:-0.6907348501706587 70:-0.645174558468107 71:0.9451797946077768 72:-28.9532769627869 73:-0.5960882156765599 74:-0.8029189492916051 75:1.0 76:-18.59024746483186 77:-0.419414497954242 78:-0.8786362568868842 79:0.9736067958937035 80:-7.517342518884419 81:-0.22381145333310445 82:-0.8754813690704142 83:0.9036366494518042 84:3.659814348390995 85:-0.047137735610786644 86:-0.806073837108075 87:0.80745092543674 88:14.653258236607286 89:0.13900064556094105 90:-0.7934542858421952 91:0.8055376361087707 92:-152.0635151519355 93:0.3282939145491387 94:-0.8281580518233648 95:0.8908550124065465 96:-140.37590421079636 97:0.5333616226196862 98:-0.7934542858421952 99:0.9560566532402002 100:-128.0909235890989 101:0.6974157890761241 102:-0.6798783244492765 103:0.9739729559431457 104:-116.27047651201141 105:0.7731330966714032 106:-0.49689483109401883 107:0.919042576998839 108:-104.72896987039726 109:0.04119912325037226 110:-0.5757670265057678 111:0.5772391502383505 112:-157.90716497814742 113:0.03173445980096238 114:-0.4148677478657999 115:0.4160797088997489 116:-157.62579467751152 117:0.019114908535082537 118:-0.2508135814093619 119:0.25154091585206406 120:-157.64182072362823 121:0.009650245085672653 122:-0.080449639319984 123:0.08102636420899723 124:-155.15983248082776 125:-0.20172723861781472 126:0.023661658623524706 127:0.2031101988802753 128:-78.68995730781614 129:-0.10077082849077598 130:0.05836542460469428 131:0.11645292037559059 132:-102.07898019762624 133:0.003340469452732731 134:0.08675941495292393 135:0.08682369963977739 136:15.795048442215219 137:0.1106066552127114 138:0.07098497587057412 139:0.13142564048422822 140:-39.3085239434268 141:0.20209840189034028 142:0.04259098552234447 143:0.20653754161022164 144:-60.0994103113331 145:-0.5203709080812808 146:-0.49058505546107894 147:0.7151640221788891 148:-28.68762057379257 149:-0.419414497954242 150:-0.5126692701763687 151:0.6623732344210319 152:-21.28658315842138 153:-0.31214831219426337 154:-0.5126692701763687 155:0.6002219167848654 156:-13.335930049324546 157:-0.19226257516840484 158:-0.49058505546107894 159:0.5269142192540798 160:-3.4004448814597623 161:-0.3058385365613234 162:-0.45588128947990936 163:0.548967176198939 164:-15.856601130888848 165:-0.419414497954242 166:-0.4495715138469694 167:0.6148358050381132 168:-25.012423031098884 169:0.2588863825867996 170:-0.4527264016634394 171:0.5215202334061495 172:-132.23741647880297 173:0.385081895245598 174:-0.46534595292931924 175:0.6040156636658008 176:-122.3916500291791 177:0.49550296882204664 178:-0.44010685039755953 179:0.6627346617450471 180:-113.61155477037397 181:0.5869947154996755 182:-0.40224819659992 183:0.7115942718237921 184:-106.42156026594962 185:0.4828834175561668 186:-0.37700909406816036 187:0.6126273353032969 188:-109.98078096370132 189:0.37246234397971817 190:-0.39909330878345006 191:0.5458971210755632 192:-118.97683262093383 193:-0.33738741472602307 194:0.3896286453340402 195:0.5154034816339028 196:-121.11004152555088 197:-0.21119190206722463 198:0.3391504402705208 199:0.39953102587215966 200:-130.08912230018942 201:-0.09446105285783606 202:0.3139113377387611 203:0.32781583010579196 204:-145.25260023117607 205:-0.012433969629617073 206:0.3454602159034607 207:0.3456839081774214 208:-159.93867266266648 209:0.0790577770480118 210:0.32653088900464095 211:0.3359651076911623 212:4.389782410904871 213:0.17370441154211064 214:0.37385420625169036 215:0.412238026049602 216:-6.9210616839721695 217:0.26835104603620946 218:0.4464166260304995 219:0.5208647501081088 220:-13.011020156648392 221:0.1516201968268209 222:0.4685008407457892 223:0.4924243311061256 224:0.0669440417835716 225:0.05381867451625211 226:0.4621910651128493 227:0.4653139052261778 228:11.358247663503462 229:-0.03767307216137676 230:0.46534595292931924 231:0.4668684143029731 232:-157.37159221241427 233:-0.12916481883900563 234:0.4527264016634394 235:0.4707916154614895 236:-146.0763205588538 237:-0.2301212289660444 238:0.4369519625810896 239:0.4938449125224523 240:-134.22641732049573 241:-0.28690920966250366 242:0.3927835331505101 243:0.48641114142601666 244:-125.85369418682947 245:-0.10077082849077598 246:0.3959384209669801 247:0.40856088049707223 248:-147.720738543393 249:-0.015588857446087035 250:0.40855797223285995 251:0.40885526675279704 252:-159.81489352761417 253:0.07590288923154183 254:0.40540308441639 255:0.4124474626519338 256:7.395389636442374 257:0.21156306533975017 258:0.44010685039755953 259:0.48831646540211116 260:-7.673985198325056 261:0.06328333796566199 262:0.3706993184352204 263:0.37606218309265443 264:8.312233124975847 265:-0.03136329652843684 266:0.37700909406816036 267:0.37831139736892094 268:-157.2445277485917 269:-0.11654526757312579 270:0.36123465498581053 271:0.3795698557003823 272:-144.11872334609296 
-6.979175396291696E-4 0.0 0.0 1:-0.8345679239559006 2:-0.41962760209137817 3:0.9341257646232769 4:-45.30637470238522 5:-0.8471910944678288 6:-0.19872211813263455 7:0.8701857449882285 8:-58.7990230075676 9:-0.8345679239559006 10:0.028494951082073144 11:0.835054238916989 12:-73.9555106347195 13:-0.8156331681880082 14:0.24308884978485265 15:0.8510873362576431 16:-88.5960027758687 17:-0.7619846935123133 18:0.4639943337435962 19:0.8921386746987365 20:-103.33843386641233 21:-0.6452203662769775 22:0.6470303061665552 23:0.9137601097424769 24:-117.08024901920783 25:-0.49058652750585696 26:0.7827293891697834 27:0.9237642760143722 28:-129.92199899252842 29:-0.29808317719895183 30:0.8679357901252989 31:0.9176960914755214 32:-143.04551917396185 33:-0.06139873010029798 34:0.8994937164051193 35:0.901586795550058 36:-158.0950925987076 37:0.17844150962633792 38:0.8837147532652091 39:0.9015504076291663 40:6.584216072524853 41:0.3835680304451713 42:0.814287315449604 43:0.9001045861907996 44:-7.22266447517265 45:0.5760713807520764 46:0.7164577439821603 47:0.9193312431510258 48:-20.801193147005314 49:0.7149262563832867 50:0.5618239052110399 51:0.9092665464718276 52:-33.838010206992614 53:0.8064442425947661 54:0.3566973843922065 55:0.8818079952271286 56:-48.1397717757679 57:0.860092717270461 58:0.15157086357337315 59:0.8733459846968229 60:-62.00560078256554 61:0.8979622288062457 62:-0.05039986461747814 63:0.8993755115168193 64:-75.21246579024623 65:0.92005277720212 66:-0.2618379706922756 67:0.9565857179226452 68:-87.88583174026553 69:-0.6988688409526723 70:-0.6184425376542474 71:0.9332142461593462 72:-30.493763901047778 73:-0.6105066473691749 74:-0.7920111321932602 75:1.0 76:-19.626145889764217 77:-0.43693805283016207 78:-0.8866849110327217 79:0.988496329514743 80:-8.233024004901601 81:-0.2412789098952749 82:-0.8866849110327217 83:0.918926353857238 84:2.7776198535382974 85:-0.06771031535626208 86:-0.8235690584730807 87:0.82634779656019 88:13.299957611191502 89:0.14057199809055332 90:-0.7951669248212423 91:0.8074967027653065 92:-151.97466159893435 93:0.3299195557694764 94:-0.8298806437290448 95:0.893055875136188 96:-140.31967513395642 97:0.5318902839603277 98:-0.7825437543093141 99:0.9461934271489705 100:-127.79628896317183 101:0.6928357079874123 102:-0.656312049190032 103:0.9543410418579082 104:-115.44928733851245 105:0.7717305236869636 106:-0.47643186939505505 107:0.9069483598118594 108:-103.6893244935468 109:0.033275048739163565 110:-0.5521708924666243 111:0.553172598160811 112:-158.5513991552948 113:0.017496085599253305 114:-0.3817580905555935 115:0.3821588056239829 116:-159.3759537373494 117:0.008028707715307152 118:-0.2145010812725448 119:0.2146512846797538 120:-159.85643772792938 121:-0.001438670168639003 122:-0.044088279361514035 123:0.04411174615579207 124:16.131011437970642 125:-0.20972098361545438 126:0.047429706849965454 127:0.21501736688115997 128:-84.7434227588486 129:-0.10873561952002875 130:0.07898763312978596 131:0.1343967303912194 132:-107.99537188676103 133:-0.004594462796621054 134:0.11054555940960648 135:0.1106409950857835 136:-159.6200589848873 137:0.1027024865547687 138:0.08845501101373213 139:0.13554368195519817 140:-31.262525201846863 141:0.20053205802221227 142:0.06636446261785776 143:0.2112281898639028 144:-53.68845605572641 145:-0.5253002464136596 146:-0.4669644915111089 147:0.7028486218343748 148:-30.36457559279227 149:-0.4243148823182339 150:-0.5048340030468935 151:0.6594698552542698 152:-22.04717805798473 153:-0.31070634771088 154:-0.49852241779092943 155:0.5874206631945699 156:-13.933410254113866 157:-0.18763043521958003 158:-0.45434132099918073 159:0.4915599822890078 160:-4.439275340830747 161:-0.31070634771088 162:-0.42593918734734226 163:0.5272216097865761 164:-18.109320851665714 165:-0.42747067494621593 166:-0.42593918734734226 167:0.6034528724408293 168:-27.102820093221958 169:0.24155736218597895 170:-0.41962760209137817 171:0.4841872402936784 172:-132.07324741231224 173:0.3741006525612251 174:-0.44802973574321664 175:0.5836796573094448 176:-122.13843329460573 177:0.490864979796561 178:-0.4227833947193602 179:0.6478381180828313 180:-112.73841355346514 181:0.5855387586360226 182:-0.3754465052996294 183:0.6955686279632793 184:-104.66792705272377 185:0.47824180928463284 186:-0.3533559569037551 187:0.594622283830002 188:-108.45938419350891 189:0.35832168942131487 190:-0.3691349200436653 191:0.5144463259713189 192:-117.85160660474124 193:-0.39906854129437747 194:0.3566973843922065 195:0.5352464149184596 196:-113.79113647203982 197:-0.24759049515123902 198:0.2778025686926552 199:0.3721227223127783 200:-120.29109807045785 201:-0.10873561952002875 202:0.23993305715687058 203:0.26342229759275615 204:-137.62037084718293 205:-0.010906048052585156 206:0.265179398180727 207:0.26540357025409034 208:-159.64492046993402 209:0.09007931604284049 210:0.2462446424128347 211:0.26220356041779974 212:-2.093140622194184 213:0.20999943590615844 214:0.2967373244605475 215:0.363528269614495 216:-17.286840830548222 217:0.32676376314149436 218:0.3945668959279911 219:0.512306150914315 220:-21.63012960720799 221:0.19422047276624818 222:0.4419037853477219 223:0.4827013026149717 224:-5.72589730954482 225:0.06798876764696613 226:0.4545269558596501 227:0.4595837531170934 228:9.492693402197858 229:-0.03930818170442362 230:0.4608385411156142 231:0.46251193944208147 232:-157.12463819782664 233:-0.1434493384278313 234:0.448215370603686 235:0.47061101893260215 236:-144.25296058506453 237:-0.26968104354711336 238:0.4261248222078116 239:0.5042918097196296 240:-129.67156258684287 241:-0.34542006661868263 242:0.35354159176422445 243:0.49427389120814047 244:-117.66571344605342 245:-0.1182029974039749 246:0.3093604949724757 247:0.3311734657923235 248:-141.0887328288489 249:-0.01721763330854926 250:0.32198366548440394 251:0.32244368149418 252:-158.93910230820268 253:0.08692352341485844 254:0.31567208022843984 255:0.3274210762284615 256:2.6045642198466226 257:0.2668037032098354 258:0.37878793278808087 259:0.46331901976106005 260:-17.159398643886256 261:0.07745614553091228 262:0.34407421388027826 263:0.3526847305141482 264:5.31336434102073 265:-0.029840803820477466 266:0.35354159176422445 267:0.35479871854311107 268:-157.17536498682568 269:-0.1308261679159031 270:0.3409184212522962 271:0.3651586725804526 272:-141.00588178972478 
-0.002349219105175681 0.0017298057212866015 0.0 1:-0.8110639047183389 2:-0.5269872622258284 3:0.9672332873124417 4:-35.98627815013041 5:-0.8322020134922071 6:-0.2974877955381161 7:0.8837755256594355 8:-49.32952103701238 9:-0.8261625538425305 10:-0.05892913937588892 11:0.8282615582285556 12:-64.92007377389012 13:-0.7989849854189855 14:0.167550597486985 15:0.816364017851854 16:-80.84355210945171 17:-0.7536890380464109 18:0.384971144875344 19:0.8463155135396947 20:-96.05714841661074 21:-0.6449787643522313 22:0.5872930431395114 23:0.8723019689221154 24:-111.31979811483131 25:-0.500031732759992 26:0.7503584536807806 27:0.9017036890116243 28:-125.32088903660517 29:-0.31280848362001623 30:0.8530292677252834 31:0.9085747514765018 32:-138.86185610673084 33:-0.09840766605649556 34:0.8953054852730199 35:0.900697496776051 36:-152.7275031244738 37:0.1190128813318634 38:0.8892660256233432 39:0.8971945888439412 40:13.3772461231665 41:0.34247288836989903 42:0.8137727800023853 43:0.8829007966590764 44:-1.8235893134052787 45:0.5357355971595514 46:0.6899638571840142 47:0.8735346325613793 48:-16.828233702043057 49:0.6746431691021141 50:0.5087800676937151 51:0.8449855400529437 52:-31.978340167555793 53:0.7652350638472637 54:0.309477899254386 55:0.8254461054897732 56:-46.98050836840257 57:0.8256296603440301 58:0.09809681151570367 59:0.831436901075088 60:-62.224193392698574 61:0.8799847971911198 62:-0.11630400604781699 63:0.8876372373386927 64:-76.52891420227414 65:0.910182095439503 66:-0.3367442832610143 67:0.9704783146302749 68:-89.30319509970643 69:-0.6812155222502911 70:-0.6598553745187145 71:0.9484006026126143 72:-24.91251166554256 73:-0.5725052485561116 74:-0.8199010552351453 75:1.0 76:-13.925109771006824 77:-0.3792425397664592 78:-0.874256192082235 79:0.952968411524036 80:-2.4506596059659387 81:-0.17692064150229186 82:-0.8349997043593369 83:0.8535370054483651 84:9.037034184672905 85:-0.004796041486507676 86:-0.7444078096141874 87:0.7444232593280066 88:20.630862102801316 89:0.14619044975540826 90:-0.7111907815409658 91:0.726060586554964 92:-147.38423452571982 93:0.34247288836989903 94:-0.7655459183880556 95:0.8386585911019053 96:-134.8982756458735 97:0.550834246283743 98:-0.7534669990887023 99:0.9333439267465738 100:-122.83072480338484 101:0.7380574954237188 102:-0.6628751043435528 103:0.9920344099423207 104:-110.9281138465384 105:0.8226099305191917 106:-0.47565185520357695 107:0.9502272281656604 108:-99.03748206056318 109:0.05257882518542038 110:-0.5179280727513135 111:0.5205900704025854 112:-153.2033275735892 113:0.03446044623639047 114:-0.3397640130858526 115:0.34150711111632004 116:-153.20860004333284 117:0.013322337462522238 118:-0.16461968324523008 119:0.16515787836862406 120:-154.37325176993699 121:-0.004796041486507676 122:0.013544376420230736 123:0.01436844273236335 124:-139.50102902304516 125:-0.19201929062648346 126:0.07997843256667375 127:0.20800951336061507 128:-91.61233754368418 129:-0.10746685553101053 130:0.11621519046473358 131:0.1582880144940778 132:-116.23972973929243 133:-0.016874960785860954 134:0.14641248871311677 135:0.14738175311989232 136:-152.42531114794974 137:0.07975639360896526 138:0.14037302906344012 139:0.16144865936251562 140:-8.604139328819173 141:0.17336801817895314 142:0.12225465011441022 143:0.21213832563187326 144:-33.80949750539432 145:-0.5060711924096687 146:-0.5118886131016368 147:0.7198180353464763 148:-23.672570544503245 149:-0.4064201081900041 150:-0.5360464517003434 151:0.6726983742523117 152:-16.168704455029257 153:-0.291670374846148 154:-0.52396753240099 155:0.5996778990201949 156:-8.102820717101608 157:-0.17390091167745356 158:-0.46961239555390033 159:0.5007767258370964 160:0.6800395536938026 161:-0.2977098344958246 162:-0.4605532060793854 163:0.5483980317119419 164:-11.879350514462253 165:-0.4154792976645191 166:-0.466592665729062 167:0.6247653659574562 168:-20.68359377937893 169:0.2699993725737794 170:-0.4152572587068106 171:0.4953163151955824 172:-125.96816452783742 173:0.39380829539215045 174:-0.4514940166048704 175:0.5991091891714483 176:-117.90396647385386 177:0.5115777585608449 178:-0.42733617800616386 179:0.6665793366787286 180:-108.8730152336979 181:0.6082091129556711 182:-0.3880796902832657 183:0.72147361080824 184:-101.54070594624977 185:0.50251856908633 186:-0.35788239203488253 187:0.6169316970339439 188:-104.45761228158193 189:0.3847491059176355 190:-0.37600077098391244 191:0.5379669639345119 192:-113.34114931667955 193:-0.39434118889065084 194:0.34873438697728415 195:0.5264224975398697 196:-110.48783567736476 197:-0.2614730765977648 198:0.28532006065567944 199:0.38700866501676834 200:-116.4972263917333 201:-0.12558523448004044 202:0.2490833027576196 203:0.27895186472230427 204:-132.24322935925716 205:-0.02593415026037591 206:0.28532006065567944 207:0.2864962777459567 208:-153.80637514199242 209:0.07673666378412694 210:0.26720168170664954 211:0.2780022558821777 212:4.976659257861385 213:0.19450612695282138 214:0.3396751975027692 215:0.39142288285271765 216:-8.79648239593083 217:0.3092558602966775 218:0.4332868220727571 219:0.5323313416564416 220:-14.517119565546608 221:0.17638774800379148 222:0.48764195891984685 223:0.5185627423417871 224:1.1141476874581002 225:0.04653936553574375 226:0.5087800676937151 227:0.5109041689269044 228:15.77355850188846 229:-0.06519063798327406 230:0.5057603378688768 231:0.5099444466232638 232:-151.6552828297771 233:-0.17088118185261522 234:0.4846222290950085 235:0.5138667952342917 236:-139.57699386294078 237:-0.29469010467098633 238:0.4332868220727571 239:0.5240035572139811 240:-124.77931893585543 241:-0.33696632221872275 242:0.34873438697728415 243:0.4849350213894994 244:-114.98321942500823 245:-0.13766415377939373 246:0.3336357378530926 247:0.3609213554343578 248:-136.57806868875207 249:-0.03499333973489087 250:0.3577935764517991 251:0.3595007332064441 252:-153.41405762793016 253:0.06767747430961198 254:0.35477384662696076 255:0.36117132053835405 256:10.199884127969781 257:0.24886126379991114 258:0.4212079027734038 259:0.48923207783102096 260:-9.575767007005922 261:0.055598555010258705 262:0.34873438697728415 263:0.35313860165613575 264:11.941596277528205 265:-0.05009198885908246 266:0.35477384662696076 267:0.3582927428770345 268:-150.963296583197 269:-0.14974307307874699 270:0.33061600802825425 271:0.362946184302309 272:-134.6332092524733 
-8.209618175571903E-4 0.0 0.0 1:-0.8471159851938593 2:-0.42958930008968804 3:0.9498170661356381 4:-45.109530904482384 5:-0.8567283815104434 6:-0.20850418480825586 7:0.8817355129334755 8:-58.32169733088321 9:-0.8439118530883314 10:0.01898919468423235 11:0.8441254677461976 12:-73.28901749707468 13:-0.8278911925606913 14:0.24007430996566456 15:0.8619973903818118 16:-88.17125660398406 17:-0.7798292109777712 18:0.46115942524709674 19:0.9059810228633082 20:-102.5983514697385 21:-0.6644804551787632 22:0.6534073515787769 23:0.9319202983151337 24:-116.51860304798494 25:-0.504273849902363 26:0.7943891642220091 27:0.9409284031894738 28:-129.5928454752539 29:-0.30882179146515487 30:0.8905131273878492 31:0.9425415263710324 32:-142.873922824258 33:-0.07171601565608264 34:0.9321668447597132 35:0.9349215011811756 36:-157.60063022028817 37:0.1653897601529896 38:0.9129420521265452 39:0.9278022220842601 40:7.731590461668361 41:0.37045421490678176 42:0.8424511458049291 43:0.9203044378955465 44:-5.736713335905733 45:0.572314537555046 46:0.736714786322505 47:0.9328947455544276 48:-19.84173369086289 49:0.7165004823038061 50:0.5797123131516329 51:0.9216503171817407 52:-33.024075890847655 53:0.8094203133641182 54:0.3842602547144247 55:0.8960006624102808 56:-46.60466553329885 57:0.8606864270525663 58:0.1695834036440485 59:0.8772340944719447 60:-60.85363307568302 61:0.9055442765299583 62:-0.0386851832152717 63:0.9063702224568969 64:-74.4462092782595 65:0.9279732012686543 66:-0.2597702984967039 67:0.9636466521779967 68:-87.63868530687093 69:-0.6965217762340432 70:-0.6474702832655923 71:0.950978628824146 72:-29.09018843962334 73:-0.5939895488571472 74:-0.8044727564364644 75:1.0 76:-18.440632803263462 77:-0.411354018842051 78:-0.8781677948636085 79:0.969737492702597 80:-7.099473749806435 81:-0.20949369619378677 82:-0.8589430022304405 83:0.8841214225577712 84:4.293328423725313 85:-0.036470562495274604 86:-0.7724314353811844 87:0.7732919398867149 88:15.296771584910644 89:0.13655257120323755 90:-0.7403901143259044 91:0.752877231754116 92:-151.55018162099404 93:0.32239223332386174 94:-0.7948603601198804 95:0.8577527290527575 96:-139.92271909859159 97:0.5338649522887099 98:-0.7724314353811844 99:0.9389686414610784 100:-127.34976236173478 101:0.7132963501982781 102:-0.6634909437932323 103:0.9741724260631783 104:-114.92822335022257 105:0.8030120491530622 106:-0.4840595458836641 107:0.9376257222613399 108:-103.08177592323169 109:0.03722447593186947 110:-0.5577545843108082 111:0.5589953827431179 112:-158.1817487372572 113:0.024407947509757454 114:-0.384731450612296 115:0.3855049117610315 116:-158.36993364667023 117:0.011591419087645443 118:-0.21811658112483986 119:0.21842436667655532 120:-158.9579789634476 121:0.001979022771061435 122:-0.04509344742632771 123:0.045136853367501825 124:-159.48706422818492 125:-0.20949369619378677 126:0.031805723106344365 127:0.21189434340550972 128:-80.63282626709166 129:-0.11336973302794667 130:0.06705117626715239 131:0.13171391955915915 132:-102.60168605329574 133:-0.010837505651050577 134:0.09909249732243243 135:0.09968337150364062 136:-155.75850632026618 137:0.09810298593690152 138:0.08307183679479241 139:0.12855009108591298 140:-31.74267636197925 141:0.1974310812082696 142:0.06064291205609639 143:0.20653472979068146 144:-54.925141430404594 145:-0.529906906746587 146:-0.4840595458836641 147:0.7177151062774388 148:-29.588914340372312 149:-0.424170547264163 150:-0.5128967348334161 151:0.6655702170088136 152:-21.591076473031748 153:-0.30882179146515487 154:-0.5064884706223601 155:0.5932128368108068 156:-13.371962638756948 157:-0.18706477145509073 158:-0.4648347532504961 159:0.5010634456323819 160:-3.9214738097201973 161:-0.3120259235706829 162:-0.4424058285118001 163:0.5413714935987578 164:-17.195065485429012 165:-0.430578811475219 166:-0.4456099606173281 167:0.6196501834848344 168:-26.017178758912223 169:0.25830959121330166 170:-0.42318103587863204 171:0.4957882955860244 172:-130.6001199774052 173:0.38647487543442177 174:-0.4488140927228561 175:0.5922811149856901 176:-121.26818114067336 177:0.4986194991279019 178:-0.42638516798416004 179:0.6560683778292017 180:-112.5347900074507 181:0.594743462293742 182:-0.381527318506768 183:0.7065995193234372 184:-104.68012999937591 185:0.4890071028113179 186:-0.3623025258736 187:0.6085976231093163 188:-108.53453232087537 189:0.37365834701230977 190:-0.37832318640124 191:0.5317414725792592 192:-117.35542386195785 193:-0.3985374904199389 194:0.32979000892044863 195:0.5172944821414323 196:-111.60777671413058 197:-0.2575556777767068 198:0.2528908383877766 199:0.36095526495050795 200:-116.4764031875044 201:-0.11977799723900268 202:0.22084951733249653 203:0.2512394832198618 204:-133.52675698442334 205:-0.01404163775657858 206:0.24968670628224857 207:0.2500812245750665 208:-158.78124612286754 209:0.09489885383137352 210:0.23366604575460856 211:0.25220153329649525 212:-4.103559774449366 213:0.21345174173590964 214:0.2817280273375286 215:0.3534576741812076 216:-19.14945410204752 217:0.31918810121833374 218:0.3810561226088967 219:0.49707626430668733 220:-21.9509103513424 221:0.1910228169972136 222:0.44513876471945674 223:0.48439471143842483 224:-5.225668258014153 225:0.06606166488162149 226:0.46756768945815275 227:0.47221148629842463 228:9.958028758576049 229:-0.04608295881185861 230:0.47077182156368075 231:0.47302193085653177 232:-156.40923669211992 233:-0.15502345039981072 234:0.45795529314156874 235:0.48348249264088433 236:-143.29841326756406 237:-0.2831887346209308 238:0.4227098399807607 239:0.5088019931493629 240:-128.18042742661243 241:-0.3536796409425469 242:0.32658587681492063 243:0.48140172761657124 244:-114.71921661931165 245:-0.12618626145005868 246:0.2881362915485846 247:0.31455602853245956 248:-138.34949007158923 249:-0.020449901967634587 250:0.3009528199706966 251:0.30164681058947135 252:-158.1126972950656 253:0.08849058962031751 254:0.2977486878651686 255:0.31062013066892663 256:1.4481074255360937 257:0.26471785542435766 258:0.36503546208125665 259:0.4509173223079235 260:-17.949019328238315 261:0.07887819330373351 262:0.36183132997572864 263:0.3703291518782525 264:5.702085306936041 265:-0.033266430389746596 266:0.3682395941867847 267:0.36973917038599485 268:-156.83796362145054 269:-0.13900278987217068 270:0.35542306576467264 271:0.38163769634275607 272:-140.63997538320365 
-0.0 0.003196553508529673 0.0 1:-0.8375707995560161 2:-0.46654102567192196 3:0.958741556887941 4:-40.8814574756253 5:-0.8469337478331506 6:-0.24183026702069427 7:0.8807829762580605 8:-54.06403658314686 9:-0.8344498167969713 10:-0.007756560092332045 11:0.8344858662535662 12:-69.46742710155362 13:-0.8094819547246126 14:0.21383321579985085 15:0.8372488753077459 16:-84.79727791377664 17:-0.7595462305798953 18:0.4291810261739441 19:0.8724143680704985 20:-99.46858712573129 21:-0.6471908512542816 22:0.6258029399937683 23:0.9002695805435645 24:-114.03744875329251 25:-0.4880207305429952 26:0.7724891296688753 27:0.9137306435138832 28:-127.71731193595079 29:-0.2945197994822158 30:0.8723605779583099 31:0.9207360589565292 32:-141.34467693353776 33:-0.06668805807194321 34:0.9098123710668479 35:0.9122531708005659 36:-155.8077913201734 37:0.167385648856419 38:0.887965491753534 39:0.9036042662516485 40:9.324746062296683 41:0.3827334592305122 42:0.8036989572593236 43:0.8901780241694793 44:-5.46448812995213 45:0.5793553730503365 46:0.6882225951746649 47:0.8996126882115688 48:-20.091140010009745 49:0.7229205799663987 50:0.5165685434271993 51:0.8885140544737896 52:-34.45200062798816 53:0.8071871144606091 54:0.3168256468483302 55:0.8671387018534619 56:-48.56970334597614 57:0.8602438213643712 58:0.10459881923328182 59:0.8665796819569294 60:-63.06732011375174 61:0.9101795455090884 62:-0.10762800838176659 63:0.9165209180653524 64:-76.7438639096089 65:0.9320264248224023 66:-0.3323387670329943 67:0.9895060953022169 68:-89.62504236263801 69:-0.7002475581580436 70:-0.631953111901298 71:0.9432451316323012 72:-27.934663820265747 73:-0.6034970926276539 74:-0.797365198130674 75:1.0 76:-17.12077118214637 77:-0.4162381270849641 78:-0.8753897671067946 79:0.9693097661710043 80:-5.4305694949966465 81:-0.21649523050609504 82:-0.8535428877934809 83:0.8805712044660112 84:5.767471903987385 85:-0.03859921324053975 86:-0.7661553705402256 87:0.7671270762203737 88:17.115854284170723 89:0.12993385574788105 90:-0.7380665257088221 91:0.7494164418008206 92:-150.0155995438182 93:0.3203138040496156 94:-0.8004861808897188 95:0.862194327782399 96:-138.1912276919686 97:0.532540631664664 98:-0.7880022498535394 99:0.9510767950844136 100:-125.94873757269482 101:0.716678614448309 102:-0.6881308015641049 103:0.9935553514871758 104:-113.83582493616774 105:0.8040661317015643 106:-0.4977508532623703 107:0.9456628659691227 108:-101.75925490272999 109:0.0300624074584465 110:-0.5258396980937737 111:0.526698335324452 112:-156.7279454704494 113:0.017578476422267182 114:-0.36354859462344263 115:0.3639733279871046 116:-157.23176292554763 117:-0.0011474201320017963 118:-0.2043784739121563 119:0.204381694805629 120:19.678333833635406 121:-0.010510368409136285 122:-0.03896638768278034 123:0.04035897933719961 124:4.904893031989005 125:-0.19776933395182605 126:0.06714702612474387 127:0.2088574455678943 128:-88.75347662968628 129:-0.11038181669857083 130:0.0921148881971025 131:0.14376820957792297 132:-109.8453842169312 133:-0.019873316686270775 134:0.11396176751041631 135:0.11568160255723893 136:-150.10790210437779 137:0.0831191143622086 138:0.10147783647423698 139:0.13117369579244878 140:-19.320438547040908 141:0.18299056265164315 142:0.08275193991996802 143:0.2008318440389445 144:-45.66657938247013 145:-0.5161095753743987 146:-0.46654102567192196 147:0.6957223745346639 148:-27.887764426159805 149:-0.4131171443259193 150:-0.47278299119001166 151:0.6278451494553232 152:-21.14691762662892 153:-0.30388274775935026 154:-0.46966200843096684 155:0.5593988975223159 156:-12.903849949645931 157:-0.18840638567469156 158:-0.44781512911765303 159:0.4858347003144803 160:-2.817638256317778 161:-0.3070037305183951 162:-0.42284726704529435 163:0.5225429186199788 164:-15.98112385564962 165:-0.419359109844009 166:-0.4259682498043392 167:0.5977549772695594 168:-24.552045599846025 169:0.2422892350734949 170:-0.4134843187681599 171:0.4792424806918399 172:-129.63099449521525 173:0.37024952819433293 174:-0.4259682498043392 175:0.5643878657178041 176:-119.00298975340453 177:0.4826049075199468 178:-0.4041213704910254 179:0.629461340234554 180:-109.94197025368192 181:0.5855973385684261 182:-0.38539547393675644 183:0.7010377409735948 184:-103.34986125199043 185:0.4732419592428123 186:-0.3541856463463081 187:0.5911052563340371 188:-106.81206358413883 189:0.3577655971581536 190:-0.36666957738248745 191:0.512291715224619 192:-115.70418281514236 193:-0.38502829949451584 194:0.357398422715913 195:0.5253383899654213 196:-112.86868517443509 197:-0.2445840753374985 198:0.27001090546265777 199:0.3643175249387043 200:-117.82876090274698 201:-0.11350279945761566 202:0.22631714683603016 203:0.25318439216649385 204:-133.36527421659395 205:-0.013631351168181115 206:0.2606479571855233 207:0.2610041595830547 208:-157.00627613827174 209:0.0831191143622086 210:0.2388010778722095 211:0.2528532024026727 212:0.8086066526630162 213:0.1985954764468673 214:0.3012207330531061 215:0.36079647072305016 216:-13.396950511151609 217:0.30782987301343634 218:0.4042131641015855 219:0.5080821909420596 220:-17.291205383472246 221:0.18299056265164315 222:0.46663281928248207 223:0.5012302206083373 224:-1.4126821613283482 225:0.058151252289849964 226:0.4916006813548407 227:0.49502807804347965 228:13.253853101269627 229:-0.04484117875862941 230:0.4947216641138855 231:0.4967496917523709 232:-154.82090799103747 233:-0.15095459256615362 234:0.47911675031866136 235:0.5023346986350116 236:-142.51200262385146 237:-0.272672920168902 238:0.44478593996916826 239:0.5217135744713692 240:-128.48991082076373 241:-0.3288506098317089 242:0.35115645719782335 243:0.4810962284391903 244:-116.87876403770956 245:-0.11974476497570533 246:0.3199466296073751 247:0.3416206295530259 248:-139.48089363778848 249:-0.019873316686270775 250:0.33867252616164406 251:0.3392551085729178 252:-156.64173251099743 253:0.07687714884411895 254:0.33243056064355436 255:0.3412040059322116 256:6.97881031660269 257:0.2422892350734949 258:0.39172923306540613 259:0.4606038053148395 260:-11.737288726080045 261:0.06751420056698446 262:0.33867252616164406 263:0.34533642619177674 264:8.725909118247614 265:-0.03235724772245009 266:0.3449144916797337 267:0.3464289220761758 268:-154.64063227616788 269:-0.13534967877092946 270:0.32930957788450954 271:0.3560397922000681 272:-137.65682529655209 
-0.0025988375079542456 0.0 0.0 1:-0.8472891866046228 2:-0.4534465073466591 3:0.9609956819684503 4:-42.84550181910832 5:-0.8599847553126301 6:-0.23127405495653056 7:0.8905399866744674 8:-55.94768338383032 9:-0.8536369709586265 10:-0.015449386920405659 11:0.8537767634127995 12:-69.96315639008844 13:-0.8314197257196136 14:0.2067230654697229 15:0.856734022969134 16:-84.96280776319895 17:-0.7711157743565787 18:0.4320694100368533 19:0.8839137472350683 20:-100.26265867865263 21:-0.6600295481615144 22:0.6225029406569635 23:0.9072755455609172 24:-114.32401676591935 25:-0.4981610471344208 26:0.7716758729760498 27:0.918503174635456 28:-128.15543711313757 29:-0.3045536243373087 30:0.8700665304631068 31:0.9218289849690663 32:-141.7081739623345 33:-0.06651171106217096 34:0.9081532365871288 35:0.9105855856711631 36:-156.8112261120438 37:0.17153020221296678 38:0.8922837757021196 39:0.908621453990853 40:8.118363682899158 41:0.38100708589508797 42:0.8288059321620829 43:0.9121873013199241 44:-5.688527092718729 45:0.5809622930462037 46:0.7208935981440204 47:0.9258535336577464 48:-19.865058647063925 49:0.7237874410112863 50:0.5685467736479323 51:0.9203877952206556 52:-32.84979077434474 53:0.8158303141443396 54:0.36541767431981476 55:0.893929067757702 56:-46.871966787627684 57:0.8602648046223653 58:0.14007132975268433 59:0.8715936619151391 60:-61.752056133327955 61:0.8983515107463874 62:-0.06623166175243504 63:0.9007896923693152 64:-75.21654714978895 65:0.9205687559854002 66:-0.2884041141425636 67:0.9646884302980233 68:-88.39520261671646 69:-0.7012901464625383 70:-0.6534017144977748 71:0.9585101303763461 72:-28.024565928148753 73:-0.5965517046214777 74:-0.8025746468168612 75:1.0 76:-17.623328829617606 77:-0.40929206617836933 78:-0.8565308138258924 79:0.949297124439869 80:-6.540738845847628 81:-0.21885853555825913 82:-0.8216179998788722 83:0.8502677203749793 84:4.084183102319315 85:-0.050642250177161785 86:-0.7390968032768244 87:0.7408297524512816 88:15.080271109253133 89:0.14931295697395391 90:-0.707357881506806 91:0.722945040546031 92:-149.08066899053964 93:0.3302248110630586 94:-0.7644879406928391 95:0.8327606122448459 96:-137.63780167619174 97:0.5333539103911762 98:-0.7613140485158373 99:0.929551221933 100:-125.98606071812642 101:0.711091872303279 102:-0.6756189597367876 103:0.9808734014191648 104:-114.5346584296575 105:0.7936130689053268 106:-0.5010548900016867 107:0.9385508542065971 108:-103.26664186410558 109:0.03822673077888964 110:-0.551837164833716 111:0.5531595967148681 112:-157.03735087009719 113:0.02235726989388046 114:-0.3899686638066224 115:0.390609019696461 116:-157.7187709369539 117:0.00966170118587311 118:-0.22810016277952871 119:0.22830469274601564 120:-158.57455677896195 121:1.4002465486760073E-4 122:-0.06305776957543321 123:0.06305792504303008 124:-160.8727704988775 125:-0.20933685902725363 126:0.03533288791162373 127:0.21229774731629072 128:-80.58036373083704 129:-0.11094620154019669 130:0.07341959403564577 131:0.13303945439063172 132:-104.49493815651817 133:-0.009381651876137908 134:0.1019846236286623 135:0.10241522762072516 136:-155.74410510382387 137:0.09218289778792087 138:0.0861151627436531 139:0.12614875306139228 140:-27.949104159817182 141:0.1905735552749778 142:0.06389791750464026 143:0.20100055679419104 144:-52.464074727918714 145:-0.5362477532584428 146:-0.49153321347068113 147:0.7274383498410996 148:-28.491133750651258 149:-0.434683203594384 150:-0.513750458709694 151:0.6729702974957348 152:-21.234491495570076 153:-0.3204230852223179 154:-0.5074026743556903 155:0.6001070133623632 156:-13.272273146399321 157:-0.1998151824962481 158:-0.47248986040867014 159:0.5130036796603057 160:-3.923421748959143 161:-0.31724919304531607 162:-0.44709872299265546 163:0.5482192249361266 164:-16.358483753160165 165:-0.4378570957713859 166:-0.44709872299265546 167:0.6257923812407881 168:-25.401679748468936 169:0.25722529099201635 170:-0.4280553699306444 171:0.499395885097573 172:-129.9976715891034 173:0.3905287624260935 174:-0.45662039952366096 175:0.600845157709708 176:-120.46098177745296 177:0.5016149886211578 178:-0.4344031542846481 179:0.6635689092037511 180:-111.89286146797069 181:0.5968317539312129 182:-0.39314255598362424 183:0.714681195937003 184:-104.37353094615133 185:0.4920933120901523 186:-0.3709253107446114 187:0.6162316236244635 188:-108.00790093800715 189:0.37465930154108434 190:-0.38679477162962056 191:0.5384977136360595 192:-116.91305882171957 193:-0.38707482093935647 194:0.33367875254979634 195:0.5110464038699648 196:-111.76305851417845 197:-0.22838021208926462 198:0.301939830779778 199:0.37858312519875803 200:-123.89699296056813 201:-0.104598417186193 202:0.2892442620717707 203:0.3075761239421877 204:-141.11866207358736 205:-0.01890332840714342 206:0.31146150731078354 207:0.31203462365765366 208:-157.52684528305406 209:0.07631343690291167 210:0.301939830779778 211:0.3114344265864897 212:4.8158887223288644 213:0.18739966309797595 214:0.3400265369038 215:0.3882482189631089 216:-9.86058597029102 217:0.31435535017804944 218:0.3876349195588276 219:0.49907926930192437 220:-20.04057500928584 221:0.17470409438996862 222:0.43841719439085697 223:0.47194401885623 224:-2.726700150619962 225:0.05409619166389883 226:0.44159108656785884 227:0.44489221805817136 228:12.015898462269377 229:-0.041120573646156275 230:0.44159108656785884 231:0.44350150993336107 232:-155.68000885246119 233:-0.13316344677920955 234:0.42572162568284966 235:0.4460621101731997 236:-143.63059644313336 237:-0.2505974573282775 238:0.4035043804438368 239:0.47498933741375965 240:-129.15754274001483 241:-0.33629254610732706 242:0.3368526447267982 243:0.4759856939308022 244:-116.04767363718537 245:-0.11412009371719851 246:0.3368526447267982 247:0.3556586847659715 248:-142.28447149837297 249:-0.025251112761147092 250:0.3558959977888092 251:0.3567906668310821 252:-156.94161835191022 253:0.069965652548908 254:0.3527221056118074 255:0.35959432187372137 256:7.780494554295117 257:0.2603991831690182 258:0.38128713520482393 259:0.4617224426728611 260:-15.331033805105342 261:0.06361786819490434 262:0.3558959977888092 263:0.36153726556989435 264:8.865185887766913 265:-0.031598897115150765 266:0.3558959977888092 267:0.35729602788302306 268:-155.92619075456562 269:-0.1204678780712022 270:0.3400265369038 271:0.3607361299423296 272:-141.49129136199912 
-5.772027053003818E-4 0.004172703840581346 0.0 1:-0.8397723957038097 2:-0.48436988087191873 3:0.9694492550319447 4:-40.02420651476342 5:-0.8555453829173383 6:-0.25723886499710646 7:0.8933810698107356 8:-53.26541878976205 9:-0.8523907854746325 10:-0.03326244656499995 11:0.8530395310380116 12:-67.7653074581466 13:-0.8366177982611039 14:0.1907139718671066 15:0.8580799260165599 16:-82.84161171058656 17:-0.7798350442924009 18:0.4146903902992131 19:0.8832388216745483 20:-98.00256268873176 21:-0.6694241337977005 22:0.6071208343042623 23:0.9037280444675296 24:-112.2058283597415 25:-0.502230469334297 26:0.7616961089968429 27:0.9123685695971112 28:-126.60081661298892 29:-0.30033623300113055 30:0.8657978246061319 31:0.9164102388919603 32:-140.86887333565826 33:-0.06374142479820112 34:0.9036529939186007 35:0.9058982849378594 36:-155.96518178531113 37:0.17600798084743405 38:0.887880006705072 39:0.9051572877840565 40:8.78739464178416 41:0.38421141206601195 42:0.8027058757520174 43:0.8899186098338274 44:-5.57788946907209 45:0.5766418560710612 46:0.6859857703719056 47:0.8961541760912657 48:-20.050517488169845 49:0.7091349486647017 50:0.5219467033512077 51:0.8805116334023547 52:-33.64570637607552 53:0.7943090796177563 54:0.3295162593461585 55:0.8599464396906891 56:-47.469058171122626 57:0.8416280412583422 58:0.11815823068487488 59:0.8498818313806538 60:-62.008336781624664 61:0.8857924054562224 62:-0.08689060309099729 63:0.8900439104164681 64:-75.60242802951046 65:0.9078745875551625 66:-0.30140322919498663 67:0.9565982298214972 68:-88.36553350912224 69:-0.697815510782052 70:-0.6704911299915566 71:0.9677318029729985 72:-26.14401523299604 73:-0.5874046002873516 74:-0.8092934174706085 75:1.0 76:-15.973046267521 77:-0.39812875372500806 78:-0.8566123791111944 79:0.944611704664498 80:-4.9276475230099805 81:-0.2088529071626645 82:-0.8219118072414314 83:0.8480321666736307 84:5.742541340474702 85:-0.03850464525655531 86:-0.7398922737310826 87:0.7408935041106005 88:17.020964584260057 89:0.16654418851931688 90:-0.7146554941894367 91:0.7338047711106175 92:-146.8818513802651 93:0.34635624275354326 94:-0.768283650715434 95:0.842746945916143 96:-135.7332822718057 97:0.5387866867585925 98:-0.7588198583873169 99:0.9306442238101783 100:-124.62401388236896 101:0.7122895461074075 102:-0.6704911299915566 103:0.9782201965259412 104:-113.2686019116993 105:0.7974636770604621 106:-0.5064520629708589 107:0.9446914884332512 108:-102.41875387808561 109:0.040360290811087836 110:-0.5443072322833276 111:0.5458015355331018 112:-155.75928819975223 113:0.027741901040264933 114:-0.38342276270533554 115:0.38442506166211365 116:-155.86167277295056 117:0.01512351126944203 118:-0.21938369568463778 119:0.21990435767707445 120:-156.05647701305742 121:0.008814316384030577 122:-0.052190031221234306 123:0.0529291179993697 124:-150.41383984465585 125:-0.2088529071626645 126:0.036138697174526016 127:0.21195646313280625 128:-79.81692435443384 129:-0.11421498388149273 130:0.06768467160158327 131:0.1327639910249154 132:-100.65130586682054 133:-0.010113268272203777 134:0.09923064602864053 135:0.09974467056643636 136:-154.18069138023188 137:0.0971430447797909 138:0.0834576588151119 139:0.12807010566087654 140:-29.333422591878893 141:0.19809016294637413 142:0.06137547671617182 143:0.20738047593314662 144:-52.78513345231004 145:-0.5243126514332371 146:-0.4938336732000359 147:0.7202606842242544 148:-26.714680298030196 149:-0.4233655332666539 150:-0.515915855298976 151:0.6673886008219141 152:-19.3726330114603 153:-0.31295462277195346 154:-0.5096066604135645 155:0.5980297185359619 156:-11.554508040246219 157:-0.20569830971995878 158:-0.47490608854380156 159:0.5175399381280842 160:-3.419110839303954 161:-0.3192638176573649 162:-0.4528239064448615 163:0.5540567439469894 164:-15.18577748072834 165:-0.4296747281520653 166:-0.4528239064448615 167:0.6242354221449916 168:-23.497395832315696 169:0.27064590412860584 170:-0.4307417243459214 171:0.5087117440300432 172:-127.8578161090038 173:0.3936752043941291 174:-0.4528239064448615 175:0.6000247134933228 176:-118.99701731540964 177:0.5040861148888295 178:-0.42758712690321565 179:0.6610095024408204 180:-110.30601664399605 181:0.5955694407272956 182:-0.3865773601480412 183:0.7100316993678888 184:-102.98714442644969 185:0.49462232256071237 186:-0.3676497754918069 187:0.6162934361118326 188:-106.62319858563691 189:0.3810568146233062 190:-0.3865773601480412 191:0.5428133669594819 192:-115.4120432840286 193:-0.3602735844125393 194:0.3515984414450986 195:0.5034069125986269 196:-114.30180642360625 197:-0.22778049181889887 198:0.3263616619034528 199:0.39798980742431467 200:-125.08731405201425 201:-0.11421498388149273 202:0.30743407724721844 203:0.3279645932046603 204:-139.61944046078173 205:-0.025886255485732406 206:0.33582545423156995 207:0.3368216648805609 208:-155.59221592863088 209:0.0719062652381451 210:0.32005246701804135 211:0.32803062757131823 212:7.337601109485618 213:0.17600798084743405 214:0.3673714286586272 215:0.4073580438835982 216:-5.599122780002887 217:0.2927280862275459 218:0.40522659797109595 219:0.4998983178304061 220:-15.843639723828609 221:0.16023499363390542 222:0.4462363647262704 223:0.47413304713864307 224:0.24775171238086102 225:0.049824083139205014 226:0.4525455596116818 227:0.45528004874463 228:13.71718847297268 229:-0.04796843758467249 230:0.45570015705438754 231:0.45821785663994813 232:-153.99099404250546 233:-0.14576095830855 234:0.43992716984085894 235:0.46344597498652934 236:-141.6684304904333 237:-0.24986267391783895 238:0.42099958518462455 239:0.48956307718515524 240:-129.31092738490872 241:-0.306645427886542 242:0.3642168312159215 243:0.4761148165985674 244:-119.90493600341208 245:-0.12052417876690417 246:0.39260820820027303 247:0.410691225635106 248:-142.9343861630943 249:-0.03219545037114386 250:0.40838119541380163 251:0.4096483220912866 252:-155.49230972686559 253:0.06875166779543937 254:0.40522659797109595 255:0.41101750270260107 256:10.370762258392503 257:0.2327907348161371 258:0.40838119541380163 259:0.4700709807931593 260:-9.684564804490059 261:0.05928787546732219 262:0.3295162593461585 263:0.3348074332372468 264:9.800245499884639 265:-0.03850464525655531 266:0.33582545423156995 267:0.33802565496744985 268:-153.4592160988856 269:-0.12683337365231565 270:0.32005246701804135 271:0.34426775381432745 272:-138.38210613305978 
-0.0 0.0 5.656542103739987E-4 1:-0.8304282363821129 2:-0.42330179943646623 3:0.9320919853677838 4:-43.99027942916659 5:-0.8430710484439027 6:-0.20205258835514658 7:0.8669452354014731 8:-57.52254757213585 9:-0.8335889393975604 10:0.019196622726173115 11:0.8338099484954834 12:-72.31922466708563 13:-0.8146247213048758 14:0.2404458338074928 15:0.8493689631464214 16:-87.4445699719038 17:-0.7672141760731644 18:0.45853434187336506 19:0.8937960251896763 20:-101.86513379383588 21:-0.659750273547952 22:0.6513372258156579 23:0.927097947996777 24:-115.63234680197884 25:-0.5017151227755808 26:0.8030509705571343 27:0.9468943582757642 28:-129.00445497318543 29:-0.30259083280239313 30:0.9073541700668992 31:0.9564793787812875 32:-142.55712681501797 33:-0.06553810664383633 34:0.9452826062522683 35:0.9475518186914845 36:-157.03392947461276 37:0.1778360255456153 38:0.9326397941904787 39:0.9494433304255285 40:8.204417985922717 41:0.3864424245651453 42:0.8536222188042931 43:0.9370211523440398 44:-5.356688660735955 45:0.5697631994610959 46:0.7398369102481858 47:0.9338033825306732 48:-18.600587143666544 49:0.7056734291253351 50:0.5754803534449198 51:0.9105781821318799 52:-31.80257711715361 53:0.7878517075269682 54:0.3700346574408372 55:0.8704228631880697 56:-45.84170512005147 57:0.838422955774127 58:0.15826755540585977 59:0.8532301400344287 60:-60.31016858340176 61:0.8795120949749434 62:-0.05349954662911764 63:0.8811377455862023 64:-74.48093670652081 65:0.9047977190985228 66:-0.27790946072588474 67:0.9465160224987433 68:-88.07438868746229 69:-0.6913573037024263 70:-0.6413903075023385 71:0.9430569696156396 72:-28.14711151057709 73:-0.5965362132390036 74:-0.8025861612901571 75:1.0 76:-17.62222290822946 77:-0.42585825040484265 78:-0.8847644396917902 79:0.9819182059525127 80:-6.702622684082513 81:-0.22989466344710238 82:-0.891085845722685 83:0.9202638429976314 84:4.533502303822033 85:-0.056055997597494064 86:-0.8247110823982892 87:0.826613963284681 88:15.11155991431022 89:0.1367468863447988 90:-0.8057468643056046 91:0.8172684505493355 92:-151.36785666736301 93:0.3200676612407494 94:-0.8436753004909736 95:0.9023476715937477 96:-140.22460517143637 97:0.5223526542293846 98:-0.7994254582747097 99:0.9549520190659909 100:-127.83899433643532 101:0.6867092110326506 102:-0.6824794467031551 103:0.9681672044070333 104:-115.82299964865658 105:0.7688874894342836 106:-0.5054800778380992 107:0.9201619860110319 108:-104.32161874371471 109:0.035604389850481234 110:-0.5686941381470477 111:0.5698075950173344 112:-157.41754322203718 113:0.02296157778869154 114:-0.4043375813437817 115:0.4049890291618842 116:-157.74977032908293 117:0.007158062711454418 118:-0.24314172755596308 119:0.2432470709806786 120:-159.31370632242613 121:-0.002324046334887854 122:-0.07562446773724961 123:0.07566016991726236 124:17.239774042873336 125:-0.204609039323523 126:0.035000137803410235 127:0.2075809929139773 128:-80.70698519445389 129:-0.10978794886010028 130:0.060285761926989624 131:0.12525081559026138 132:-99.77166937720119 133:-0.008645452365782702 134:0.08557138605056902 135:0.08600701109342503 136:-155.23086634669383 137:0.09881845015942972 138:0.0697678709733319 139:0.12096545751603298 140:-35.77711695357211 141:0.19680024363829987 142:0.04764294986519993 143:0.20248502800936208 144:-57.39121001528931 145:-0.5206793408682654 146:-0.4801944537145199 147:0.7083033879526466 148:-28.316325325598996 149:-0.41953684437394784 150:-0.5149621868844415 151:0.6642267818358852 152:-20.169513651904374 153:-0.3057515358178406 154:-0.5149621868844415 155:0.5988906875012958 156:-11.699125109890225 157:-0.18880552424628588 158:-0.47703375069907245 159:0.5130387171470977 160:-2.5931988183148604 161:-0.3057515358178406 162:-0.4454267205445982 163:0.5402674939602454 164:-15.46663380563998 165:-0.42269754738939525 166:-0.4422660175291508 167:0.6117781026075592 168:-24.70399220068562 169:0.24737149188545865 170:-0.44858742356004566 171:0.5122727121113102 172:-132.12566122268197 173:0.3706389094879082 174:-0.47387304768362504 175:0.6016052414560173 176:-122.96932695425272 177:0.4844242180440155 178:-0.44858742356004566 179:0.6602253400194479 180:-113.80036161975077 181:0.5729239024765433 182:-0.40117687832833426 183:0.699417390214326 184:-106.00075445387611 185:0.47178140598222573 186:-0.3790519572202023 187:0.6051925985197042 188:-109.7800762964129 189:0.3579960974261185 190:-0.39801617531288686 191:0.535329881085513 192:-119.03016689310434 193:-0.36896559612678903 194:0.3826774695026269 195:0.5315803389800368 196:-117.04510422135098 197:-0.22673396043165497 198:0.32262411220912585 199:0.3943280443891226 200:-125.90119629645149 201:-0.10346654282920542 202:0.27521356697741445 203:0.29402012334780697 204:-140.39624894682524 205:-0.018127561412124973 206:0.3004991911009939 207:0.3010454655614364 208:-157.54782560007087 209:0.07985423206674518 210:0.2783742699928619 211:0.2896013338592009 212:2.9939723305188437 213:0.19363954062285244 214:0.33842762728636294 215:0.38990964415272766 216:-10.777074217235864 217:0.31058555219440714 218:0.420605905687996 219:0.5228505648189778 220:-17.443054939527066 221:0.18099672856106275 222:0.4395701237806805 223:0.4753753353618273 224:-3.379830330938063 225:0.0703721230204029 226:0.44589152981157537 227:0.4514105582018499 228:10.031360586643515 229:-0.03077037347391467 230:0.4490522328270228 231:0.4501052362399919 232:-157.08005303517174 233:-0.12243076092188997 234:0.44273082679612796 235:0.45934722837467523 236:-145.54199232694572 237:-0.23937677249344466 238:0.4269273117188908 239:0.4894570141502697 240:-131.72079061974497 241:-0.308912238833288 242:0.37635606347173206 243:0.4868990221934449 244:-121.62092484048748 245:-0.10662724584465284 246:0.39215957854896916 247:0.40639697907848815 248:-145.78913667261202 249:-0.018127561412124973 250:0.40164168759531144 251:0.40205056112031495 252:-158.41578524742374 253:0.07985423206674518 254:0.39215957854896916 255:0.4002072380988064 256:7.490395094089251 257:0.24737149188545865 258:0.40796309362620625 259:0.47710223302632143 260:-12.230843242331154 261:0.07353282603585032 262:0.3004991911009939 263:0.3093652216348345 264:5.2497945971438895 265:-0.024448967443019824 266:0.3099813001473361 267:0.3109439796009287 268:-156.49028063928787 269:-0.1129486518755477 270:0.2973384880855464 271:0.31806850591893293 272:-140.19994009080148 
-0.0 -0.001800236193400027 9.868907589693742E-5 1:-0.7949900884131044 2:-0.48056423510642654 3:0.928951680518691 4:-35.84742207251422 5:-0.8114306559062641 6:-0.26957695227754447 7:0.8550388544058799 8:-48.62226069633432 9:-0.8059504667418775 10:-0.058589669448662354 11:0.8080772885111631 12:-62.84211926482611 13:-0.781289615502138 14:0.16335799170899284 15:0.79818500157963 16:-78.80970278421105 17:-0.740188196769239 18:0.38530565286664803 19:0.8344693000748987 20:-94.49927320505955 21:-0.6360646026458945 22:0.5935528411133368 23:0.8699903182983095 24:-110.01989249692443 25:-0.48535940062526445 26:0.774399083538093 27:0.9139298049412515 28:-124.92231728938279 29:-0.2990329690361218 30:0.9223641909765297 31:0.9696269475248439 32:-139.0371653653536 33:-0.0716051187140801 34:0.9771660826203952 35:0.9797861226052074 36:-152.8089506566787 37:0.17774348826550784 38:0.955245325962849 39:0.9716410759095462 40:12.45945809574927 41:0.41065152775193614 42:0.8401613535107315 43:0.9351501361695796 44:-3.048319994148855 45:0.6106784322520451 46:0.6867160569079082 47:0.9189706689731512 48:-18.645848984660496 49:0.7531633505260954 50:0.48668915240779914 51:0.8967281436684789 52:-34.1297241488598 53:0.8271459042453138 54:0.2620013966679507 55:0.8676491680199748 56:-49.424217285431666 57:0.8682473229782128 58:0.03457354634590896 59:0.8689354083968301 60:-64.71969088529896 61:0.9038685525467254 62:-0.18463402022955297 63:0.9225335125127107 64:-78.54502952434231 65:0.9148289308754985 66:-0.40384158680501486 67:1.0 68:-90.81855535913698 69:-0.6990867780363398 70:-0.644969910038023 71:0.9511616624316216 72:-24.305701996118152 73:-0.5977032784951887 74:-0.78471473372988 75:0.9864210168364488 76:-14.295880722487155 77:-0.42233722523481915 78:-0.8285562470449723 79:0.9299861215826265 80:-4.009152578832143 81:-0.24697117197444962 82:-0.8038953958052328 83:0.840977150214728 84:5.922097464684185 85:-0.07434521329627337 86:-0.7271727475038212 87:0.7309633475437222 88:17.162435813810916 89:0.1366420695326087 90:-0.716212369175048 91:0.7291304498685331 92:-146.19866824453695 93:0.3174883119573648 94:-0.7764944499833001 95:0.8388935922299113 96:-134.76162846161628 97:0.5120350272930873 98:-0.7792345445654933 99:0.9324088934685386 100:-123.69108374879235 101:0.6874010805534568 102:-0.7107321800106615 103:0.9887671501666949 104:-112.95602436936483 105:0.788784580094608 106:-0.5518066942434516 107:0.9626379078380993 108:-101.97531921257516 109:0.01607790791610467 110:-0.535366126750292 111:0.5356074950881181 112:-155.27983238173482 113:0.005117529587331574 114:-0.37370054640088884 115:0.37373558499211723 116:-156.215429244264 117:-0.008582943323634795 118:-0.2120349660514857 119:0.21220860902553274 120:20.68199506020325 121:-0.022283416234601165 122:-0.044889196537695984 123:0.05011577201724407 124:-3.40023097867617 125:-0.18942918574839088 126:0.05649430300345515 127:0.19767403138790024 128:-83.60639150171417 129:-0.1127065374469792 130:0.09211553257196771 131:0.14556110374789197 132:-106.25927527362902 133:-0.022283416234601165 134:0.11677638381170717 135:0.11888344903822243 136:-146.19662473707808 137:0.07361989414216343 138:0.10033581631854753 139:0.12444743810064014 140:-13.268798251887134 141:0.1613029207723482 142:0.07567496507880807 143:0.17817219926062894 144:-41.866465686907766 145:-0.5182405356115838 146:-0.46138357303107363 147:0.6938645791607331 148:-25.321695970122803 149:-0.4195971306526259 150:-0.48056423510642654 151:0.6379684444510885 152:-18.125326796434834 153:-0.3127334419470882 154:-0.48604442427081307 155:0.5779631372992736 156:-9.758267758624001 157:-0.20312965865935725 158:-0.46138357303107363 159:0.504119489496277 160:-0.7620703512765061 161:-0.31547353652928145 162:-0.42850243804475435 163:0.5321070302679626 164:-13.361371144910983 165:-0.4250773198170124 166:-0.42302224888036777 167:0.5996987167491843 168:-22.13883589281307 169:0.2654265148956926 170:-0.44220291095572073 171:0.5157466909902442 172:-126.02626309614885 173:0.369550109019037 174:-0.46138357303107363 175:0.5911362656265492 176:-118.306644068678 177:0.48189398688896123 178:-0.4504231947023005 179:0.6596232780349439 180:-110.06668886815382 181:0.5805373918479191 182:-0.4202821542981745 183:0.7167012993954308 184:-102.90279539954896 185:0.47915389230676797 186:-0.38466092472966196 187:0.6144529921211259 188:-105.75721902473828 189:0.369550109019037 190:-0.39836139764062833 191:0.5433774804002987 192:-114.14867377058187 193:-0.3538348606799873 194:0.3661249907912951 195:0.5091626631189211 196:-112.9779770300415 197:-0.2387508882278698 198:0.3113230991474296 199:0.3923315672901647 200:-119.51572550577569 201:-0.1236669157757523 202:0.2729617749967238 203:0.2996692120769985 204:-132.62682086021107 205:-0.030503699981180986 206:0.3058429099830431 207:0.3073603118482243 208:-151.30435547207628 209:0.05717932664900378 210:0.28392215332549686 211:0.28962262436664105 212:11.613462665730921 213:0.1804835828477011 214:0.3359839503871691 215:0.3813915817048283 216:-5.243766272665432 217:0.3174883119573648 218:0.4072264095241942 219:0.5163643837867826 220:-14.941256878386092 221:0.16952320451892802 222:0.4702485849146395 223:0.49987183205756575 224:3.1759186702662987 225:0.046218948320230685 226:0.494909436154379 227:0.4970629147084637 228:17.664696315506717 229:-0.049684362056533905 230:0.494909436154379 231:0.49739711079539867 232:-151.267237327871 233:-0.14832776701549177 234:0.4812089632434126 235:0.5035505861118642 236:-139.86861808717742 237:-0.25245136113883615 238:0.4401075445105135 239:0.5073719941777677 240:-127.16086188580155 241:-0.29629287445392855 242:0.3661249907912951 243:0.47099572857309163 244:-118.01789585915475 245:-0.12640701035794558 246:0.36064480162690854 247:0.3821562575807781 248:-137.68429372173742 249:-0.033243794563374264 250:0.38256555828445477 251:0.3840072346486045 252:-152.033644746922 253:0.05717932664900378 254:0.3770853691200682 255:0.381395924205348 256:14.377641200334935 257:0.2626864203134993 258:0.40448631494200094 259:0.48230004602164406 260:-10.000989943277979 261:0.048959042902423956 262:0.3688650853734884 263:0.37210003908829714 264:15.43938804074267 265:-0.044204172892147356 266:0.37982546370226145 267:0.38238905813022 268:-150.3617670065823 269:-0.13736738868671866 270:0.3579047070447153 271:0.38336089889211644 272:-136.00270078054024 
-1.3779439880077802E-4 -9.01150913717337E-5 0.0 1:-0.7714454964061896 2:-0.5032685587098589 3:0.9210903300498225 4:-25.88074200143683 5:-0.7739733632988082 6:-0.29092773972989766 7:0.8268456426930095 8:-38.39933331705889 9:-0.756278295050478 10:-0.07858692074993644 11:0.7603504216329565 12:-53.06753225768275 13:-0.7259438923390551 14:0.14133749890788058 15:0.7395747585078284 16:-70.01736178505294 17:-0.6753865544866834 18:0.3460947172099861 19:0.7588995659914782 20:-86.13239214716025 21:-0.5565768105336097 22:0.5331568672637614 23:0.7707360061228966 24:-102.76882086315513 25:-0.41501626454696894 26:0.7050518159618253 27:0.8181299181851176 28:-118.51755920030853 29:-0.2431213158489051 30:0.8516680957337033 31:0.8856898551472606 32:-133.0678173083011 33:-0.03330836376156243 34:0.8971696998008378 35:0.8977877908154009 36:-146.8738107544449 37:0.19672752346672892 38:0.8643074301967962 39:0.8864135899131635 40:18.17720195224686 41:0.39895687487621584 42:0.7379140855658669 43:0.8388586207982285 44:2.6019095679999538 45:0.5784354242521355 46:0.5761306044382773 47:0.8164030949231897 48:-14.114377410362707 49:0.7124123695609205 50:0.3789569868140277 51:0.8069323281159162 52:-30.98993080192408 53:0.7857205094468596 54:0.16408830094144786 55:0.8026715950320427 56:-47.20400130739003 57:0.8312221135139941 58:-0.05330825182375057 59:0.8329297519642193 60:-62.6694893434879 61:0.8666122500106542 62:-0.2656490708037118 63:0.90641393451745 64:-76.04226124687028 65:0.87419585068851 66:-0.4855734904615288 67:1.0 68:-88.05005277594536 69:-0.6829701551645391 70:-0.649884838481737 71:0.9427611235800445 72:-15.421954985011766 73:-0.5717440118893213 74:-0.7661667155421918 75:0.9559825579664131 76:-5.731760632040768 77:-0.39226546251340166 78:-0.7737503162200476 79:0.8675031671016981 80:4.116520210681713 81:-0.22542624760057497 82:-0.7257208452602946 83:0.7599261400640145 84:13.743956214422141 85:-0.06111489958036688 86:-0.6524127053743555 87:0.6552689288258707 88:25.648422594939575 89:0.10319644843984123 90:-0.6321897702334068 91:0.6405571110825049 92:-139.72900558164628 93:0.2750913971379051 94:-0.7054979101193458 95:0.7572335029315919 96:-127.6979375679924 97:0.4570978134064433 98:-0.7383601797233874 99:0.8683974700689222 100:-117.23952683468616 101:0.6391042296749815 102:-0.710553643904583 103:0.955688598474698 104:-107.03034724500421 105:0.7604418405206737 106:-0.5866881661662723 107:0.9604555154373435 108:-96.65053039482484 109:0.0020817727350977778 110:-0.49315709113938455 111:0.4931614850318097 112:-148.7581377510494 113:-0.008029694835376567 114:-0.3035670741929906 115:0.3036732529104958 116:29.484814686521148 117:-0.020669029298469498 118:-0.11397705724659664 119:0.1158359976463921 120:20.721467682670806 121:-0.03330836376156243 122:0.07308509280717874 123:0.08031735732148124 124:-124.4989821009595 125:-0.19003611110391477 126:0.11100309619645754 127:0.22008046457761635 128:-89.289875836588 129:-0.1142001043253572 130:0.1514489664783549 131:0.18967987050629367 132:-111.98187747912667 133:-0.028252629976325258 134:0.18431123608239652 135:0.1864640524251258 136:-140.28510229405424 137:0.06022271126532526 138:0.15903256715621067 139:0.1700533221329163 140:10.259243819186125 141:0.1486980525069758 142:0.13375389823002481 143:0.20000304025463003 144:-17.02861900318996 145:-0.5211866740369496 146:-0.4678784222131987 147:0.7003897252004843 148:-17.0851209178811 149:-0.4251277321174433 150:-0.49062922424676597 151:0.6491922860757852 152:-9.908763361564148 153:-0.3164294557348441 154:-0.4881013573541474 155:0.5816962570857842 156:-1.954791403533612 157:-0.2077311793522449 158:-0.45018335396486864 159:0.49579965213998756 160:6.2296601332599835 161:-0.3189573226274627 162:-0.42237681814606415 163:0.5292787074546572 164:-6.058232254469111 165:-0.4301834659026805 166:-0.41984895125344557 167:0.6011081069197627 168:-14.696555671336718 169:0.2371733937486263 170:-0.4350161526091571 171:0.49546974855495907 172:-120.40051903442145 173:0.3458716701312255 174:-0.46282268842796154 175:0.5777820117683219 176:-112.22889825241563 177:0.4570978134064433 178:-0.46029482153534296 179:0.6486984921773788 180:-104.1996684128092 181:0.5607403560038053 182:-0.4350161526091571 183:0.7096962729803137 184:-96.80391344144836 185:0.45962568029906187 186:-0.38951454854202255 187:0.6024760157186932 188:-99.27995449527943 189:0.3458716701312255 190:-0.3945702823272597 191:0.5247026966722934 192:-107.76290426368597 193:-0.3366523908757928 194:0.3385111165321303 195:0.4774145036529756 196:-104.15773492667455 197:-0.2228983807079564 198:0.32081604828380017 199:0.39064897921108493 200:-114.20898231959481 201:-0.1142001043253572 202:0.30817671382070727 203:0.32865567204789353 204:-128.66695936254504 205:-0.028252629976325258 206:0.34103898342474886 207:0.3422072461476602 208:-144.264270151156 209:0.06275057815794385 210:0.32081604828380017 211:0.3268953531263329 212:19.932855628702725 213:0.17144885454054307 214:0.34862258410260466 215:0.388500213474384 216:4.812534508913245 217:0.2953143322788538 218:0.3764291199214091 219:0.47844481100134406 220:-7.1147200818343705 221:0.16639312075530588 222:0.4674323280556782 223:0.4961649442939726 224:11.40566170085161 225:0.055166977480088086 226:0.505350331444957 227:0.508352587183164 228:24.769930023717777 229:-0.038364097546799605 230:0.5129339321228128 231:0.5143666228513963 232:-144.72261519456163 233:-0.13442303946630588 234:0.49271099698186405 235:0.5107187876769587 236:-133.73976044231165 237:-0.23553771517104932 238:0.43962579223687376 239:0.49874728316843714 240:-120.81898989597602 241:-0.2936786537012768 242:0.34862258410260466 243:0.4558342437621072 244:-108.8893105871452 245:-0.11925583811059436 246:0.3789569868140277 247:0.3972786840224723 248:-131.53147606842032 249:-0.030780496868943845 250:0.40423565574021353 251:0.4054058514121614 252:-144.64561938295464 253:0.06275057815794385 254:0.3966520550623578 255:0.4015849696444675 256:22.010277904847214 257:0.24728486131910063 258:0.38401272059926483 259:0.45674453715359953 260:-1.7794965048917035 261:0.055166977480088086 262:0.3865405874918834 263:0.39045745118112285 264:22.877612171112204 265:-0.03583623065418102 266:0.3941241881697392 267:0.39575006143771563 268:-143.8045965582304 269:-0.12431157189583153 270:0.37137338613617193 271:0.3916268106724292 272:-130.492816637107 
