svm_type c_svc
kernel_type linear
nr_class 5
total_sv 114
rho -16.986927917682703 -13.536464793639164 -18.516661457707492 -14.65011220513457 -21.814385558249093 -52.04389209980918 -22.0682275736145 51.81423578091902 -34.20202675675978 -41.15503978518425
label 3 1 5 0 4
nr_sv 19 24 30 28 13
SV
3.7650306277440286E-5 7.443540451421516E-5 5.761048558218421E-5 0.0 1:-0.5537662725137649 2:-0.279534829704996 3:0.6203199219692936 4:-48.21588217112842 5:-0.5736067749475449 6:-0.12781334050550178 7:0.5876742144053104 8:-62.43834118719239 9:-0.5817763935967485 10:0.027409413829365393 11:0.5824217098571345 12:-77.69739944935685 13:-0.5689384214337143 14:0.18496634492114786 15:0.5982503457056885 16:-93.00975025225507 17:-0.5315915933230696 18:0.35302707141904915 19:0.6381361416237684 20:-108.58791935918975 21:-0.463900467372526 22:0.5082498257539163 23:0.6881290060790449 24:-122.612014316583 25:-0.3646979552036259 26:0.6447991660334611 27:0.7407904987559931 28:-135.5075300893003 29:-0.24448785222248817 30:0.7673434457715141 31:0.8053510251144316 32:-147.32729200549588 33:-0.06592333031846805 34:0.8128598925313625 35:0.815528718296527 36:-160.36343215754573 37:0.14415257780390858 38:0.7918523017191248 39:0.8048664693136296 40:4.682586390851299 41:0.3717348116031499 42:0.7241611757685812 43:0.8140001097347367 44:-12.172862332640051 45:0.5794765429686113 46:0.612120691436647 47:0.8429026069100342 48:-28.43075815904693 49:0.746370181088055 50:0.4557308487233222 51:0.8745050335449737 52:-43.59191665668222 53:0.8467397816354126 54:0.2596600011424373 55:0.8856588361199117 56:-57.95139364111178 57:0.8934233167737186 58:0.06242206518309483 59:0.8956013271409745 60:-71.00333000640647 61:0.9237676146136174 62:-0.15465637321002768 63:0.9366243641841762 64:-84.50426501229578 65:0.9342714100197362 66:-0.3565626626832008 67:1.0 68:-95.88924679808196 69:-0.5269232398092389 70:-0.425420877012202 71:0.67722302327143 72:-36.08370916394309 73:-0.47907261629247544 74:-0.5222892124241868 75:0.7087288572479568 76:-27.528772453327562 77:-0.381037192502033 78:-0.5818107197255268 79:0.6954804495148421 80:-18.221433725068195 81:-0.2514903824932341 82:-0.6133221059438834 83:0.6628811493216813 84:-7.295893938163218 85:-0.10560433518602808 86:-0.6051524872946797 87:0.6142978174216644 88:5.101073280544682 89:0.030945005093516737 90:-0.6121550175654257 91:0.6129366679117545 92:-162.10610842908457 93:0.21651205726828276 94:-0.6553372875683586 95:0.6901771014891741 96:-146.71734213890284 97:0.41141581647070996 98:-0.6565043759468163 99:0.7747651061319034 100:-132.92559759871816 101:0.5923145151316453 102:-0.6063195756731374 103:0.8476201464571791 104:-120.66942393346511 105:0.7241955018973596 106:-0.4837752959350844 107:0.8709177124880668 108:-108.74361818729665 109:-0.0647562419400104 110:-0.4207525234983714 111:0.425706538475087 112:6.250500879693874 113:-0.09043218626607864 114:-0.33205380673559015 115:0.34414780382919696 116:-0.23456856956954653 117:-0.1207764841059775 118:-0.24685635510818188 119:0.274818156551379 120:-11.070568694907983 121:-0.1499536935674187 122:-0.15348928483157004 123:0.214581151951 124:-29.332443636674448 125:-0.2304827916809964 126:0.004067646260212435 127:0.2305186825555877 128:-76.01107232131463 129:-0.16746001924428341 130:0.022741060315534804 131:0.1689970824291667 132:-82.73345573015959 133:-0.0915992746445363 134:0.039080297613941876 135:0.0995876336549848 136:-98.10523698401555 137:0.002934884010533187 138:0.021573971937077153 139:0.021772684935420252 140:7.253141291478727 141:0.10447157293634855 142:-0.0017677956320758046 143:0.1044865285727858 144:-75.96942699684392 145:-0.400877694935813 146:-0.2818690064619113 147:0.4900541430300082 148:-39.88780927597942 149:-0.3378549224991 150:-0.3133803926802678 151:0.46081798920323386 152:-32.152259868273674 153:-0.2526574708716917 154:-0.33672216024942075 155:0.4209722209247498 156:-21.88251178997318 157:-0.152287870324334 158:-0.3180487461940984 159:0.35262813331264303 160:-10.585997966900194 161:-0.24448785222248817 162:-0.28537027159728423 163:0.3757798581561724 164:-25.587954137083308 165:-0.3308523922283541 166:-0.27019812267733484 167:0.42716546084811297 168:-35.762424865415845 169:0.18383358267146863 170:-0.342557602141709 171:0.3887679216485139 172:-136.77976294159086 173:0.2888715367326569 174:-0.3740689883600655 175:0.4726249811288117 176:-127.32319634076732 177:0.3834056953877264 178:-0.37990443025235376 179:0.5397474440709391 180:-119.73718898576546 181:0.4826082075566265 182:-0.3542284859262855 183:0.5986555789789724 184:-111.27821087703758 185:0.3834056953877264 186:-0.3262183648433019 187:0.5034067429194644 188:-115.392592859896 189:0.2842031832188263 190:-0.3262183648433019 191:0.43265444746674153 192:-123.93744587230742 193:-0.3378549224991 194:0.2631612662778103 195:0.4282520294473961 196:-112.91566522664482 197:-0.25032329411477644 198:0.22814861492408084 199:0.3386938766323498 200:-117.34653789482323 201:-0.16045748897353754 202:0.197804317084182 203:0.25470208798679395 204:-125.95127550420528 205:-0.07642712572458688 206:0.21297646600413142 207:0.22627434812220928 208:-145.25935137607487 209:-0.004067646260212701 210:0.19196887519189376 211:0.19201196522232436 212:-163.78613607022925 213:0.13598295915470504 214:0.21297646600413142 215:0.2526862486406396 216:-17.55775075833148 217:0.3273854532217593 218:0.24215367546557262 219:0.40720957444871386 220:-38.511176674956 221:0.14298548942545095 222:0.33552074574218443 223:0.3647177278521395 224:-8.081758776371856 225:0.002934884010533187 226:0.363530866825168 227:0.3635427136923711 228:14.537445567077938 229:-0.07526003734612922 230:0.36936630871745624 231:0.37695562502355623 232:-153.48337590608736 233:-0.16162457735199517 234:0.36236377844671036 235:0.3967745101873199 236:-140.96176594082442 237:-0.2479891173578611 238:0.3343536573637268 239:0.4162823206916569 240:-128.435781515937 241:-0.2911713873607941 242:0.2689967081700985 243:0.3964088871657127 244:-117.7330866988055 245:-0.15812331221662224 246:0.26549544303472555 247:0.3090158768389751 248:-134.22289178841262 249:-0.07409294896767157 250:0.2759992384408444 251:0.28577149036713245 252:-149.97304672051646 253:-0.0017334695032974045 254:0.26549544303472555 255:0.2655011020480406 256:-164.62591043371305 257:0.2713652110557922 258:0.2538245592501491 259:0.3715723141595551 260:-31.912893090745506 261:-0.004067646260212701 262:0.2678296197916409 263:0.2678605065772727 264:-164.12989068600422 265:-0.07759421410304453 266:0.2736650616839291 267:0.28445285733973186 268:-149.1699961243851 269:-0.16162457735199517 270:0.26666253141318325 271:0.31181951456555446 272:-133.77988096364672 
0.0 0.0 0.0 4.087331423133771E-6 1:-0.8773272971892095 2:-0.14893546786162698 3:0.8898791827998255 4:-76.36529546405431 5:-0.8710795415972351 6:0.05255464997954976 7:0.8726634855565587 8:-89.45262845471247 9:-0.8617079082092733 10:0.24935895112674564 11:0.8970620968346796 12:-102.13925813762863 13:-0.8304691302494009 14:0.4602207023558841 15:0.9494640968325974 16:-114.99388533766724 17:-0.7508102464517264 18:0.6382817367271565 19:0.9854540078645667 20:-126.36865770778495 21:-0.6149215623262817 22:0.7819801153425694 23:0.994797179632599 24:-137.81973909828116 25:-0.433736650159022 26:0.8881919604061355 27:0.9884393963320481 28:-149.9720493882284 29:-0.2275607156238644 30:0.9459836996318993 31:0.9729691872122678 32:-162.4742257408911 33:-0.0026415143127834083 34:0.9725366608977908 35:0.9725402482098564 36:-175.84437887479547 37:0.22383962589629122 38:0.9459836996318993 39:0.9721056208512773 40:-9.312536117335 41:0.4362633160234233 42:0.8850680826101482 43:0.9867477852840396 44:-22.239378308833516 45:0.6252579226806511 46:0.7804181764445758 47:1.0 48:-34.70112079690887 49:0.7720801790920512 50:0.6351578589311693 51:0.9997666271229706 52:-46.557307326448814 53:0.8533010017877193 54:0.4586587634578905 55:0.9687571733662912 56:-57.74147678419524 57:0.8907875353395661 58:0.2618544623106946 59:0.9284773516615048 60:-69.61885873058098 61:0.9126546799114768 62:0.07129791675547319 63:0.9154353924215464 64:-81.53304249253736 65:0.9298360077894066 66:-0.12082056769774184 67:0.9376527134075527 68:-93.4033907140347 69:-0.724257285185835 70:-0.4925620254202229 71:0.8758801082515963 72:-51.78066973739962 73:-0.6352267680001987 74:-0.6440700985256039 75:0.9046211022294138 76:-40.60394068114631 77:-0.48059481709883056 78:-0.7362244935072274 79:0.8792029817182332 80:-29.13581845884964 81:-0.2931621493395964 82:-0.7721490881610806 83:0.8259287258313516 84:-16.790287133709512 85:-0.10885335937634943 86:-0.7409103102012082 87:0.7488639005920684 88:-4.358010759997583 89:0.10513226964877624 90:-0.7331006157112401 91:0.7406006392636334 92:-167.83898659225648 93:0.30193657079597214 94:-0.7737110270590742 95:0.8305386482138195 96:-154.68205172034362 97:0.5003028108411616 98:-0.7362244935072274 99:0.890128871217837 100:-141.80185470266727 101:0.6658683340284851 102:-0.639384281831623 103:0.9231429456564193 104:-129.83760721287996 105:0.7705182401940576 106:-0.480066514236274 107:0.9078338044833503 108:-117.9247087877496 109:-0.0026415143127834083 110:-0.5737828481158911 111:0.573788928430872 112:3.736230260383053 113:-0.0026415143127834083 114:-0.4972478421142038 115:0.49725485828204513 116:3.695632267925646 117:-0.005765392108770645 118:-0.41602701941853565 119:0.4160669665239461 120:3.2060335620526104 121:-0.00888926990475788 122:-0.33012038002888666 123:0.33024004062175166 124:2.457548719508793 125:-0.20725550994994738 126:-0.09426760643185034 127:0.22768668829556762 128:-61.54217249723857 129:-0.11041529827434306 130:-0.0739624007579333 131:0.13289836273968644 132:-52.183591378872464 133:-0.004203453210777026 134:-0.05990495067599074 135:0.060052245040365264 136:-0.013792158717961911 137:0.09888451405680176 138:-0.07552433965592692 139:0.12442697858870334 140:-123.3712546524425 141:0.19260084793641885 142:-0.09582954532984396 143:0.21512412320321528 144:-112.45287832067974 145:-0.5415104341205816 146:-0.3863501803566569 147:0.66520674389477 148:-50.49337059528959 149:-0.43842246685300285 150:-0.42696059170449097 151:0.6119718999350554 152:-41.758830054575235 153:-0.33533449958542405 154:-0.43945610288843995 155:0.5527846714391617 156:-33.34606187132958 157:-0.20569357105195377 158:-0.40665538603057394 159:0.45571750916525067 160:-22.831102745919047 161:-0.32752480509545595 162:-0.3910359970506378 163:0.5100800417014989 164:-35.948943208154425 165:-0.43529858905701563 166:-0.3832263025606697 167:0.5799545332259681 168:-44.64009341586104 169:0.2066582980183614 170:-0.4097792638265612 171:0.4589408428131934 172:-149.23745312940144 173:0.33942310434781897 174:-0.4363322250924527 175:0.5528054399327499 176:-138.12063151576433 177:0.445634949411385 178:-0.42539865280649736 179:0.6160799639222742 180:-129.66911466097767 181:0.551846794474951 182:-0.3847882414586633 183:0.6727532053711297 184:-120.8870489426308 185:0.4440730105133914 186:-0.3816643636626761 187:0.5855497631768474 188:-126.67784271847223 189:0.3347372876538381 190:-0.38947405815264413 191:0.5135553463062551 192:-135.32226655415073 193:-0.48059481709883056 194:0.2196821120648669 195:0.5284237017617011 196:-110.56535924641663 197:-0.3119054161155198 198:0.14627098385916684 199:0.34449991193224444 200:-111.12467157241532 201:-0.13384438174424731 202:0.1072225114093264 203:0.17149631330563037 204:-124.6981596392553 205:-0.01669896439472597 206:0.13221353377722428 207:0.13326392582284807 208:-168.80148830347053 209:0.10044645295479539 210:0.10878445030732002 211:0.1480660208821244 212:-38.71793076831611 213:0.28475524291804233 214:0.15564261724712855 215:0.3245152888121751 216:-57.33969625829819 217:0.4846834218612254 218:0.23217762324881586 219:0.5374239184894692 220:-60.4042076213469 221:0.29412687630600404 222:0.3649424295782734 223:0.4687148347044506 224:-34.867222805788025 225:0.11294196413874433 226:0.41648641321206276 227:0.43152846911155995 228:-11.172466342498936 229:-0.01826090329271959 230:0.42898192439601174 231:0.4293704135680188 232:-173.56250472416923 233:-0.14790183182618988 234:0.41336253541607554 235:0.43902566843312113 236:-156.31270254224765 237:-0.32440092729946873 238:0.3571327350883053 239:0.48247254025945235 240:-133.7496140432979 241:-0.4243650167710603 242:0.23061568435082222 243:0.48297956615958443 244:-114.52129696641349 245:-0.13696825954023456 246:0.19000527300298817 247:0.23422704346514114 248:-140.21346443808034 249:-0.01826090329271959 250:0.2103104786769052 251:0.211101771736703 252:-171.0375502541711 253:0.10044645295479539 254:0.19469108969696902 255:0.21907558129237764 256:-23.29044549883684 257:0.42376780483947435 258:0.24154925663677757 259:0.48777576385081556 260:-56.3166957377087 261:0.10513226964877624 262:0.30402681255652225 263:0.32169099594918993 264:-15.075351437831287 265:-0.01669896439472597 266:0.31183650704649035 267:0.31228330493129497 268:-172.9347168703121 269:-0.1400921373362218 270:0.30246487365852864 271:0.3333328767774048 272:-151.14792388998197 
2.635259826104926E-4 1.4349803270974568E-6 0.0 0.0 1:-0.8255127389264992 2:-0.3084672353522479 3:0.881262343128191 4:-50.51092091660827 5:-0.8212885786249715 6:-0.11133975461428738 7:0.8288012248648018 8:-63.279640774562715 9:-0.8043919374188606 10:0.08015551238830285 11:0.8083757141024831 12:-76.69058625197337 13:-0.7705986550066387 14:0.2998118480677446 15:0.8268672392469284 16:-92.25919768326335 17:-0.6847073955422417 18:0.5096118097102883 19:0.8535387595806267 20:-107.65945368850913 21:-0.5340456781210862 22:0.6884345958082954 23:0.8712904102683224 24:-123.19786612101491 25:-0.37352758666303254 26:0.8362802063617657 27:0.9159079874915311 28:-136.93189959292312 29:-0.18484842652812744 30:0.9489244810691718 31:0.9667608864462409 32:-149.9769507682983 33:0.02776764198210141 34:0.9996144046875045 35:1.0 36:17.408826785826534 37:0.24319981736001542 38:0.9517405879368569 39:0.9823218911794336 40:4.665851744802055 41:0.44595951183334626 42:0.8207916185894975 43:0.9341192468531004 44:-9.51649585167359 45:0.6064776032913999 46:0.6518252065283884 47:0.8903320634234491 48:-23.936027573466397 49:0.7472829466756573 50:0.457513832658113 51:0.8762138491634158 52:-39.523514151898496 53:0.8219097786693138 54:0.2477138710155693 55:0.8584275427581285 56:-54.227815443476544 57:0.8402144733092674 58:0.029465588769970134 59:0.8407309808017845 60:-68.99151009045607 61:0.8458466870446376 62:-0.16906994540183298 63:0.8625782656794501 64:-82.30345867946036 65:0.8430305801769524 66:-0.37323769330900636 67:0.9219582066558749 68:-94.88056642819203 69:-0.7410295328959446 70:-0.47039338024414407 71:0.8777213115798737 72:-38.5932902627829 73:-0.6579543802992327 74:-0.6252792579668274 75:0.9076773198656523 76:-27.458613686248775 77:-0.48476380793659596 78:-0.7083544105635393 79:0.8583483677680106 80:-15.385868284956672 81:-0.2862282737647929 82:-0.7336993723727057 83:0.7875540576509497 84:-2.311580005798419 85:-0.08206052585761946 86:-0.7041302502620116 87:0.7088958592332671 88:12.352639815716074 89:0.07141729843122124 90:-0.6886416624897432 91:0.6923350127155578 92:-155.07916464683245 93:0.25305619139691343 94:-0.7393315861080759 95:0.7814401002133143 96:-142.1051046587816 97:0.4431434049656611 98:-0.7351074258065482 99:0.8583466693827674 100:-129.91724682751556 101:0.6318225651005662 102:-0.6731530747174749 103:0.923219809022667 104:-117.81403574308928 105:0.7402426795064445 106:-0.5253074641640045 107:0.9076933163074946 108:-106.36112090058158 109:-0.020106174768546148 110:-0.5055947160902085 111:0.5059943430535185 112:16.722697209199183 113:-0.017290067900860996 114:-0.3859101742135896 115:0.38629730650054944 116:16.434672818095038 117:-0.01588201446701842 118:-0.26200147203544294 119:0.26248239889994446 120:15.531087155975499 121:-0.018698121334703572 122:-0.1338686095557686 123:0.13516813369223574 124:11.048643810828167 125:-0.21160144177113638 126:-0.00151158677456652 127:0.2116068407547371 128:-70.59071134551363 129:-0.10740548766678581 130:0.022425321600757258 131:0.10972161970112121 132:-82.79342968491036 133:-3.9342669475009366E-4 134:0.053402497145293916 135:0.05340394635153161 136:-160.57789836516844 137:0.09957836710807275 138:0.022425321600757258 139:0.1020722599181947 140:-58.308560308378844 141:0.20095821434473818 142:-0.007143800509936821 143:0.201085150616229 144:-73.03593236909171 145:-0.5523503727610396 146:-0.384502120779747 147:0.673002834446767 148:-36.157453117914955 149:-0.44815441865668904 150:-0.4253356703611817 151:0.6178614856447282 152:-27.49643447089958 153:-0.34395846455233847 154:-0.44082425813345 155:0.5591363446388625 156:-18.96356669151678 157:-0.21864170894034926 158:-0.4013987619858579 159:0.45708332173919425 160:-9.57710830542755 161:-0.33973430425081075 162:-0.38168601391206186 163:0.5109829847469103 164:-22.671909665722467 165:-0.4439302583551613 166:-0.37323769330900636 167:0.579983146298156 168:-30.944303784475508 169:0.18969378687399757 170:-0.4182954031919688 171:0.45929813532185104 172:-136.60606913233278 173:0.29952195471371845 174:-0.4577208993395609 175:0.5470117211246421 176:-127.80019359696746 177:0.40794206911959674 178:-0.4563128459057183 179:0.6120769110954551 180:-119.20339861678212 181:0.516362183525475 182:-0.4168873497581262 183:0.663645211663243 184:-109.91582934458498 185:0.40512596225191155 186:-0.404214868853543 187:0.5722907525837057 188:-115.93550086389868 189:0.29952195471371845 190:-0.4056229222873856 191:0.5042255015769088 192:-124.55692686243785 193:-0.4425222049213187 194:0.24912192444941186 195:0.5078263828217318 196:-100.37773385668332 197:-0.2904524340663206 198:0.20688032143413462 199:0.3565979302404056 200:-106.46109988407026 201:-0.12711823574058187 202:0.17731119932344053 203:0.21817036293528738 204:-125.36244220457172 205:-3.9342669475009366E-4 206:0.19843200083107917 207:0.1984323908498548 208:-160.88640108689418 209:0.10943474114497077 210:0.1730870390219128 211:0.20478057927166807 212:-13.303229899299652 213:0.27699309977223724 214:0.18716757336033857 215:0.3343005800758208 216:-36.95263208479439 217:0.45863199273792943 218:0.242081657280199 219:0.5186008422228909 220:-43.17337460370213 221:0.29529779441219073 222:0.42512860367973376 223:0.5176244942536864 224:-15.784158976678668 225:0.1305555426526094 226:0.4969393288057051 227:0.5138029254793923 228:4.279942833735845 229:0.005238787040620208 230:0.5110198631441308 231:0.5110467154942914 232:18.41264538955633 233:-0.12711823574058187 234:0.4969393288057051 235:0.512940291234431 236:-146.6512932941232 237:-0.2904524340663206 238:0.4194963899443635 239:0.5102350807533756 240:-126.30190528247908 241:-0.3876081210014583 242:0.25616219161862475 243:0.46460641825219995 244:-104.45989127947013 245:-0.12289407543905415 246:0.24489776414788414 247:0.2740034099471257 248:-134.35168420483157 249:-3.9342669475009366E-4 250:0.26179440535399506 251:0.2617947009761963 252:-160.91389551599897 253:0.11225084801265593 254:0.24489776414788414 255:0.2693977872295782 256:-5.624732457131984 257:0.40653401568575415 258:0.2533460847509396 259:0.47901372064713893 260:-39.06943975150947 261:0.12069916861571138 262:0.38147894723061393 263:0.40011807817780676 264:1.4427338311720064 265:0.0038307336067776323 266:0.3969675350028823 267:0.3969860178472671 268:18.447113337607902 269:-0.12148602200521157 270:0.3842950540982991 271:0.40304037284999794 272:-143.45685093212523 
1.3905160808936102E-4 1.858653108536159E-4 2.44832524689752E-4 4.6879118874854245E-5 1:-0.9493428912919953 2:-0.31424206394649773 3:1.0 4:-49.68493604181909 5:-0.9273099642491301 6:-0.09971093221333745 7:0.9326553703263472 8:-61.86273285037984 9:-0.9006385262498724 10:0.10902206082433202 11:0.9072130756949696 12:-74.90205798517792 13:-0.8519341612077496 14:0.314276170644707 15:0.9080535922883919 16:-88.24887911870138 17:-0.748727292428013 18:0.48937995924852973 19:0.8944748755223234 20:-101.16926347963772 21:-0.5863794089542701 22:0.6180986382884259 23:0.8519898695991434 24:-114.50850240147932 25:-0.38228492687299326 26:0.7050707187207882 27:0.8020389539864872 28:-129.53372817420006 29:-0.17587118931352014 30:0.7781272662839724 31:0.7977547980207453 32:-145.26408256759566 33:0.0212655263331677 34:0.8129160984569174 35:0.8131941992787721 36:20.501509451558775 37:0.19636931493699042 38:0.7874042881967578 39:0.8115210538978429 40:7.996754449421815 41:0.3239283662377884 42:0.6772396529824323 43:0.7507217420757495 44:-3.5621092762502684 45:0.427135235017525 46:0.5392439520297507 47:0.6879160913906146 48:-16.382751303886053 49:0.5001917825807093 50:0.38385383499059683 51:0.6305042315466691 52:-30.496886889822022 53:0.5430980089273414 54:0.22034632377775573 55:0.5860955124407745 56:-45.91656717422669 57:0.5709290746656973 58:0.04988104613032567 59:0.5731039408882869 60:-63.006849639704015 61:0.5604924250138138 62:-0.10666869864792643 63:0.5705523374495173 64:-78.77524560439143 65:0.5361402424927524 66:-0.2574203047306877 67:0.5947365575679937 68:-93.64734493432101 69:-0.6919055332122029 70:-0.5206558015059709 71:0.8659190092216985 72:-31.038703606613687 73:-0.5550694599986197 74:-0.6435763418503763 75:0.8498779990167245 76:-18.776997144365865 77:-0.37300790496020797 78:-0.705036612022579 79:0.797628686454468 80:-5.8816047539616605 81:-0.1793500725308146 82:-0.6957595901097936 83:0.7185039009960603 84:7.545209555871224 85:0.007349993463989739 86:-0.6366185754157873 87:0.6366610031785731 88:-157.3385287338321 89:0.13374941702568957 90:-0.606468254199235 91:0.6210415846834894 92:-145.56317180742218 93:0.27406437345656737 94:-0.6331396921984928 95:0.6899109729779219 96:-134.59387493514743 97:0.40742156345285624 98:-0.6169049038511184 99:0.7392996623575093 100:-124.55809154672917 101:0.51874582640628 102:-0.5542850059398177 103:0.7591634212892755 104:-114.89696406091167 105:0.5442576366664396 106:-0.42208744368262696 107:0.6887482741787981 108:-105.79460646911645 109:0.08040654102717405 110:-0.45455702037737555 111:0.461613795953189 112:-147.96872325131602 113:0.11171648998282448 114:-0.35482903481493344 115:0.37200029312055627 116:-140.5236019043973 117:0.14766494989486756 118:-0.25626067699158955 119:0.2957608358110342 120:-128.04818687507432 121:0.18361340980691063 122:-0.1553730636900493 123:0.24052998395491698 124:-108.23778955876173 125:-0.08773948114205968 126:0.0011766810882027966 127:0.08774737106866042 128:-68.76835214691033 129:0.011988504420382393 130:0.02204998039196974 131:0.025098324117832617 132:-6.532785265969238 133:0.10707797902643182 134:0.05104067386942383 135:0.1186205883539188 136:-42.51434418815835 137:0.18013452658961612 138:0.034805885522049544 139:0.18346633842925827 140:-57.063984652016494 141:0.24391405224001514 142:0.019730724913773416 143:0.24471078109835664 144:-63.3752926675101 145:-0.49708807304371144 146:-0.38150047281419125 147:0.6266092587248945 148:-30.49482199186894 149:-0.3938812042639749 150:-0.40933153855254717 151:0.5680622426514849 152:-21.898013264545312 153:-0.295312846440631 154:-0.4116507940307435 155:0.5066221999666115 156:-13.655157762825333 157:-0.18862709444359993 158:-0.36758493994501323 159:0.41315719627354164 160:-5.16473589216411 161:-0.29763210191882733 162:-0.3467116406412463 163:0.456939634797381 164:-18.644202399891036 165:-0.4031582261767602 166:-0.3501905238585408 167:0.53401306944148 168:-27.02182885095307 169:0.18593266528510694 170:-0.33627499098936287 171:0.38425489663102497 172:-129.06098213645504 173:0.29029916180394166 174:-0.34903089611944266 175:0.45397816003637476 176:-118.2487162684912 177:0.37959049771450026 178:-0.3316364800329702 179:0.5040552557446462 180:-109.14270729826401 181:0.44452965110399745 182:-0.28873025368633815 183:0.5300677033213954 184:-101.00447127029875 185:0.37147310354081314 186:-0.27713397629535647 187:0.46346036235207744 188:-104.72442904033997 189:0.2798625121520582 190:-0.2956880201209271 191:0.4071295014502077 192:-114.57502487943063 193:-0.3393787005263612 194:0.23194260116873738 195:0.4110660197679705 196:-102.349989729718 197:-0.153838262270655 198:0.20990967412587228 199:0.26024657967029025 200:-121.76311690079515 201:-0.008884794883384553 202:0.19019600256120348 203:0.19040341113115894 204:-155.3254356723379 205:0.07460840233168323 206:0.21454818508226492 207:0.22715047308024724 208:2.825054715397755 209:0.1523034608512602 210:0.20295190769128327 211:0.2537436127724253 212:-14.886070493375712 213:0.23927554128362247 214:0.23658111212513003 215:0.33648686047293713 216:-23.32442074317072 217:0.31117246110770863 218:0.300360637775529 219:0.43248677815252456 220:-24.012876187165844 221:0.22651963615354268 222:0.36066128020863353 223:0.4258963542986296 224:-10.131595338747765 225:0.14418606667757305 226:0.38037495177330233 227:0.40678584754203484 228:1.2401361060587845 229:0.059533241723407106 230:0.38269420725149866 231:0.3872971251299842 232:13.157742266441616 233:-0.026279210969857008 234:0.36414016342592803 235:0.3650871889686898 236:-153.87224318218864 237:-0.16543453966163665 238:0.314276170644707 239:0.3551592577255429 240:-130.23774356145964 241:-0.2790780580932567 242:0.243538878559719 243:0.37039944368104644 244:-109.10974160429487 245:-0.0170021890570717 246:0.2597736669070933 247:0.2603294690408481 248:-154.2553315890861 249:0.06649100815799609 250:0.27368919977627126 251:0.28165019481626924 252:8.344909410362376 253:0.1465053221557694 254:0.2713699442980749 255:0.3083917250645777 256:-6.36341488583173 257:0.2671066070219784 258:0.2980413822973327 259:0.40021819683330045 260:-19.866900191638415 261:0.1488245776339657 262:0.28296622168905655 263:0.31971649554708403 264:-5.7418872101561504 265:0.06996989137529058 266:0.28296622168905655 267:0.29148871044356117 268:8.110908192808196 269:-0.014682933578875372 270:0.264412177863486 271:0.26481953919791 272:-154.82160252533617 
0.0012573429112165192 6.671413753909178E-4 0.0 0.0 1:-0.9296034610302784 2:-0.36856126389045246 3:1.0 4:-50.37308596498707 5:-0.921580144646365 6:-0.15460616031942886 7:0.9344586817056878 8:-62.47662490277714 9:-0.908207950673176 10:0.04731396867572466 11:0.909439549006869 12:-74.98218294389135 13:-0.8627424911643334 14:0.2612690722467483 15:0.9014355962425249 16:-88.84817667381454 17:-0.7744860109412862 18:0.45784032365262617 19:0.8996923602577092 20:-102.58961653947071 21:-0.6247174384415697 22:0.6196438707282128 23:0.8799036336008839 24:-116.76639228164953 25:-0.43750672281692404 26:0.7520285910627836 27:0.8700339845580057 28:-131.81049364308575 29:-0.22756327743785718 30:0.8549944846563388 31:0.8847602014280578 32:-147.0958173833761 33:-0.00558485748292019 34:0.9004599441651813 35:0.9004772632771278 36:-161.64464309372994 37:0.20034692970419002 38:0.8656922398348899 39:0.8885729831320802 40:4.969457518745116 41:0.3781971095476034 42:0.7560402492547403 43:0.8453578604137609 44:-8.575780277190134 45:0.526628462650001 46:0.6089461155496616 47:0.8050794428602219 48:-22.85388857848492 49:0.6322687950381939 50:0.433770374500886 51:0.7667597844003613 52:-37.54778362365521 53:0.683083132136312 54:0.2412107812869648 55:0.7244206004927126 56:-52.55082004395783 57:0.7044786424934144 58:0.04062787168913017 59:0.7056491916578325 60:-68.69936052929683 61:0.7071530812880521 62:-0.14658284393551546 63:0.7221855789971233 64:-83.71075834003244 65:0.7004669843014577 66:-0.32577024317624775 67:0.7725155321645579 68:-96.94199845909576 69:-0.7022761634860658 70:-0.5276903721714012 71:0.8784355062741369 72:-35.078796543366586 73:-0.5739031013434516 74:-0.6493773373274209 75:0.8666346958009951 76:-23.46942727692251 77:-0.39739014089735714 78:-0.7095522102067713 79:0.8132547344416359 80:-11.25134066235048 81:-0.2088422058753926 82:-0.7122266490014091 83:0.7422141648491197 84:1.6575774723671088 85:-0.03634090362125483 86:-0.6507145567247398 87:0.651728544418214 88:14.803483688819355 89:0.13214874044092625 90:-0.6373423627515509 91:0.6508982846481105 92:-150.2860807527162 93:0.28726619052991836 94:-0.6787961640684367 95:0.7370794370863939 96:-139.06194341253843 97:0.45040695700282385 98:-0.6721100670818422 99:0.8090725364201296 100:-128.17243090097577 101:0.5961638713105837 102:-0.6025746584212595 103:0.8476482645694025 104:-117.30641172698415 105:0.6536643053952963 106:-0.4554805247161808 107:0.7967054239451634 108:-106.86921077943933 109:0.049241137807154604 110:-0.47553881567596423 111:0.47808143120920504 112:-156.0882003631791 113:0.06127611238302468 114:-0.36722404449313356 115:0.3723013037885739 116:-152.5267320891787 117:0.07331108695889475 118:-0.25757205391298393 119:0.2678019388056176 120:-146.1123957111916 121:0.08534606153476483 122:-0.1412339663462399 123:0.16501813072928284 124:-130.855913999087 125:-0.13796957781749103 126:0.007197386756157738 127:0.13815718142483377 128:-74.98621207158772 129:-0.04035256181321152 130:0.03929065229181128 131:0.0563212624361801 132:-116.23610153907005 133:0.05993889298570578 134:0.06870947903282702 135:0.09117929261249172 136:-23.099902513173333 137:0.1468581538114341 138:0.04865118807304356 139:0.15470699868403334 140:-53.67099228383873 141:0.22441687885593017 142:0.020569580729346712 143:0.22535758954785248 144:-66.7630218160548 145:-0.5016932538882312 146:-0.39798009063146816 147:0.640378226937794 148:-33.5759551617544 149:-0.39872736029467604 150:-0.4340850143590784 151:0.589417769954963 152:-24.56892603843228 153:-0.2957614667011209 154:-0.4367594531537162 155:0.5274785920815473 156:-16.1047748496334 157:-0.17942337913437686 158:-0.3899567742475548 159:0.4292540445488624 160:-6.707676430157321 161:-0.29442424730380207 162:-0.37257292208240916 163:0.474864422408581 164:-20.317411702224703 165:-0.40273901848663274 166:-0.37391014147972806 167:0.5495521002716363 168:-29.125818263769787 169:0.19366083271759554 170:-0.37391014147972806 171:0.421085872513271 172:-134.61881800961055 173:0.3033128232977451 174:-0.41402672339929497 175:0.513241460197445 176:-125.77377900694889 177:0.40092983930202464 178:-0.40466618761806267 179:0.5696485402808336 180:-117.26573548920854 181:0.49052353892239076 182:-0.36454960569849576 183:0.6111544463160478 184:-108.61916798905655 185:0.40092983930202464 186:-0.3431540953413934 187:0.527730489163093 188:-112.56007400044727 189:0.3019756039004262 190:-0.3498401923279879 191:0.46214437735312835 192:-121.19984511303682 193:-0.3786690693348926 194:0.2559201946574727 195:0.4570398342644461 196:-106.05245186675216 197:-0.20483054768343592 198:0.2371991230950081 199:0.3133990702943088 200:-121.18813173738988 201:-0.0523875363890816 202:0.21847805153254354 203:0.2246711217988954 204:-148.51597032424468 205:0.042555040820560115 206:0.24522243947892147 207:0.24888747723264995 208:8.155136055134832 209:0.12145098526237506 210:0.22516414851913802 211:0.2558304821547856 212:-10.341919520092674 213:0.23912629222643805 214:0.251908536465516 215:0.347331677763722 216:-25.50885670792001 217:0.3688365737663711 218:0.27999014380921283 219:0.4630711595187281 220:-34.79724573777334 221:0.23244019523984355 222:0.3856304761974057 223:0.4502658198613064 224:-13.079626799312976 225:0.11743932707041838 226:0.42173539992501596 227:0.43778161575455155 228:2.4392428983515373 229:0.03052006624469004 230:0.4324331551035671 231:0.4335088327547733 232:13.962899407647498 233:-0.06709694975958948 234:0.41772374173305926 235:0.42307815480654215 236:-152.87480061490805 237:-0.2182027416566249 238:0.36824662403226005 239:0.42803973247541455 240:-131.35134495791857 241:-0.32518029344213667 242:0.27196682742529943 243:0.4239200142277983 244:-111.90766246263077 245:-0.056399194581038294 246:0.2880134601931262 247:0.2934835981819211 248:-150.92046009917053 249:0.03854338262860343 250:0.3067345317555908 251:0.3091466728201622 252:10.837914809460358 253:0.12011376586505618 254:0.2946995571797207 255:0.3182375618185399 256:-4.174846499339139 257:0.3126733590789774 258:0.290687898987764 259:0.4269239792933299 260:-29.086837678189134 261:0.11743932707041838 262:0.32411838392073644 263:0.34473862901935226 264:-1.9172076086846914 265:0.03720616323128453 266:0.33080448090733094 267:0.3328902269078527 268:11.582810906092746 269:-0.057736413978357194 270:0.31743228693414194 271:0.32264028001370143 272:-151.69140532014347 
8.920688984158728E-4 0.0 0.0 0.0 1:-0.9187097106829598 2:-0.2985277926027824 3:0.9659950183409113 4:-56.998820332431166 5:-0.9217368341391169 6:-0.09116983585602398 7:0.9262347058811908 8:-69.35119551819425 9:-0.9202232724110383 10:0.10559318879418472 11:0.9262617300777379 12:-81.54590957847454 13:-0.8808706674809966 14:0.3220325159094143 15:0.9378902249897713 16:-95.08162044868351 17:-0.793084087252442 18:0.5263633492000157 19:0.9518617256902898 20:-108.57190065251827 21:-0.6432414761726676 22:0.6973958244728894 23:0.9487468222139211 24:-122.31317569092516 25:-0.45404626016285154 26:0.8426977503684281 27:0.9572342998680529 28:-136.68417525474874 29:-0.24063405650377903 30:0.9562148799743178 31:0.9860282175646713 32:-150.87466866357883 33:2.225826070701694E-5 34:0.9985946083605166 35:0.9985946086085803 36:14.998722900777821 37:0.237651449569036 38:0.971350497255103 39:1.0 40:1.2520316386153922 41:0.4586314618685012 42:0.8699418614738417 43:0.9834336073981867 44:-12.798100910825049 45:0.6463131161502387 46:0.7322077442186955 47:0.9766518442114684 48:-26.434551274089003 49:0.8037235358704057 50:0.5536074603054292 51:0.9759368536016326 52:-40.44079935894616 53:0.8869694309147247 54:0.35079018874290635 55:0.9538178693521496 56:-53.42155045252109 57:0.9217813506605309 58:0.13889154681191235 59:0.9321865265070924 60:-66.431284346832 61:0.9338898444851591 62:-0.07754778030331723 63:0.9371039962898923 64:-79.74680222373487 65:0.9263220358447665 66:-0.29095998396238976 67:0.9709429573146854 68:-92.43762950222867 69:-0.7718942230593425 70:-0.5240484900864831 71:0.9329777658413457 72:-40.82693433336835 73:-0.6689720255500026 74:-0.6693504159820218 75:0.9463369116460474 76:-29.983800485210182 77:-0.500966673733286 78:-0.7586505579386551 79:0.9091305061717075 80:-18.43834526261776 81:-0.3026900873549987 82:-0.7964896011406183 83:0.8520662965451209 84:-5.808302050415236 85:-0.09987281579247587 86:-0.7631912431228907 87:0.7696982869370186 88:7.544518923658188 89:0.10445801749812549 90:-0.7586505579386551 91:0.765808165587356 92:-157.16028239131117 93:0.2966803569640986 94:-0.8010302863248538 95:0.8542065053709335 96:-144.67670761139811 97:0.49949762852662144 98:-0.7858946690440686 99:0.9311972464175379 100:-132.5608443944814 101:0.6826385976241234 102:-0.7117301443682207 103:0.9861821603378547 104:-121.19522261984997 105:0.7991828506861701 106:-0.5603739715603678 107:0.9760697807191928 108:-110.03751154924149 109:-0.010572673835842683 110:-0.5361569839111113 111:0.5362612169723807 112:13.87031017601096 113:-0.009059112107764155 114:-0.4362619098579285 115:0.4363559573388089 116:13.810406562642783 117:-0.01208623556392121 118:-0.3363668358047456 119:0.3365839053184262 120:12.942149989035087 121:-0.016626920748156797 122:-0.22739039138309156 123:0.22799746618530883 124:10.817941200791708 125:-0.20430857502989433 126:-0.012464625995940498 127:0.2046884479690162 128:-71.50877908335056 129:-0.10138637752055439 130:0.002670991284844786 131:0.10142155461825703 132:-76.50908969848697 133:0.004562943444942603 134:0.02083373202178713 135:0.02132756063963676 136:2.646309025042356 137:0.10748514095428255 138:-3.5613217131227106E-4 139:0.1074857309417647 140:-75.18983829314203 141:0.20889377673554396 142:-0.0230595580924902 143:0.21016268264908547 144:-81.2993145402946 145:-0.5675633897687412 146:-0.3726923172786303 147:0.6789902538065617 148:-41.70896741074771 149:-0.4631276305313227 150:-0.4165856073929076 151:0.622921159095174 152:-33.028461463565044 153:-0.35263762438159013 154:-0.43474834812984997 155:0.5597851555115807 156:-24.046560989025558 157:-0.21490350712644404 158:-0.40144999011212235 159:0.455352184508067 160:-13.160956109314718 161:-0.3450698157411975 162:-0.3772330024628659 163:0.5112513236000593 164:-27.450379154146404 165:-0.4585869453470871 166:-0.3666380703663162 167:0.5871332566672647 168:-36.357831340473375 169:0.21494802364785806 170:-0.4150720456648291 171:0.46742641769855725 172:-137.62229722866826 173:0.3375465236222189 174:-0.4529110888667923 175:0.564859371904148 176:-128.30349688760418 177:0.45711790014042264 178:-0.4453432802263997 179:0.6381907331445662 180:-119.25249111665218 181:0.581229961842862 182:-0.409017798752515 183:0.7107206400831536 184:-110.13446480824963 185:0.4556043384123441 186:-0.3938821814717297 187:0.6022611444058784 188:-115.84429478236535 189:0.33603296189414034 190:-0.39842286665596527 191:0.5212091059773475 192:-124.85545463355072 193:-0.46464119225940126 194:0.28267991097937256 195:0.5438744061045195 196:-106.31563003119204 197:-0.2936087169865275 198:0.21911031840007436 199:0.36635421427882714 200:-111.73274338555854 201:-0.12560336516981085 202:0.17067634310156146 203:0.21191181995467545 204:-128.65007246475707 205:-0.00300486519545004 206:0.19337976902273937 207:0.19340311342408856 208:-164.10977120275535 209:0.09689020885773285 210:0.1631085344611688 211:0.1897158574989592 212:-15.711282749926845 213:0.28154473968331334 214:0.2054882628473676 215:0.34855826860278827 216:-38.87578649666141 217:0.4722535174212079 218:0.27208497888282285 219:0.5450262566614285 220:-45.0519584691697 221:0.2966803569640986 222:0.4264682751468328 223:0.5195136417025635 224:-19.82510246705148 225:0.12262075823506782 226:0.4824700590857383 227:0.4978084051764682 228:0.7400746668861444 229:0.010617190357256716 230:0.4960921146384451 231:0.49620571433380967 232:13.773962881307042 233:-0.1180355565294182 234:0.48095649735765983 235:0.49522878041947244 236:-151.21108838746596 237:-0.292095155258449 238:0.4219275899625972 239:0.5131690470956943 240:-130.30563234364104 241:-0.398044476223946 242:0.29176128134784374 243:0.493522086989155 244:-111.24091804526596 245:-0.12408980344173232 246:0.2705714171547443 247:0.2976695669687018 248:-140.36280375542944 249:-0.0014913034673715115 250:0.2841934727074511 251:0.2841973854833161 252:-164.69934351562569 253:0.0999173323138899 254:0.2675442936985873 255:0.2855931063373208 256:-5.4786941088513 257:0.4101974865699882 258:0.28267991097937256 259:0.49816654851529496 260:-40.428058830680015 261:0.11202582613851812 262:0.3462495035586708 263:0.36392101400804466 264:-2.928508148270808 265:0.00759006690109966 266:0.3553308739271419 267:0.3554119287269205 268:13.77631608051577 269:-0.1180355565294182 270:0.3417088183744352 271:0.3615208281137647 272:-145.94368981769412 
0.0 0.0 0.0 7.817029341671121E-5 1:-0.5435458844108229 2:-0.22398679647700626 3:0.5878879259314443 4:-49.60420351208414 5:-0.564498201673116 6:-0.0908779573989082 7:0.5717665807243195 8:-62.85448483442618 9:-0.5780555834310704 10:0.05455577418642118 11:0.5806243105769126 12:-77.39149557111837 13:-0.5583357554195004 14:0.2110819090282587 15:0.5969040024148592 16:-92.709374971665 17:-0.5188960993963602 18:0.3589806191150343 19:0.6309677066767924 20:-106.67610459092253 21:-0.4400167873500799 22:0.50687932920181 23:0.6712238281839839 24:-121.03908434678105 25:-0.32909275478499816 26:0.6449181252828006 27:0.7240313733328557 28:-134.96541118089118 29:-0.20214636196051575 30:0.763237093352221 31:0.7895530459206771 32:-147.1655919763826 33:-0.04069027011578568 34:0.7878868783666837 35:0.7889368993680629 36:-159.043596768741 37:0.1503455637462995 38:0.7459822438420972 39:0.7609817978545103 40:6.6052285656065095 41:0.3561712686170623 42:0.6646379532943706 43:0.7540567495537837 44:-10.18630744310962 45:0.5718568874936101 46:0.5611088562336277 47:0.8011638086669225 48:-27.543527780913898 49:0.7579627643528027 50:0.4267675279048065 51:0.8698494553768037 52:-42.61850919153902 53:0.865189329165715 54:0.25298654355284517 55:0.9014181973540558 56:-55.700763905621265 57:0.9120239206931939 58:0.05702075268786744 59:0.9138046827159927 60:-68.42246051736072 61:0.9342087272062103 62:-0.1451074844307259 63:0.9454110894346759 64:-80.82900700262965 65:0.9391386842091028 66:-0.34353825379714986 67:1.0 68:-92.09259086080787 69:-0.5213610778978065 70:-0.39037284532462885 71:0.6513127757948628 72:-35.175703246552224 73:-0.47575897562105063 74:-0.4828095391288636 75:0.677828631704074 76:-26.578579682873254 77:-0.3808573033153696 78:-0.5382715554114045 79:0.6593849807613669 80:-17.281547402253075 81:-0.2588408674937797 82:-0.571548765180929 83:0.6274285502467808 84:-6.364643518915557 85:-0.13189447466929732 86:-0.5493639586679127 87:0.5649751424014776 88:4.499619639225131 89:0.01846921391892457 90:-0.5690837866794827 91:0.5693834104750876 92:-160.14115823082247 93:0.17376285951003898 94:-0.6368706954692549 95:0.6601498421514603 96:-146.73894861431137 97:0.3512413116141697 98:-0.6541255449793787 99:0.7424625832855225 100:-133.76584043628554 101:0.5274872744675774 102:-0.6220808244605773 103:0.81561472331413 104:-121.70405199008309 105:0.6692235383007373 106:-0.5123892811462187 107:0.8428540322317366 108:-109.43938171951807 109:-0.08259490464037211 110:-0.4125576518376452 111:0.420744262423558 112:6.67893433081376 113:-0.10601220040411158 114:-0.3312133612899186 115:0.34776554937412596 116:0.2515741989187745 117:-0.13682443167218983 118:-0.249869070742192 119:0.28487800479500747 120:-10.704430013223963 121:-0.16640417368954497 122:-0.16112984469012662 123:0.23163155197676455 124:-27.922562718719078 125:-0.22309867922280896 126:0.013883628912557879 127:0.22353025706320706 128:-75.56097513043997 129:-0.16517168443882183 130:0.02867349992123544 131:0.16764204406440178 132:-81.84829398115706 133:-0.09491979714760342 134:0.042230881679189876 135:0.10389040022034719 136:-95.98481740859381 137:-0.007413060346261164 138:0.010186161160388486 139:0.012598069014048011 140:-125.9544451750019 141:0.0850236334579736 142:-0.019393580856966637 143:0.08720739203101736 144:-84.84913064874195 145:-0.4239944270906792 146:-0.24740409224074572 147:0.49089719805822957 148:-41.73610137787426 149:-0.3586724968023533 150:-0.28068130201027025 151:0.4554425905211486 152:-33.95483116769202 153:-0.27609571700390356 154:-0.3040985977740097 155:0.4107369013322501 156:-24.236783024180447 157:-0.17749657694605314 158:-0.3028661085232866 159:0.3510454593348351 160:-12.37270183967751 161:-0.2662358029981185 162:-0.2658914310015927 163:0.37627085440959634 164:-27.037079589181225 165:-0.35004507204729135 166:-0.2461716029900226 167:0.42793926039015245 168:-36.88293300093487 169:0.16513543475497708 170:-0.34477074304787303 171:0.38227814098310375 172:-136.40689722221302 173:0.26126959631138125 174:-0.3768154635666744 175:0.4585321096059466 176:-127.2640237430549 177:0.353706290115616 178:-0.38297790982029006 179:0.5213254444947709 180:-119.27540983423008 181:0.4597003656778052 182:-0.3718855065637819 183:0.5912894859512627 184:-110.97194808102815 185:0.3611012256199548 186:-0.34230576454642675 187:0.4975613847415686 188:-115.46938625962787 189:0.26496706406355064 190:-0.33491082904208797 191:0.4270512948676265 192:-123.6504683773015 193:-0.35744000755163013 194:0.2554515220542914 195:0.4393390935466175 196:-107.5522409990453 197:-0.2600733567445029 198:0.2221743122847669 199:0.3420520076356263 200:-112.50645543246262 201:-0.1553117704330368 202:0.18396714551234986 203:0.24076057954533675 204:-121.8277232532306 205:-0.06410756587952515 206:0.19629203801958114 207:0.20649538540335072 208:-143.91333499654013 209:0.0197017031696477 210:0.16424731750077975 211:0.16542472129034058 212:11.159969073908712 213:0.17622783801148523 214:0.17164225300511854 215:0.24600267052793434 216:-27.75522287787649 217:0.37342611812718607 218:0.17533972075728793 219:0.4125422201118122 220:-46.84791316836646 221:0.19718015527377844 222:0.3010536243310472 223:0.3598795609042707 224:-15.22347115471392 225:0.04558397743483344 226:0.3602131083657575 227:0.3630859160547271 228:10.787713434573249 229:-0.04685271636940133 230:0.38239791487877384 231:0.3852575013349195 232:-155.01473814776733 233:-0.1429868779258055 234:0.38239791487877384 235:0.408256552381714 236:-141.4981391118189 237:-0.24898095348799468 238:0.3552831513628649 239:0.4338405615455053 240:-126.9773884832607 241:-0.30444296977053553 242:0.26654392531079957 243:0.4046371040361874 244:-113.20258386279545 245:-0.15038181343014426 246:0.25298654355284517 247:0.29430746003007524 248:-131.27164373645 249:-0.059177608876632634 250:0.2603814790571839 251:0.26702154225523156 252:-149.19573393471327 253:0.028329127924709614 254:0.23696418329344446 255:0.2386515527980149 256:11.182630775221753 257:0.3130341448417527 258:0.19752452727030428 259:0.37014364064531025 260:-39.748076767266866 261:0.035724063429048394 262:0.25668401130501456 263:0.25915804129433356 264:10.076740716621345 265:-0.05178267337229385 266:0.27517135006586146 267:0.2800012806375188 268:-151.3425246802721 269:-0.1466843456779749 270:0.27763632856730774 271:0.31400354808076564 272:-134.151042392672 
0.0 3.3105770261357E-4 0.0 5.436254317479963E-6 1:-0.5220105307392456 2:-0.2822113894699164 3:0.5934123882673918 4:-41.6032827860692 5:-0.5439173509264081 6:-0.1288636481597791 7:0.5589739926471077 8:-56.671367563325646 9:-0.5548707610199893 10:0.025579434159716325 11:0.5554600515670173 12:-72.63945556654467 13:-0.5329639408328269 14:0.18878524455407675 15:0.5654117356311236 16:-89.50504496889451 17:-0.48695961843978575 18:0.34651434990164653 19:0.5976636718747279 20:-105.43517712557194 21:-0.4015230197098521 22:0.4878133401088445 23:0.6318089823238234 24:-120.5419336426632 25:-0.2963702828114722 26:0.6203496022411774 27:0.6875092534173914 28:-134.46399220427188 29:-0.19231288692245047 30:0.7572672284109428 31:0.7813052551350455 32:-145.75060336062194 33:-0.03129775854680631 34:0.8010808687852679 35:0.8016920281653134 36:-157.76262550883246 37:0.15819623607214908 38:0.767125297495166 39:0.7832670497119371 40:8.34783271891827 41:0.36192966381276004 42:0.6816886987652323 43:0.7718112227558325 44:-7.9652182020336255 45:0.5689491145814454 46:0.5765359618668525 47:0.8099980310523893 48:-24.620520614334154 49:0.7463943580974615 50:0.4275695845941477 51:0.8601861934893709 52:-40.19390173220286 53:0.8460703899490507 54:0.24136161300326667 55:0.8798241488957195 56:-54.07794643319995 57:0.8898840303233756 58:0.03762818526265568 59:0.8906792170870134 60:-67.57872644679713 61:0.9139815325292543 62:-0.16720058348731343 63:0.9291492220967644 64:-80.36685880610281 65:0.92822096565091 66:-0.3720293522372825 67:1.0 68:-91.84082724616943 69:-0.5132478026643806 70:-0.4037942415086681 71:0.6530490765749353 72:-31.806339959807026 73:-0.480387572383637 74:-0.508946978407048 75:0.6998565899741949 76:-23.3464853962928 77:-0.38509290456948025 78:-0.5604280058468798 79:0.6799824224840442 80:-14.494542423213133 81:-0.2635100525307285 82:-0.5867161900714748 83:0.6431744984658007 84:-4.186133291425577 85:-0.13645049544518617 86:-0.571381415940461 87:0.5874482617127766 88:6.568857092434712 89:-0.010486279369001962 90:-0.5943835771369816 91:0.5944760708600128 92:18.989276873766798 93:0.1691496461657303 94:-0.6469599455861715 95:0.6687067922422008 96:-145.34782979065182 97:0.35645295876596944 98:-0.6568180146703947 99:0.7473075780484049 100:-131.51146284058012 101:0.5404702483381342 102:-0.6140997153054278 103:0.8180626807750687 104:-118.64893666765067 105:0.6850552615734065 106:-0.5056609553789736 107:0.8514656265546983 108:-106.43220778536406 109:-0.09263685507086124 110:-0.40488958251802626 111:0.41535185198701274 112:7.112806110998619 113:-0.1189250392954562 114:-0.3019275276383626 115:0.32450484883471314 116:-1.4987881677263601 117:-0.14959458755748364 118:-0.20115615477741525 119:0.25068374345244065 120:-16.637219728322115 121:-0.18135947682886924 122:-0.09490807686967727 123:0.2046919707529871 124:-42.37627719597393 125:-0.2547473244558635 126:0.021198070122283832 127:0.2556277713675301 128:-74.75674566505096 129:-0.19121754591309234 130:0.04858159535623692 131:0.19729247647181763 132:-84.25521439086305 133:-0.11235299323930746 134:0.06829773352468314 135:0.13148298557015084 136:-101.29480315527576 137:-0.007200256340927592 138:0.03324682122522319 139:0.0340175662409441 140:-147.78018040215966 141:0.09576179853873602 142:3.8659094447948423E-4 143:0.0957625788705161 144:-69.76869785732514 145:-0.4059043837472846 146:-0.28111604846055827 147:0.49374548245765426 148:-35.29479779247326 149:-0.34346994621387156 150:-0.31835764277873446 151:0.4683195411978792 152:-27.172981465843087 153:-0.259128688493296 154:-0.3380737809471807 155:0.42595957386139116 156:-17.46964549679602 157:-0.1649293616884974 158:-0.3117855967225857 159:0.3527207857082342 160:-7.878090957183737 161:-0.250365960418431 162:-0.28440207148863267 163:0.3789032230045935 164:-21.358236577856417 165:-0.33908858217643906 166:-0.270162638366977 167:0.4335538233389641 168:-31.454555090968313 169:0.15819623607214908 170:-0.35012253205012006 171:0.3842028586002224 172:-135.68506940079206 173:0.2578722679237383 174:-0.3895548083870125 175:0.46717347452694097 176:-126.49677183100152 177:0.35207159472853694 178:-0.39722219545251936 179:0.530791748593377 180:-118.44833317442425 181:0.4462709215333356 182:-0.37312469324664066 183:0.5817041964062252 184:-109.89881250187535 185:0.35754829977532754 186:-0.34574116801268756 187:0.4973708293929238 188:-114.0381837032337 189:0.25896760893309645 190:-0.3391691219565388 191:0.4267316671695395 192:-122.6369871382607 193:-0.3368979001577228 194:0.23478956694711792 195:0.4106413713666685 196:-104.87326100020465 197:-0.2536519834465054 198:0.2194547928161042 199:0.3354098012824096 200:-110.86572610266839 201:-0.16164333866042302 202:0.19973865464765797 203:0.25695155009017673 204:-121.01764695249477 205:-0.07949276295856375 206:0.2150734287786717 207:0.22929387067560436 208:-139.71530695032115 209:0.010325199808802385 210:0.18768990354471862 211:0.1879736940205131 212:16.85121756227386 213:0.1779123742405953 214:0.18440388051664425 215:0.25623739785113814 216:-23.973559378043554 217:0.3827411429905644 218:0.190975926572793 219:0.42774126182548783 220:-43.48223051915376 221:0.19762851240904153 222:0.3311795757706328 223:0.38566428448149953 224:-10.826270236279903 225:0.03332736100532298 226:0.394709354313404 227:0.3961138565792459 228:15.173667463580756 229:-0.06415798882755001 230:0.41113946945377583 231:0.4161152615239296 232:-151.13057151595655 233:-0.15397595159491614 234:0.4045674233976271 235:0.43287803564532445 236:-139.16347333734402 237:-0.24707993739035666 238:0.3541817369671534 239:0.43184858256325487 240:-125.1000723233455 241:-0.2876075547366072 242:0.24902900006877354 243:0.38043862634704134 244:-110.88810664078287 245:-0.15835731563234864 246:0.2512196820874898 247:0.2969652641007408 248:-127.77455738334115 249:-0.07511139892113125 250:0.2599824101623548 251:0.27061518036081456 252:-143.88548961296277 253:0.01470656384623488 254:0.24136161300326667 255:0.2418092455877195 256:16.51318388363427 257:0.3312601155507326 258:0.2095967237318811 259:0.39200006473701404 260:-37.67741933665051 261:0.02346929192109987 262:0.3027007095273216 263:0.3036091685236494 264:15.566556228377308 265:-0.06744401185562439 266:0.3169401426489772 267:0.324036647244622 268:-147.98680269638766 269:-0.15507129260427427 270:0.3114634376021866 271:0.34793185935313775 272:-133.53222308131305 
0.0 0.0 1.2805515210564853E-5 0.0 1:-0.8595738454200887 2:-0.025122388548064766 3:0.8599408875827679 4:-83.32591788426217 5:-0.8478428760036535 6:0.14644303916730178 7:0.8603970630532756 8:-94.79968143446611 9:-0.8375782777642726 10:0.32240758041383155 11:0.8974876151183737 12:-106.05312758629402 13:-0.7994526271608577 14:0.49397300812919814 15:0.9397520076246746 16:-116.7114640775304 17:-0.7261340683081371 18:0.6303455275952587 19:0.9615644384632115 20:-125.96073262899759 21:-0.5956270335502941 22:0.7271260252808501 23:0.9399381999560665 24:-135.67729766551605 25:-0.407931522887329 26:0.7652516758842649 27:0.8671898608775656 28:-146.93933023836098 29:-0.2085050428079286 30:0.7901799858941899 31:0.8172262618051859 32:-160.2182688143056 33:-0.0032130780203104875 34:0.797511841779462 35:0.797518314303085 36:-174.7691635357582 37:0.2108771138296341 38:0.7960454706024076 39:0.8235032169965851 40:-9.83718730088684 41:0.4381646462730684 42:0.772583531769537 43:0.8881855497614753 44:-24.559397286858392 45:0.6405238687065776 46:0.7344578811661222 47:0.9745251179881772 48:-36.09182235949078 49:0.7856946152349648 50:0.6186145581788234 51:1.0 52:-46.78496739124329 53:0.8604795452647399 54:0.4631792134110554 55:0.977220564435224 56:-56.70729365505799 57:0.8868742264517193 58:0.2769500739251447 59:0.9291109928267337 60:-67.65763685831342 61:0.8810087417435017 62:0.09218730561628843 63:0.8858187751144468 64:-79.02640258808262 65:0.867811401150012 66:-0.08964272033845902 67:0.8724290488490317 68:-90.89759181047928 69:-0.6924075312358855 70:-0.4034461522281038 71:0.8013719405243961 72:-54.77186274599053 73:-0.6117571164978927 74:-0.5588814969958718 75:0.8286104617189931 76:-42.58618847841174 77:-0.4665863699695056 78:-0.6600611082126264 79:0.8083214133104485 80:-30.25586375216608 81:-0.2891554575459214 82:-0.6981867588160412 83:0.755695460363922 84:-17.496990277536398 85:-0.11612365865350044 86:-0.6615274793896808 87:0.6716422485868048 88:-4.956189573232749 89:0.05984088259302935 90:-0.6717920776290618 91:0.6744520196386723 92:-169.90972763198434 93:0.2519355067871577 94:-0.7128504705865853 95:0.7560603765544245 96:-155.53558078890478 97:0.45282835804361254 98:-0.6923212741078235 99:0.8272619104193994 100:-141.81240150322515 101:0.6229274145819247 102:-0.6043390034845587 103:0.867907941529763 104:-129.1322535540128 105:0.7211742834445705 106:-0.44890365871679067 107:0.8494744504169095 108:-116.90069872167615 109:-0.02227590332201788 110:-0.5266213311006747 111:0.5270922521144267 112:2.5778519297188325 113:-0.029607759207289957 114:-0.4474372875397363 115:0.44841581783674117 116:1.2141507688011615 117:-0.035473243915507616 118:-0.3726523575099611 119:0.37433692122421075 120:-0.4376721397164829 121:-0.04280509980077969 122:-0.2905355715949139 123:0.29367191716427027 124:-3.381189254688394 125:-0.18944221750622117 126:-0.057382554443261895 127:0.19794219188467208 128:-68.14829899961023 129:-0.10732543159117394 130:-0.05444981208915307 131:0.12034753966232895 132:-58.09978220738163 133:-0.019343160967909053 134:-0.052983440912098646 135:0.05640392616756647 136:-15.056094736575432 137:0.06717273847830142 138:-0.05884892562031631 139:0.08930494298380016 140:-126.22106556624774 141:0.15515500910156632 142:-0.06324803915147956 143:0.1675511602640048 144:-107.17798061257807 145:-0.5311067017598998 146:-0.2846700868866962 147:0.602587244324304 148:-56.808951858376886 149:-0.4416580599595806 150:-0.33012759337538305 151:0.5514037267149023 152:-48.222868276955005 153:-0.3448775622739892 154:-0.35945501691647136 155:0.4981450011256462 156:-38.814328027071426 157:-0.21876964104730948 158:-0.34185856279181837 159:0.4058662745265444 160:-27.6168841439169 161:-0.32288199461817296 162:-0.31106476807367567 163:0.44834592937300044 164:-41.067911124264775 165:-0.42259523465787313 166:-0.2920019427719683 167:0.5136651311293641 168:-50.356569803982524 169:0.20647800029847085 170:-0.3638541304476346 171:0.41835749407780387 172:-145.4261875506697 173:0.32085495210871523 174:-0.3799842133952332 175:0.4973287672378103 176:-134.822579840348 177:0.419101820971361 178:-0.36678687280174344 179:0.5569371117111814 180:-126.19155993345777 181:0.5276132880733877 182:-0.3330603357294919 183:0.6239430815289593 184:-117.26251466168235 185:0.4205681921484154 186:-0.32866122219832866 187:0.5337563144580921 188:-123.00654197165062 189:0.3179222097546064 190:-0.33745944926065513 191:0.463630684220271 192:-131.70750880433815 193:-0.36687312992980536 194:0.246156279207002 195:0.4418017737147819 196:-118.85993227236457 197:-0.22463512575552713 198:0.14644303916730178 199:0.26815388015793723 200:-118.1009384580444 201:-0.10292631806001071 202:0.07605722266868986 203:0.1279786234863665 204:-121.46248330552766 205:-0.007612191551473732 206:0.08925456326217959 207:0.08957858295004865 208:-170.12525130129052 209:0.08623556378000882 210:0.06579262442930896 211:0.10846769975320798 212:-47.65851467540744 213:0.21674259853785174 214:0.12151472915737672 215:0.24848175672095327 216:-55.723234239921055 217:0.3883080262532183 218:0.21536248448885928 219:0.44403166889072704 220:-55.98647627429264 221:0.23287268148545032 222:0.26081999097754616 223:0.34965233228987797 224:-36.76001728941541 225:0.11263024496698829 226:0.2578872486234373 227:0.28140967482282897 228:-18.59292444131073 229:0.015849747281396907 230:0.2696182180398726 231:0.27008368700808355 232:1.635688405125535 233:-0.0823971215812489 234:0.2710845892169271 235:0.28333044339743163 236:-158.09316478370943 237:-0.21290415633909182 238:0.27988281627925354 239:0.3516568933418864 240:-137.74010215156488 241:-0.3111510252017376 242:0.2373580521446755 243:0.39134870052423437 244:-122.33779088500025 245:-0.10145994688295629 246:0.16110675093784593 247:0.190393030385152 248:-142.7985711045797 249:-0.004679449197364903 250:0.16403949329195475 251:0.1641062235391211 252:-173.3660032488325 253:0.09063467731117207 254:0.15230852387551944 255:0.1772358066995492 256:-25.755730870011213 257:0.3311195503480961 258:0.21242974213475044 259:0.3934038026839115 260:-52.31779932639127 261:0.09943290437349855 262:0.17137134917722682 263:0.1981288514855227 264:-25.123119375320606 265:0.005585149042016002 266:0.17577046270839009 267:0.1758591750536294 268:3.18002508056405 269:-0.08972897746652096 270:0.1787032050624989 271:0.1999653092333692 272:-148.33823551795987 
0.0 0.0 0.0 0.0011168623611491563 1:-0.9519688223791872 2:-0.29403082563371147 3:0.9963426946612589 4:-58.83585842610413 5:-0.9278778425484004 6:-0.06304084255028519 7:0.9300169022774394 8:-72.11324701339694 9:-0.8924499310325376 10:0.16794914053314108 11:0.9081155175448781 12:-86.657779170673 13:-0.8357652726071569 14:0.40744182238037446 15:0.9297916054260523 16:-101.9895798857348 17:-0.7365671203627407 18:0.6129237091723794 19:0.9582309721904672 20:-115.76504657095174 21:-0.5877698919961164 22:0.7673894033815417 23:0.9666229577034703 24:-128.55025636779547 25:-0.40779610149553275 26:0.8793416037716686 27:0.9692983630021693 28:-141.1204105529951 29:-0.20656556408543134 30:0.9657857078703741 31:0.9876291641059473 32:-153.92728177374556 33:0.020173069616091378 34:0.9997965029256025 35:1.0 36:12.844089841998809 37:0.24549458685697959 38:0.9530316597246635 39:0.9841427419910315 40:-0.444979229433315 41:0.4424737748851774 42:0.8453308087164402 43:0.9541316563380179 44:-13.629030119295535 45:0.613944866621954 46:0.7007849297317195 47:0.9316801044299163 48:-27.2210089340994 49:0.740068231618426 50:0.5179769063098668 51:0.9033277715874592 52:-41.011661597116586 53:0.8038384723469792 54:0.2940725055296131 55:0.855940960658847 56:-55.90569545014124 57:0.8350150344809386 58:0.06591675536745585 59:0.8376127544679439 60:-71.48638551751759 61:0.8364321509415732 62:-0.16223899479470139 63:0.8520212641482264 64:-86.97709766474358 65:0.8265123357171316 66:-0.3818920461930515 67:0.910474698186668 68:-100.79941339453593 69:-0.7932517787881214 70:-0.5250208087171377 71:0.9512598142129814 72:-42.50105927273728 73:-0.6940536265437052 74:-0.6908234346113762 75:0.9792586248416336 76:-31.133640764440088 77:-0.5055771372793144 78:-0.7801017716313507 79:0.929605838967204 80:-18.946919678179597 81:-0.2901754352628678 82:-0.8098612173046756 83:0.8602772660742616 84:-5.712737461800998 85:-0.07477373324642127 86:-0.7616792576431021 87:0.765340710211703 88:8.39326250958375 89:0.08677754326591368 90:-0.750342325958026 91:0.7553435960801997 92:-159.40301600484133 93:0.2851738477547461 94:-0.8027756350015031 95:0.8519230268019016 96:-146.44319082193115 97:0.49065573454675104 98:-0.7871873539345234 99:0.9275812525261861 100:-134.06461545891335 101:0.6706295250473346 102:-0.7078288321389904 103:0.9750721078322672 104:-122.5458182841001 105:0.7542393962247712 106:-0.5264379251777722 107:0.9197901694859458 108:-110.91395929772415 109:-0.0025007937540608934 110:-0.5476946720872901 111:0.547700381415062 112:13.738387208991455 113:0.01025325439164976 114:-0.4399938210790667 115:0.4401132715715099 116:-164.66506784822215 117:0.025841535458629446 118:-0.33371008653147793 119:0.3347091376220645 120:-161.5720186928039 121:0.03576135068307106 122:-0.21608942029881303 123:0.21902856381703883 124:-156.60310232015513 125:-0.178223234872741 126:-6.877182823664476E-4 127:0.17822456173305662 128:-75.77891120912224 129:-0.07477373324642127 130:0.010649213402709688 131:0.07552825252647791 132:-84.10550901369741 133:0.03292711776180203 134:0.021986145087785826 135:0.039592747567209166 136:-42.26811074457645 137:0.12929103708494918 138:0.006397864020806138 139:0.12944923690207844 140:-73.16707478036187 141:0.22565495640809635 142:-0.0077733005855390325 143:0.22578880298529644 144:-77.97292929190871 145:-0.5806843096929438 146:-0.3974803272600312 147:0.7036937388397826 148:-41.60823098292502 149:-0.4758176916059896 150:-0.4399938210790667 151:0.648071784783916 152:-33.240101391043126 153:-0.35819702537332465 154:-0.4612505679885845 155:0.5840010235060294 156:-23.832125649233987 157:-0.2278223109949491 158:-0.418737074169549 159:0.4767008943469203 160:-14.549288750731996 161:-0.3511114430701521 162:-0.3818920461930515 163:0.5187685229467188 164:-28.59542328457953 165:-0.4729834586847205 166:-0.3705551145079754 167:0.6008530977513384 168:-37.923359239684565 169:0.20723244241984762 170:-0.4300740058546251 171:0.477398089337546 172:-140.27276912226876 173:0.33335580741631965 174:-0.4640848009098535 175:0.5714024822957324 176:-130.31001188748846 177:0.4481422407277155 178:-0.4569992186066809 179:0.6400623045700901 180:-121.56063198824316 181:0.5473403929721317 182:-0.41731995770891445 183:0.6882858801988152 184:-113.32372710431673 185:0.4424737748851774 186:-0.3875605120355896 187:0.5882059094827483 188:-117.21495163842425 189:0.32627022511314707 190:-0.3960632107993967 191:0.5131455219955748 192:-126.51887608661784 193:-0.3978762862710911 194:0.30824367013595827 195:0.5033087515191453 196:-113.76574592009595 197:-0.2363250097587562 198:0.2628959433956537 199:0.35350217437997034 200:-124.04668141475699 201:-0.09177913077403546 202:0.2203824495766182 203:0.23872962306137913 204:-143.39052308600407 205:0.013087487312918793 206:0.24163919648613597 207:0.2419933544596447 208:10.899816485619795 209:0.1052000572541624 210:0.2203824495766182 211:0.244203759446225 212:-11.517581112206955 213:0.2398261210144415 214:0.2529761281712121 215:0.3485878508286413 216:-29.47147377900923 217:0.40279451398741095 218:0.31107790305722727 219:0.5089330823092918 220:-38.3211177300362 221:0.25399728562078666 222:0.39752200715593283 223:0.4717397240809905 224:-18.576604867118363 225:0.12362257124241112 226:0.4286985692898922 227:0.44616701293549876 228:-2.085821946884934 229:0.023007302537360413 230:0.4386183845143338 231:0.43922138290844814 232:10.99735721087167 233:-0.08469354847086288 234:0.42586433636862314 235:0.4342043644912776 236:-154.7520881781931 237:-0.23207366037685265 238:0.3861850754708567 239:0.4505519907370758 240:-134.99670187343597 241:-0.33410604554253787 242:0.31107790305722727 243:0.45650444843238286 244:-118.95584574353512 245:-0.09036201431340095 246:0.30682655367532374 247:0.3198559483127547 248:-149.59002480203816 249:0.013087487312918793 250:0.3209977182816689 251:0.3212644042937273 252:11.665270924965839 253:0.10803429017543144 254:0.3096607865965928 255:0.32796525823527395 256:-5.232830869482399 257:0.3404413897194922 258:0.3167463688997654 259:0.46500387315088615 260:-33.064914989686436 261:0.11511987247860402 262:0.31107790305722727 263:0.3316957141869213 264:-6.3078835942586835 265:0.021590186076725897 266:0.31958060182103437 267:0.3203090651154322 268:10.135091698710255 269:-0.08185931554959384 270:0.3039923207540547 271:0.31482102633033276 272:-150.92883550762696 
1.3280210992566483E-5 3.7432523746481903E-6 1.512939001120309E-5 1.806885237131149E-5 1:-0.8922640634390155 2:-0.024731535024466195 3:0.8926067486465525 4:90.5877024740069 5:-0.8718616186008078 6:0.1530611985656302 7:0.8851951267915835 8:79.04280548251872 9:-0.858745761204817 10:0.3235673447135095 11:0.9176819214478357 12:68.3540616797381 13:-0.833971363901279 14:0.5057320307689361 15:0.9753323140104769 16:57.766784891568506 17:-0.7523615845484479 18:0.6587503670554945 19:1.0 20:47.79536182225625 21:-0.5964286132850027 22:0.7695064961771939 23:0.9735847874756328 24:36.778525456060635 25:-0.39969075234514195 26:0.851116275530025 27:0.9402933648507401 28:24.155111211396118 29:-0.1927516689861773 30:0.8977504351602142 31:0.9182096981230982 32:11.117733594767103 33:0.018559366838117604 34:0.9210675149753089 35:0.9212544801737589 36:177.84565518552364 37:0.22549845019708226 38:0.8992077526486577 39:0.9270513111283191 40:164.92199436235688 41:0.4207789936484996 42:0.8394577356224777 43:0.939012380851425 44:152.37763785756766 45:0.6044009971923696 46:0.7622199087349768 47:0.9727691168407266 48:140.5874012011909 49:0.7428461585944939 50:0.6470918271479472 51:0.9851640716653571 52:130.05905844177627 53:0.8113400805513343 54:0.49261617337294544 55:0.9491803941178144 56:120.26460053867919 57:0.8302852079010987 58:0.3206527097366227 59:0.8900515079032276 60:110.11635438032731 61:0.8375717953433157 62:0.15889046851940386 63:0.8525096441336841 64:99.74158096110355 65:0.8550596052046366 66:-0.007243725163145239 67:0.8550902876345563 68:88.51462453733728 69:-0.7013554724529284 70:-0.422579209369518 71:0.818823965777161 72:120.06971492337965 73:-0.6051725182156632 74:-0.5712255931907461 75:0.8321853490176374 76:132.34709363603787 77:-0.45361149941754825 78:-0.6674085474280114 79:0.8069681292243235 80:144.7975853390748 81:-0.26707486089679133 82:-0.70529880212754 83:0.7541719841028195 84:158.25987166969497 85:-0.08928212730669496 86:-0.6659512299395679 87:0.6719094722612803 88:171.36405515894307 89:0.09433987623717509 90:-0.6659512299395679 91:0.6726002177419129 92:7.062975029636206 93:0.2735899273157149 94:-0.7009268496622099 95:0.7524293301739429 96:20.321991053340298 97:0.45575461337114154 98:-0.6644939124511245 99:0.8057694628699213 100:33.44495016060229 101:0.6116875846345867 102:-0.5712255931907461 103:0.8369351106939023 104:45.959059950026734 105:0.7064132213834086 106:-0.4182072569041877 107:0.8209244478468223 108:58.37382886366655 109:0.0025288744652400596 110:-0.5726829106791895 111:0.5726884942008609 112:-0.7469928134848942 113:0.0039861919536834725 114:-0.5056463062107925 115:0.505662018260132 116:-0.5483260901420266 117:0.006900826930570299 118:-0.4400670192308389 119:0.44012112290486716 120:-0.10160080927889226 121:0.006900826930570299 122:-0.3672011448086683 123:0.36726598285319356 124:0.076635316045639 125:-0.19566630396306411 126:-0.1252864417270617 127:0.23234025692332058 128:121.63170695869152 129:-0.09802603223735544 130:-0.10779863186574073 131:0.1457039739620184 132:136.71837450525433 133:0.009815461907457124 134:-0.0917681394928632 135:0.09229157447155369 136:5.105109345658207 137:0.11037036861005263 138:-0.1034266794004105 139:0.15125705365011638 140:45.860195423124345 141:0.19926673540510081 142:-0.11799985428484464 143:0.23158410448528421 144:58.36724003555972 145:-0.5279346913281623 146:-0.36428650983178146 147:0.6414200648196021 148:123.60652641774598 149:-0.4230078321602366 150:-0.3934328596006497 151:0.5776893984508001 152:131.92540900460585 153:-0.32536756043452786 154:-0.41092066946197064 155:0.5241372396369011 156:140.62776952164594 157:-0.20149557391683776 158:-0.40946335197352723 159:0.4563558950177728 160:152.7983523047527 161:-0.3166236555038674 162:-0.39780481206597995 163:0.5084281736169637 164:140.4827651791786 165:-0.4171785622064629 166:-0.38906090713531943 167:0.5704439869308899 168:132.0026154059621 169:0.19489478293977058 170:-0.41237798695041405 171:0.456113561011308 172:24.295979850764525 173:0.3187667694574607 174:-0.41092066946197064 175:0.5200654284812826 176:36.80209145817124 177:0.41640704118316935 178:-0.39197554211220625 179:0.5718738056259263 180:45.73110584268952 181:0.5242485353279819 182:-0.36574382732022487 183:0.6392222414906891 184:54.098310414304095 185:0.4091204537409523 186:-0.3846889546699892 187:0.5615738041560447 188:45.762866530984624 189:0.3100228645268002 190:-0.39926212955442336 191:0.505494237974812 192:36.82896500804484 193:-0.4521541819291048 194:0.19240877075360235 195:0.49139041433354225 196:65.94840555154511 197:-0.28747730573499913 198:0.09914045149322391 199:0.3040921413567514 200:69.97255108724028 201:-0.11551384209867639 202:0.04521970442081763 203:0.12404946345834816 204:67.62136209283656 205:-3.857605116467663E-4 206:0.06853678423591224 207:0.06853786985727187 208:-0.6775130892471992 209:0.11182768609849604 210:0.04521970442081763 211:0.12062442972321104 212:111.01690562839156 213:0.27796187978104514 214:0.10059776898166732 215:0.29560567947098226 216:108.89580333165644 217:0.45138266090581125 218:0.20698194563803649 219:0.4965761093593989 220:113.63386765980067 221:0.2867057847117056 222:0.31628075727129246 223:0.42688842149589523 224:136.80796358708207 225:0.12494354349448676 226:0.357085646947708 227:0.3783134260332587 228:159.71516179176723 229:0.008358144419013712 230:0.36728686936681193 231:0.3673819578958698 232:177.6963765909905 233:-0.11405652461023298 234:0.3541710119708212 235:0.37208331933399036 236:16.850531267595372 237:-0.28747730573499913 238:0.3046222173637452 239:0.41885307283611867 240:42.34139932808597 241:-0.3938614823913683 242:0.198238040707376 243:0.44093671665560513 244:62.283010625394326 245:-0.11259920712178957 246:0.13557338870430924 247:0.176234857985659 248:38.71100896611677 249:-3.857605116467663E-4 250:0.15014656358874337 251:0.15014705914096654 252:-0.8527944958587028 253:0.11037036861005263 254:0.13703070619275265 255:0.17595179085989263 256:140.15055071053803 257:0.3945472788565182 258:0.21426853308025354 259:0.44897500990750794 260:117.5052530179618 261:0.12057159102915652 262:0.24924415280289547 263:0.2768757054523478 264:153.18467424510936 265:0.006900826930570299 266:0.25798805773355593 267:0.2580803350615042 268:177.46778178985005 269:-0.11114188963334616 270:0.24632951782600862 271:0.2702420229787825 272:23.28451194743623 
0.0029811952243361628 5.962380012829822E-4 4.5210911741349095E-4 0.0 1:-0.9055081782725747 2:-0.18933879142661772 3:0.9250914759403036 4:-68.18979796301481 5:-0.8837873215589349 6:0.010221579629948114 7:0.8838464292163246 8:-80.66263369860036 9:-0.8566362506668851 10:0.20842439714191147 11:0.8816271293923457 12:-93.67468029214906 13:-0.8131945372396054 14:0.41748764301069474 15:0.9141013551368149 16:-107.17560548904558 17:-0.7317413245634562 18:0.6034724786212357 19:0.9484853180345698 20:-119.51265422531438 21:-0.5905557559247974 22:0.7582335827059195 23:0.9610797400834975 24:-132.08649814851577 25:-0.4113586880372688 26:0.868195419818721 27:0.9607180945615358 28:-144.6479909394347 29:-0.21315587052530546 30:0.9537212931286778 31:0.9772511090331073 32:-157.40149313720735 33:0.021700892690925094 34:0.9971630065559575 35:0.9973991128867618 36:8.753289764282684 37:0.2484123346395407 38:0.9686543821193052 39:1.0 40:-4.3835822011189975 41:0.45204536632991404 42:0.8776982946309384 43:0.9872686106720925 44:-17.25005367869727 45:0.6230971129498276 46:0.7405853866260871 47:0.9678412716197429 48:-30.075832912533684 49:0.7507071461424616 50:0.560030765193956 51:0.9365872501978058 52:-43.276902804929165 53:0.813154609194176 54:0.3645430547711977 55:0.8911296523153348 56:-55.85296362591404 57:0.8430207871754308 58:0.1568373624470169 59:0.8574858633640673 60:-69.46106026372787 61:0.8552387690768531 62:-0.045438115698753924 63:0.8564449629079177 64:-83.04121718501382 65:0.8484510013538408 66:-0.24907114738912722 67:0.8842542271089641 68:-96.36012093585376 69:-0.7466744135540835 70:-0.5137940885866126 71:0.9063702584059576 72:-45.46775304904224 73:-0.6557183260657168 74:-0.6604098714036813 75:0.9306490860608269 76:-34.79576107461757 77:-0.4955270078026231 78:-0.7527235124366506 79:0.9011879391318935 80:-23.35739426946892 81:-0.3054695115582747 82:-0.7825896904179053 83:0.840094188790783 84:-11.322274389447472 85:-0.1004789263232989 86:-0.7554386195258556 87:0.762091544701956 88:2.423705848512455 89:0.11808719435770179 90:-0.7310026557230107 91:0.7404792152014587 92:-160.82363243102725 93:0.2959267087006278 94:-0.7758019226948929 95:0.8303259842853761 96:-149.12083715547686 97:0.4873417584895787 98:-0.7622263872488679 99:0.9047049546599024 100:-137.4065279218721 101:0.6583935051094923 102:-0.6807731745727187 103:0.9470660604140454 104:-125.95741723354087 105:0.7466344855086541 106:-0.5137940885866126 107:0.9063373656742397 108:-114.533677801444 109:-0.00409262465652219 110:-0.5640235697369046 111:0.5640384178363563 112:9.584262046382392 113:-0.0013775175673172131 114:-0.4689948216147304 115:0.46899684461207314 116:9.831713033465974 117:-1.9964022714724325E-5 118:-0.3712509664033512 119:0.371250966940134 120:9.996918919151554 121:-0.0013775175673172131 122:-0.2680768970135621 123:0.26808043618859667 124:9.70558728096357 125:-0.20501054925769052 126:-0.06851652595699623 127:0.2161569791520868 128:-61.51986919961985 129:-0.10319403341250387 130:-0.05358343696636886 131:0.11627636582328237 132:-52.55943256795996 133:0.006767803700297719 134:-0.02914747316352406 135:0.029922873504129227 136:-156.92802234861566 137:0.11129942663468935 138:-0.052225883421766366 139:0.12294350437658155 140:-105.1377384542025 141:0.21854615665828597 142:-0.0725891865908037 143:0.2302859366093001 144:-98.37369009688739 145:-0.57562266693417 146:-0.39161426957238854 147:0.696206284675111 148:-45.77130941073396 149:-0.46701838336597085 150:-0.4323408759104632 151:0.6364155901490719 152:-37.20811765226073 153:-0.3584140997977717 154:-0.44591641135648813 155:0.5721032361828552 156:-28.791266196935226 157:-0.22673140597133035 158:-0.41605023337523334 159:0.47381950903832815 160:-18.588688264961213 161:-0.36248676043157924 162:-0.401117144384606 163:0.5406400050009635 164:-32.10390082660382 165:-0.46837593691057333 166:-0.395686930206196 167:0.6131428585679363 168:-39.808666499923184 169:0.213115942479876 170:-0.4214804475536433 171:0.4722966997652061 172:-143.1771688362541 173:0.3352957614941 174:-0.4499890719902956 175:0.5611714645156112 176:-133.30947594001043 177:0.44797270569610653 178:-0.4418437507226806 179:0.6292101756181131 180:-124.60535940078749 181:0.5552194357197032 182:-0.398402037295401 183:0.6833687182788158 184:-115.66162578647084 185:0.43846983088388913 186:-0.392971823116991 187:0.5887976276779977 188:-121.86779411652736 189:0.3285079937710875 190:-0.4024746979292085 191:0.5195222655909104 192:-130.77798076939843 193:-0.44393997310772854 194:0.2790171814612409 195:0.5243408121379317 196:-112.1494455685 197:-0.29868174383526225 198:0.17855821916065673 199:0.3479853757419963 200:-110.87186869542134 201:-0.13170265784915614 202:0.13104384509956962 203:0.18579041800645124 204:-124.85633639073916 205:0.0013375895218877645 206:0.15140714826860693 207:0.15141305654586396 208:9.493840010098552 209:0.11265698017929184 210:0.12968629155496714 211:0.1717851256669136 212:-30.980468288197606 213:0.28370872679920545 214:0.1690553443484393 215:0.3302580068897582 216:-49.210282300649666 217:0.46019068759752896 218:0.2749445208274334 219:0.536068986684096 220:-49.14346411415557 221:0.3054295835128452 222:0.4202027500998997 223:0.5194781820984871 224:-26.011993923860906 225:0.1425231581605466 226:0.4785775525178067 227:0.4993489004553732 228:-6.583835313522215 229:0.01762823205711763 230:0.49079553441922913 231:0.49111201489203693 232:7.942953377498668 233:-0.1235573365815412 234:0.4717897847947943 235:0.487700744780898 236:-155.32436315476048 237:-0.2946090832014548 238:0.40391210756466983 239:0.4999394988817498 240:-133.89339684064078 241:-0.38692272423442403 242:0.28308984209504834 243:0.4794257536119514 244:-116.19085915829997 245:-0.12898755075995116 246:0.204351736508104 247:0.2416555823169176 248:-137.739731956686 249:0.0013375895218877645 250:0.21928482549873138 251:0.21928890496269557 252:9.650512598532345 253:0.1167296408130993 254:0.20842439714191147 255:0.23888603636111594 256:-19.251333020632366 257:0.4058885458134294 258:0.28037473500584337 259:0.493310757689448 260:-45.3645327587912 261:0.13166272980372667 262:0.3659006083158002 263:0.38886801049358866 264:-9.790352091422548 265:0.014913124967912653 266:0.3713308224942101 267:0.37163016700818996 268:7.700163524499118 269:-0.11948467594773374 270:0.35368262641437775 271:0.3733202218119282 272:-151.33347799899946 
8.29812396920209E-4 5.549692867957118E-4 0.0 6.423960407995298E-4 1:-0.924832138378518 2:-0.3786670866640018 3:0.9993514130176555 4:-44.73364200098703 5:-0.9046501281610658 6:-0.142249252688134 7:0.9157656382897129 8:-58.06385051009617 9:-0.8671692520429405 10:0.08407757617900774 11:0.8712356457955847 12:-72.53788062894233 13:-0.8181557986576996 14:0.31328754936292835 15:0.8760867533886398 16:-87.95280157867265 17:-0.7359861856295016 18:0.532406517438123 19:0.9083679679777646 20:-102.88167621984604 21:-0.5947121141073367 22:0.7097198929200238 23:0.9259507681688199 24:-117.03856491266603 25:-0.4087493056750992 26:0.855318680917357 27:0.9479694303172878 28:-131.4572730800233 29:-0.19683819839185185 30:0.9648781649549543 31:0.9847513135573823 32:-145.4696955779573 33:0.03237177479206876 34:0.9994758967563008 35:1.0 36:21.14490983148319 37:0.2558154593424316 38:0.947579299054281 39:0.9815029685308048 40:7.892169219995679 41:0.4605187058337318 42:0.819279376957621 43:0.9398383775579942 44:-6.340434770827947 45:0.6363905091572432 46:0.6621480116931723 47:0.918386013359653 48:-20.8636435086568 49:0.7646904312539031 50:0.46609419815220876 51:0.895541879089097 52:-35.63685220549404 53:0.8194701732727018 54:0.23976736928506703 55:0.8538265375692381 56:-50.69114262882577 57:0.8396521834901539 58:0.010557396101146409 59:0.8397185527617094 60:-66.27962747255648 61:0.8483016164404905 62:-0.21288628844921645 63:0.8746063138722657 64:-81.08777873442216 65:0.8439768999653222 66:-0.4392131173163582 67:0.951422708420305 68:-94.49287161955306 69:-0.7907659276483002 70:-0.527149018978114 71:0.9503666874102147 72:-33.3113503792883 73:-0.6927390208778185 74:-0.6842803842425627 75:0.9737181292889169 76:-22.351947171033274 77:-0.5082177846039704 78:-0.757800564320424 79:0.9124401415282652 80:-10.847720609473477 81:-0.3049561102710597 82:-0.7650084251123711 83:0.8235509211242283 84:1.266238940816578 85:-0.10890229673009615 86:-0.7188781160439092 87:0.7270800890960568 88:14.38580333661227 89:0.06264479011824695 90:-0.7145533995687409 91:0.717294172961278 92:-151.98969773838053 93:0.2529323150256527 94:-0.7707747137459289 95:0.8112141612018091 96:-138.83257632209103 97:0.4518692728833952 98:-0.7779825745378761 99:0.8996903500987161 100:-126.85104434928905 101:0.6421567977908009 102:-0.7304106933110246 103:0.9725559798037474 104:-115.67896264896751 105:0.7531578539867877 106:-0.5819287609969125 107:0.9517814013193286 108:-104.69153230146765 109:-0.019524822909951004 110:-0.5084085809190512 111:0.508783356510203 112:20.80070496602795 113:-0.00943381780122494 114:-0.38299180313917014 115:0.38310797197408925 116:21.588981111952677 117:6.571873075011251E-4 118:-0.257575025359289 119:0.25757586374502467 120:-156.85381355467297 121:0.009306620257837753 122:-0.12639195894585017 123:0.1267341329981512 124:-152.78873927456698 125:-0.1910719097582941 126:0.0408304114273246 127:0.1953857650802798 128:-79.06219279237456 129:-0.09160343082942289 130:0.056687705169608416 131:0.1077250409938066 132:-98.75080603078686 133:0.01651448104978494 134:0.07542814322867111 135:0.07721484880039997 136:10.650347658392732 137:0.11454138782026671 138:0.050921416536050666 139:0.12535038965169082 140:-43.031607794102726 141:0.21112672243235905 142:0.026414689843430223 143:0.21277271621275837 144:-59.86861100207702 145:-0.5817379646818317 146:-0.4002906690398434 147:0.7061527308398131 148:-32.46835523008673 149:-0.47217848064423446 150:-0.4449794059499159 151:0.6488136784185717 152:-23.6986558130397 153:-0.35252799149791114 154:-0.45939512753381034 155:0.5790681030685053 156:-14.50170435232647 157:-0.22278649724286173 158:-0.40894010199018 159:0.4656885551197092 160:-5.581108602164868 161:-0.34964484718113226 162:-0.38155023098078067 163:0.5175249732349197 164:-19.501508106586762 165:-0.47073690848584504 166:-0.3714592258720546 167:0.5996458900853711 168:-28.722974107002507 169:0.18373685142295973 170:-0.42623896789085325 171:0.4641539489431094 172:-133.6807999920743 173:0.3048289127276725 174:-0.4810187099096519 175:0.5694731471438147 176:-124.63693967836728 177:0.42159625755721697 178:-0.4810187099096519 179:0.6396267690375357 180:-115.76655598237454 181:0.5297141694364248 182:-0.4406546894747476 183:0.6890382113190875 184:-106.75614161130613 185:0.42447940187399585 186:-0.4103816741485694 187:0.5904200886591578 188:-111.03257732258061 189:0.3048289127276725 190:-0.4103816741485694 191:0.5112081616247119 192:-120.39526849727515 193:-0.40298301704154144 194:0.30896283288776005 195:0.5077926192156924 196:-104.47700216563146 197:-0.24152693530192443 198:0.2585078073441297 199:0.35378177869162464 200:-113.94498195429932 201:-0.0843955700374757 202:0.21381907043405715 203:0.2298721538665237 204:-135.46057617116705 205:0.020839197524953255 206:0.22967636417634096 207:0.23061982658641303 208:17.815584752372587 209:0.11886610429543502 210:0.20372806532533108 211:0.23586919118777594 212:-7.261626696430341 213:0.27311432524310486 214:0.2311179363347304 215:0.35778056843353157 216:-26.761050032613753 217:0.42880411834916415 218:0.2916639669870868 219:0.5185950651055681 220:-32.777247852879036 221:0.2860884746686098 222:0.43005489419247284 223:0.5165208876290588 224:-10.633324843300763 225:0.14193125882966603 226:0.4920424970032186 227:0.512103799136597 228:6.909621911740956 229:0.03381334695045819 230:0.506458218587113 231:0.5075857263619851 232:19.1803538915521 233:-0.07862928140391795 234:0.4992503577951658 235:0.50540427743807 236:-148.04973810032476 237:-0.23576064666836669 238:0.4459121879347566 239:0.5044013896355244 240:-129.13390151959916 241:-0.34099541423079566 242:0.3190538379964861 243:0.46698310897367573 244:-110.09605580074196 245:-0.08295399787908626 246:0.3003133999374234 247:0.3115597919278068 248:-141.55852919640836 249:0.022280769683342694 250:0.3075212607293706 251:0.30832735606537365 252:18.85600264827424 253:0.1217492486122139 254:0.2931055391454762 255:0.31738578515018434 256:0.44313397746610406 257:0.3740243763303655 258:0.30175497209581287 259:0.4805728844554837 260:-28.104143201282454 261:0.12895710940416108 262:0.3651841470649481 263:0.3872846463951682 264:3.55039673846035 265:0.028047058316900443 266:0.3752751521736742 267:0.3763217736448502 268:18.725813358511544 269:-0.07862928140391795 270:0.3651841470649481 271:0.37355324274010815 272:-144.84892165610745 
0.0 4.584557120335489E-5 0.0 0.0 1:-0.9852241059907706 2:-0.1712701403476007 3:1.0 4:-61.13832409371656 5:-0.9380946188792791 6:0.030713375844505487 7:0.9385972647658984 8:-72.87520364226276 9:-0.8801926775708754 10:0.21923132429047126 11:0.90708407724948 12:-84.98618813155477 13:-0.8101717252909453 14:0.406402715961823 15:0.9063892055855768 16:-97.63950558685158 17:-0.6849419452518394 18:0.5639498585916658 19:0.887234417372846 20:-110.46647895077479 21:-0.4923843264820315 22:0.6716744005607891 23:0.8328198036393342 24:-124.7559764443009 25:-0.26481623157225853 26:0.7363091257422631 27:0.7824824376019361 28:-141.21869548862756 29:-0.05475337473246811 30:0.7847851696283686 31:0.7866928844938291 32:-157.00901998397774 33:0.14588358468502405 34:0.795557623825281 35:0.8088225720806016 36:8.608957549483407 37:0.3142031815117792 38:0.7524678070376316 39:0.8154332835371306 40:-3.663640330867466 41:0.42327428025551656 42:0.6312776973223679 43:0.7600477928804587 44:-14.84201461483795 45:0.5148401409292713 46:0.48315645211482333 47:0.7060456981897528 48:-27.81837507375331 49:0.5727420822376751 50:0.31214374173884013 51:0.6522784744820815 52:-42.40966939554845 53:0.5794748661107453 54:0.13709136103901476 55:0.5954705380836198 56:-57.689764615443025 57:0.5660092983646049 58:-0.03122823578774041 59:0.5668701161162114 60:-74.1579585789022 61:0.536385049323096 62:-0.1712701403476007 63:0.5630651668430814 64:-88.7085147363301 65:0.504067686732359 66:-0.3032327042597767 67:0.58824680682551 68:-102.02991256340002 69:-0.738804216236401 70:-0.3732536565397069 71:0.8277378582914667 72:-44.196491083342764 73:-0.6189606632957514 74:-0.49982999335342676 75:0.7955767247495386 76:-32.078046268478545 77:-0.4519876232436103 78:-0.573890615957199 79:0.7305088984051742 80:-19.223436820927034 81:-0.26616278834687257 82:-0.5927424108017956 83:0.6497585670568006 84:-5.18180545492126 85:-0.08976385087243319 86:-0.5550388211126025 87:0.5622505152203205 88:9.813361032040234 89:0.05162461046204115 90:-0.5604250482110587 91:0.5627977745760238 92:-155.73694424450667 93:0.18628028792344528 94:-0.5940889675764096 95:0.6226090643934169 96:-143.59085934792068 97:0.3168962950610073 98:-0.5792768430556552 99:0.6602915437319482 100:-132.3189150566787 101:0.42731395057935867 102:-0.5227214585218655 103:0.675155489912483 104:-121.73471379161555 105:0.470403767367008 106:-0.4190365868765843 107:0.6299772737918816 108:-112.69471136695748 109:0.012574463998233953 110:-0.441928052045023 111:0.44210691051956136 112:-159.37016596644347 113:0.05701083756049732 114:-0.36921398621586476 115:0.37358961872187796 116:-152.22220468313444 117:0.10817999499583088 118:-0.29380680683747845 119:0.3130900047292046 120:-140.78623663274504 121:0.15665603888193635 122:-0.21570651390986406 123:0.26659034990285213 124:-125.01111354260777 125:-0.08976385087243319 126:-0.036614462886196575 127:0.09694414791978467 128:-48.80956851570015 129:0.016614134322076077 130:-0.021802338365442122 131:0.027411154982474123 132:-123.69134827864147 133:0.12029900596735725 134:-0.00833677061930171 135:0.12058753078611864 136:-74.96428298734948 137:0.1835871743742172 138:-0.02988167901312637 139:0.18600313259553655 140:-80.24471261019463 141:0.23206321826032267 142:-0.050080030632336986 143:0.23740544799450997 144:-83.17787032928233 145:-0.5152757916504702 146:-0.29649992038670653 147:0.5944925098353571 148:-41.083022857179685 149:-0.4169771471036452 150:-0.3220844991043733 151:0.5268855338401407 152:-33.31652535469129 153:-0.3254112864298904 154:-0.3342035100758997 155:0.466459528236918 156:-25.2363308419759 157:-0.21903330123538114 158:-0.3261241694282154 159:0.39285183076487323 160:-14.886315356730563 161:-0.3159853890075921 162:-0.30592581780900485 163:0.43981515670607324 164:-26.9266929232938 165:-0.41159092000518904 166:-0.2951533636120925 167:0.5064805953659528 168:-35.355553539680905 169:0.12299211951658534 170:-0.344975964272812 171:0.366245105617998 172:-141.37764236603505 173:0.21859765051418226 174:-0.344975964272812 175:0.40840341420741955 176:-128.63917861132057 177:0.2966979434417967 178:-0.3328569533012857 179:0.4458961998084373 180:-119.28721928476406 181:0.37075856604556895 182:-0.3140051584566891 183:0.4858612495698509 184:-111.26213843263031 185:0.2940048298925686 186:-0.30996548813284697 187:0.4272206032409863 188:-117.51375910918696 189:0.21590453696495418 190:-0.31939138555514524 191:0.3855199427382282 192:-126.94180401414192 193:-0.33753029740141677 194:0.22327099461431338 195:0.4046932649550195 196:-104.4840104436598 197:-0.15709168960313524 198:0.15594315588361132 199:0.22135055186131364 200:-115.78978110450211 201:-8.911037479064588E-4 202:0.1222792365182603 203:0.122282483411886 204:-160.58246729756945 205:0.0960609840243045 206:0.13978447458824284 207:0.1696095869567189 208:-15.497153752232798 209:0.17954750405037506 210:0.1195861229690322 211:0.21572701967413344 212:-37.33473015702908 213:0.28727204601949835 214:0.15055692878515517 215:0.32433411357648934 216:-43.34133421451014 217:0.38557069056632337 218:0.20576575654433085 219:0.4370403917146015 220:-42.9127001798743 221:0.29939105699102475 222:0.3256093094849805 223:0.4423306765639128 224:-23.597897426400564 225:0.20243896921881377 226:0.3700456830472439 227:0.4218001230444073 228:-9.681517172833992 229:0.10952655177044493 230:0.3835112507933843 231:0.39884451234513685 232:3.0612468161517086 233:0.009881350449005871 234:0.374085353371086 235:0.37421583704256345 236:17.486901318288133 237:-0.15439857605390717 238:0.33368865013266474 239:0.36767789641863724 240:-136.1699010182021 241:-0.28501458319146916 242:0.22731066493815552 243:0.36455925585072346 244:-109.57377788997331 245:0.003148566575935665 246:0.18422084815050618 247:0.18424775267225096 248:18.020838218761767 249:0.0960609840243045 250:0.19230018879819044 251:0.21495831052447675 252:-7.54380691423502 253:0.18224061759960314 254:0.177488064277436 255:0.25438878840081774 256:-26.75691881086128 257:0.34113431700406 258:0.21249854041740104 259:0.4019057749241137 260:-39.08049860381011 261:0.18897340147267336 262:0.275786708824261 263:0.33431909192905795 264:-15.419556900104048 265:0.10279376789737472 266:0.2852126062465593 267:0.30317122139229213 268:-0.8197217332517255 269:0.0058416801251637476 270:0.277133265598875 271:0.2771948270227663 272:17.792443567470002 
0.0 0.003911262581261302 0.0035774202756000593 4.6425738007596506E-5 1:-0.9374863252973252 2:-0.0961928233541382 3:0.9424084408494667 4:-76.14154425188603 5:-0.9125482441586432 6:0.10184487980598438 7:0.9182138517032501 8:-88.36813872900466 9:-0.874407649475953 10:0.31015120461144663 11:0.9277836532209394 12:-101.52952673357022 13:-0.8245314871985887 14:0.5096558537209035 15:0.9693303165659782 16:-113.72086182061491 17:-0.7306469464411972 18:0.682755475742344 19:1.0 20:-125.05934269487227 21:-0.5824854055584389 22:0.8103797733344229 23:0.9980003129849859 24:-136.2921457776357 25:-0.39324937809432176 26:0.8866609626998034 27:0.9699550175896371 28:-148.081890743014 29:-0.19227778303553067 30:0.926268503331828 31:0.9460148445524749 32:-160.2729086925903 33:0.027764109364605518 34:0.9409379628251704 35:0.941347489322828 36:6.309872782832329 37:0.2507398936634102 38:0.9071982059904828 39:0.9412114954815889 40:-7.450230342609245 41:0.4575792725195382 42:0.8514542599157817 43:0.966619442887552 44:-20.25398894314761 45:0.6365466783383157 46:0.7399663677663794 47:0.9760849856077656 48:-32.703346236067595 49:0.7773734894744029 50:0.5815362052382813 51:0.9708212503548477 52:-45.20063634097325 53:0.8536546788397834 54:0.39083323182482993 55:0.9388700260439116 56:-57.40002191049353 57:0.881526651877134 58:0.18105996107003341 59:0.8999288568950281 60:-70.39323156248295 61:0.8888613816238052 62:-0.016977742090089176 63:0.8890235089516236 64:-83.09424789578287 65:0.8888613816238052 66:-0.21794933714888023 67:0.9151920395773863 68:-95.77714246082701 69:-0.7907917303639012 70:-0.46292931068769855 71:0.9163269653926597 72:-51.65530307175019 73:-0.7057088653025152 74:-0.6360289327091391 75:0.950030423623207 76:-39.97284814264495 77:-0.5326092432810746 78:-0.7475168248585413 79:0.917852934557075 80:-27.470050387601496 81:-0.31843513467827544 82:-0.7959260411865713 83:0.8572626190593516 84:-13.805425601957566 85:-0.1042610260754762 86:-0.769521014098555 87:0.7765519639390397 88:0.2840822131682188 89:0.057103028351290344 90:-0.7563185005545469 91:0.7584711135751752 92:-167.68228615136178 93:0.26687629910608685 94:-0.8032607709332426 95:0.8464341824057136 96:-153.62138828375362 97:0.47371567796221487 98:-0.7856574195412316 99:0.917422544102437 100:-140.91193475157195 101:0.6526830837809924 102:-0.6917728787838402 103:0.9510756666400142 104:-128.6653944477428 105:0.742166786690381 106:-0.514272418914397 107:0.9029328104141473 108:-116.71939508415318 109:-0.020645106963424444 110:-0.5553469054957557 111:0.5557305155246048 112:5.871000941628125 113:-0.011843431267418998 114:-0.4790657161303752 115:0.4792120900349816 116:6.583825952911724 117:-0.0015748096220793081 118:-0.4042514727143289 119:0.40425454013164724 120:7.776798615373039 121:0.00722686607392614 122:-0.32063555360227713 123:0.3207169871196242 124:-170.70881808304057 125:-0.19374472898486492 126:-0.04338276917810552 127:0.19854240018439273 128:-69.3786828923465 129:-0.08959156658213378 130:-0.04338276917810552 131:0.09954252088530657 132:-56.1624222920276 133:0.014561595820597347 134:-0.04044887727943704 135:0.04299013545000057 136:-152.20112364547504 137:0.11138002847665728 138:-0.05365139082344521 139:0.12362840482976008 140:-107.71996282611394 141:0.21259929898071991 142:-0.06538695841811915 143:0.22242732803831994 144:-99.09578348137103 145:-0.601555702899784 146:-0.3587761482849674 147:0.7004210078727294 148:-51.18756464789158 149:-0.49300170264905013 150:-0.41011925651166586 151:0.6412865844351837 152:-42.243538224196925 153:-0.37564602670231084 154:-0.43505733765034793 155:0.5747911137279716 156:-32.80864798379963 157:-0.23628616151555792 158:-0.39985063486632616 159:0.46444771538544616 160:-22.580372456901053 161:-0.3624435131583027 162:-0.3690447699303071 163:0.517261386963541 164:-36.48295291364029 165:-0.4842000269530447 166:-0.34997447258896197 167:0.5974376934586998 168:-46.14100936339484 169:0.19059510974070631 170:-0.4218548241063398 171:0.46291250628910724 172:-147.6864233882266 173:0.3211532992314538 174:-0.45999541878903005 175:0.5610126798158335 176:-137.07855285157103 177:0.4341081373301904 178:-0.4541276349916931 179:0.6282370442432027 180:-128.29114205284432 181:0.5455960294795927 182:-0.41305314841033436 183:0.6843156660457119 184:-119.12818839859892 185:0.4385089751781931 186:-0.39251590511965495 187:0.588522605414381 188:-123.83219697852152 189:0.31968635328211953 190:-0.39691674296765767 191:0.5096491590524542 192:-133.15118995260767 193:-0.4064518916383299 194:0.2984156370167727 195:0.5042370797873784 196:-118.28599246637194 197:-0.24508783721156338 198:0.2265352854993949 199:0.3337458367161067 200:-124.74727941710879 201:-0.09692629632880499 202:0.16932439347535946 203:0.19510370869314012 204:-142.2119003354303 205:0.00722686607392614 206:0.18986163676603884 207:0.18999912817886752 208:5.820154032811914 209:0.1084461365779888 210:0.16198966372868825 211:0.1949390050595963 212:-25.80085693117183 213:0.2654093531567526 214:0.20013025841137855 215:0.3324067464340803 216:-44.98210922348331 217:0.4458437049248643 218:0.2588080963847482 219:0.5155174487594252 220:-51.86523612647702 221:0.27861186670076077 222:0.32775455600345754 223:0.43017161836586343 224:-32.366616413778814 225:0.13191727176733664 226:0.3556265290408081 227:0.37930514727347175 228:-12.351997208610257 229:0.024830217465937037 230:0.3658951506861478 231:0.36673669163998923 232:4.117770916878314 233:-0.08225683683546259 234:0.3585604209394766 235:0.3678746561948384 236:-159.0794230380726 237:-0.23481921556622368 238:0.33802317764879725 239:0.4115819877338256 240:-137.21291863732293 241:-0.3389723779689548 242:0.2969486910674385 243:0.4506448692180939 244:-123.21920980954637 245:-0.09545935037947076 246:0.2558742044860797 247:0.27310088995873794 248:-151.5408928983161 249:0.008693812023260382 250:0.26760977208075365 251:0.26775095234304713 252:6.139292127229268 253:0.10991308252732303 254:0.25000642068874274 255:0.27310088995873805 256:-15.732261184917377 257:0.3783641912554892 258:0.26320893423275094 259:0.460910408088558 260:-47.17560655726847 261:0.12164865012199697 262:0.24707252879007427 263:0.2753964933677009 264:-18.21379401124885 265:0.020429379617934312 266:0.2588080963847482 267:0.2596131551094258 268:3.4866360504701106 269:-0.08225683683546259 270:0.25000642068874274 271:0.2631908007354598 272:-153.787817471041 
