svm_type c_svc
kernel_type linear
nr_class 5
total_sv 79
rho -11.216919539448233 -28.767835511015868 -4.614816022061676 -7.794234959559783 -30.94698073639201 -5.985820020078867 -21.366170726792394 46.51968481114509 13.014159610132149 -39.59841659735228
label 3 1 5 0 4
probA -1.8835873776340901 -2.493730061722328 -2.43002202207184 -2.439211631647731 -2.0542987630094744 -1.0026101855576974 -2.0278108075215444 -0.5537074527998105 -1.6037631838115527 -2.4499660002579056
probB 0.060256921979316015 0.3162258918746424 -0.23549506157667058 -0.09971372358476134 0.09071112546027313 0.11185747935968963 -0.9135870156035873 0.08612210240522604 -0.7050720388540361 -0.263484378999627
nr_sv 9 20 13 26 11
SV
2.7105457750998323E-5 0.0 0.0 0.0 1:-0.8042342926283091 2:-0.41426933886543954 3:0.9046611976664884 4:-29.746539482485993 5:-0.8042342926283091 6:-0.19986524974438316 7:0.8286971192750348 8:-43.043799030588616 9:-0.7863672852015544 10:0.005605335663295911 11:0.7863872627549108 12:-57.408405388952154 13:-0.7506332703480451 14:0.22596509392660388 15:0.7839072204200318 16:-73.7535079717093 17:-0.6672539023565232 18:0.4344135139054087 19:0.7962052946782339 20:-90.06601039731987 21:-0.5213400083713597 22:0.6309505955997105 23:0.8184705605067777 24:-107.43385826837464 25:-0.35755910695944165 26:0.8006871661538801 27:0.8768970595304587 28:-122.93611861214553 29:-0.18186686726302043 30:0.9525567292812951 31:0.9697627956913709 32:-136.19089111675945 33:0.03551505642916178 34:0.9912685787059302 35:0.9919045893445808 36:30.948091081552292 37:0.25587481469246975 38:0.9346897218545404 39:0.9690803872406167 40:17.690154514480014 41:0.44050055810226835 42:0.7679309858714964 43:0.8853014970901034 44:3.16055621566683 45:0.6013036249430607 46:0.5713939041771948 47:0.8294920392026208 48:-13.461015544634677 49:0.7472175189282241 50:0.3659233187695157 51:0.8320059469814789 52:-30.90833428028261 53:0.8335747214908718 54:0.14258572593508195 55:0.8456816809822824 56:-47.29330911098178 57:0.857397398059878 58:-0.09266320518385494 59:0.8623901482477603 60:-63.16829881845786 61:0.8663309017732553 62:-0.30706729430491136 63:0.9191406609431446 64:-76.51665467407784 65:0.8514417289176265 66:-0.5244492179970935 67:1.0 68:-88.63117227749257 69:-0.7208549246367872 70:-0.5095600451414646 71:0.8827702203731612 72:-21.74416149785622 73:-0.6255642183607621 74:-0.6435626008421249 75:0.8974984192164304 76:-11.18750260969135 77:-0.46178331694884406 78:-0.7090749614068921 79:0.8461862281474818 80:-0.07408719889610182 81:-0.27715757353904547 82:-0.7060971268357663 83:0.7585443118867715 84:11.568976604491965 85:-0.10444316841375005 86:-0.6405847662709991 87:0.6490433099622656 88:23.739778468828504 89:0.059337732998168045 90:-0.655473939126628 91:0.6581542763148625 92:-141.82731548204146 93:0.21418513069670878 94:-0.7448089762604015 95:0.774993987931283 96:-130.95632288659863 97:0.39881087410650734 98:-0.7745873219716594 99:0.8712265105383464 100:-119.75747258516563 101:0.5804587829451802 102:-0.7269419688336468 103:0.9302564295665676 104:-108.39284554993117 105:0.6995721657902115 106:-0.6048507514174897 107:0.9247949213953918 108:-97.84672414750989 109:-0.03595297327785703 110:-0.47084819571682945 111:0.4722188472491457 112:28.63348854747163 113:-0.029997304135605456 114:-0.29515595602040823 115:0.2966763836737349 116:27.196838304628386 117:-0.02404163499335389 118:-0.11946371632398699 119:0.12185885167312097 120:21.621420842939315 121:-0.018085965851102323 122:0.06218419251468579 123:0.06476091382516729 124:-130.783188262385 125:-0.23249005497215874 126:0.0979182073681952 127:0.2522689061203506 128:-79.83944362841665 129:-0.11933234126937896 130:0.1336522222217046 131:0.17917344718911737 132:-105.23970029610217 133:-2.1895842434762347E-4 134:0.169386237075214 135:0.16938637859430195 136:-146.92593621044455 137:0.11889442442068371 138:0.11876304936607568 139:0.16804923699039698 140:-12.031672622264658 141:0.2260964689812119 142:0.06813986165693736 143:0.2361411739455843 144:-40.22849745862899 145:-0.5570740232248691 146:-0.3934244968675591 147:0.6819928900563657 148:-21.768969977009164 149:-0.4588054823777183 150:-0.4023580005809364 151:0.6102412894022655 152:-15.750254729857488 153:-0.3605369415305674 154:-0.41724717343656537 155:0.5514363879442661 156:-7.82979745540586 157:-0.24142355868553608 158:-0.40533583515206223 159:0.4717864707119188 160:2.2213945011356415 161:-0.3545812723883158 162:-0.3844909931541817 163:0.5230307854660241 164:-9.682545781402915 165:-0.4588054823777183 166:-0.37853532401193013 167:0.5948037173594897 168:-17.475823122764602 169:0.20227379241220564 170:-0.4410698500055716 171:0.48523942510966017 172:-122.36390028721058 173:0.3124536715438596 174:-0.47084819571682945 175:0.5650887720270433 176:-113.43184868454756 177:0.4107222123910105 178:-0.476803864859081 179:0.6293128485069435 180:-106.25815821187268 181:0.5238799260937903 182:-0.476803864859081 183:0.7083728555701382 184:-99.30656927416885 185:0.4137000469621363 186:-0.45000335371894895 187:0.6112697826776449 188:-104.40684779797115 189:0.3124536715438596 190:-0.4440476845766974 191:0.5429600749955417 192:-111.86790648428388 193:-0.4141379638108315 194:0.28849961992024536 195:0.5047200053133496 196:-91.86210448312737 197:-0.2741797389679197 198:0.26169910878011327 199:0.37902632203690306 200:-100.66582122676687 201:-0.1282658449827563 202:0.2438321013533586 203:0.2755108357933223 204:-119.25375990959537 205:-2.1895842434762347E-4 206:0.2646769433512391 207:0.26467703391973135 208:-146.95260111975296 209:0.10996092070730637 210:0.23489859763998125 211:0.2593622086118722 212:7.9147282257418965 213:0.25587481469246975 214:0.2229872593554781 215:0.3394042407348102 216:-15.92882201810739 217:0.4256113852466394 218:0.22000942478435231 219:0.47911292848920795 220:-29.66439960414598 221:0.27076398754809866 222:0.39570166448077354 223:0.4794715259802209 224:-1.3823904902421162 225:0.13080576270518685 226:0.4939702053279244 227:0.510995803611534 228:18.16821490366995 229:0.008714545289029726 230:0.5177928818969306 231:0.5178662103697472 232:32.035792983586134 233:-0.1282658449827563 234:0.5058815436124275 235:0.5218891291805501 236:-132.7725264417302 237:-0.26524623525454233 238:0.43143567933428295 239:0.5064506991991838 240:-115.41683998748174 241:-0.35755910695944165 242:0.30636662734700004 243:0.470859878649274 244:-97.59089099710523 245:-0.1282658449827563 246:0.3331671384871321 247:0.3570048587300239 248:-125.94381911604175 249:0.00275887614677816 250:0.3450784767716352 251:0.34508950509777203 252:32.541934364919115 253:0.11591658984955792 254:0.3242336347737547 255:0.34433138939247354 256:13.327549704299713 257:0.3690325283952495 258:0.24978777049561016 259:0.44562196680926563 260:-22.907030583560456 261:0.11889442442068371 262:0.37485682248289304 263:0.3932601194124531 264:15.402383654469432 265:0.005736710717903944 266:0.40165733362302514 267:0.40169829910396554 268:32.18172298230691 269:-0.12528801041163054 270:0.389745995338522 271:0.40938860076377315 272:-129.17944398999413 
0.0011502581203556663 6.707161560157815E-4 0.0 8.697001849026731E-4 1:-0.8005983246027576 2:-0.34387997903952344 3:0.8713272159992281 4:-50.755087478839464 5:-0.8125593673519584 6:-0.14054225230310957 7:0.8246240659560244 8:-64.1870680034689 9:-0.8245204101011592 10:0.05980521374600408 11:0.8266865005941424 12:-78.14858869450704 13:-0.8095691066646582 14:0.26912346185701835 15:0.8531292845681239 16:-92.38825300643671 17:-0.7497638929186541 18:0.4754514492807324 19:0.8878062715185582 20:-106.38021006322447 21:-0.630153465426646 22:0.6668281332679454 23:0.917471061836189 24:-120.61971757801965 25:-0.4626988669378345 26:0.8163411676329556 27:0.9383512899963922 28:-134.45561114931482 29:-0.2832832256998223 30:0.9449223771868644 31:0.986472343693107 32:-147.31151985517965 33:-0.050042892090406396 34:0.9987470695582681 35:1.0 36:-161.1315554013089 37:0.19216822358091012 38:0.9778152447471666 39:0.9965195828553516 40:4.88146595632189 41:0.395505950317324 42:0.8462437745059577 43:0.9341057127683674 44:-9.049809159858029 45:0.5659508094934356 46:0.6907502187663471 47:0.8929928238748793 48:-23.328713359544466 49:0.7094833224838454 50:0.5023637954664343 51:0.8693307586173157 52:-38.69883803648471 53:0.790220361040951 54:0.2990260687300204 55:0.8449052069811274 56:-53.272933529300595 57:0.8261034892885534 58:0.08372729924440571 59:0.8303356162742179 60:-68.21271623991004 61:0.8380645320377542 62:-0.11662016680470795 63:0.8461397184657022 64:-81.92207349363201 65:0.8380645320377542 66:-0.3139773721665214 67:0.8949491326842292 68:-94.53825190913372 69:-0.6510852902377474 70:-0.5352566630267365 71:0.8428592708622769 72:-34.57640531861195 73:-0.558387208931441 74:-0.6817794367044465 75:0.8812601632953103 76:-23.31797167054733 77:-0.3999033925045303 78:-0.762516475261552 79:0.8610192206808936 80:-11.674859384106675 81:-0.2174974905792178 82:-0.762516475261552 83:0.7929290847569901 84:0.07991913195175471 85:-0.050042892090406396 86:-0.6997210008282477 87:0.7015082109632479 88:11.909265377773394 89:0.13535327052220625 90:-0.6668281332679454 91:0.6804265332559206 92:-152.52594662615314 93:0.29682734763641727 94:-0.7296236077012498 95:0.7876909820607684 96:-141.86239894170734 97:0.4822235102490299 98:-0.7206528256393492 99:0.8671101481005018 100:-130.21161360601695 101:0.6466878480505411 102:-0.630945005020343 103:0.9034914344786897 104:-118.29404381284263 105:0.7214443652330462 106:-0.4754514492807324 107:0.864023178363672 108:-107.38596811029127 109:0.027703885779398908 110:-0.5053540561537344 111:0.5061128602972955 112:-160.86214358885846 113:0.030694146466699112 114:-0.3857436286617263 115:0.3869628892806582 116:-159.45048245810284 117:0.03667466784129952 118:-0.26613320116971817 119:0.26864830545922175 120:-156.15373477983013 121:0.042655189215899926 122:-0.1375519916158094 123:0.14401394225740757 124:-146.7712164033239 125:-0.18161436233161538 126:-0.002990260687300204 127:0.18163897782165941 128:-73.05671646611101 129:-0.08592602033800883 130:0.020931824811101427 131:0.0884388051765205 132:-87.69075935608792 133:0.012752582342897889 134:0.05382469237140367 135:0.05531478884790785 136:2.67080314799594 137:0.11143118502380461 138:0.035883128247602446 139:0.11706625426929515 140:-56.15037614999224 141:0.20412926633011094 142:0.01495130343650102 143:0.20467608274275648 144:-69.81089169066823 145:-0.498581995185437 146:-0.40667545347282774 147:0.6434041734247775 148:-34.797108458941594 149:-0.3999033925045303 150:-0.42760727828392914 151:0.5854662311167246 152:-27.08253457465247 153:-0.3012247898236235 154:-0.43956832103313 155:0.5328758606468968 156:-18.421831548563148 157:-0.18460462301891556 158:-0.41863649622202853 159:0.45753183802770764 160:-7.795866929897727 161:-0.2982345291363233 162:-0.39770467141092714 163:0.4971044558553443 164:-20.865842886322604 165:-0.3999033925045303 166:-0.3947144107236269 167:0.5618916171020283 168:-29.374145317282633 169:0.21908056976661194 170:-0.39770467141092714 171:0.454054293792424 172:-135.15128167942362 173:0.3416812579459203 174:-0.41265597484742816 175:0.5357527747093689 176:-124.37506952086714 177:0.43736959993952684 178:-0.39770467141092714 179:0.5911524106466414 180:-116.28056979781188 181:0.5390384633077338 182:-0.3678020645379251 183:0.6525648041409551 184:-108.30688734642698 185:0.42839881787762624 186:-0.3648118038506249 187:0.5626839249416091 188:-114.4167365292716 189:0.3267299545094193 190:-0.3737825859125255 191:0.49645330566447204 192:-122.84272033453496 193:-0.4298059993775323 194:0.24819163704591693 195:0.4963187340816902 196:-104.0043016966286 197:-0.2832832256998223 198:0.1734351198634118 199:0.3321582857086851 200:-105.47631125111344 201:-0.12778966996021168 202:0.1525032950523104 203:0.19896596379871576 204:-124.03877829643034 205:-0.014159763842803947 206:0.17642538055071202 207:0.17699269424060288 208:-159.41132114941126 209:0.08750909952540299 210:0.1644643378015112 211:0.1862964328918739 212:-12.016798192407279 213:0.23403187320311297 214:0.20034746604911366 215:0.3080747065684859 216:-33.43418810600241 217:0.38055464688082297 218:0.27211372254431854 219:0.46783300146474727 220:-38.43352344018051 221:0.22506109114121237 222:0.42461701759662895 223:0.48057476668914795 224:-11.925072076794656 225:0.07554805677620217 226:0.469470927906132 227:0.47551073703093694 228:6.858239516334066 229:-0.03210132796660517 230:0.469470927906132 231:0.470567155044064 232:-160.08833687450854 233:-0.15171175545861332 234:0.4485391030950306 235:0.4735016195850111 236:-145.31264849478885 237:-0.2982345291363233 238:0.3827533679744261 239:0.4852256949759884 240:-126.0749206956117 241:-0.38495208906802925 242:0.2541721584205173 243:0.4612933957840546 244:-107.43556941235221 245:-0.1307799306475119 246:0.2242695515475153 247:0.2596155272927481 248:-133.7519457444818 249:-0.014159763842803947 250:0.2422111156713165 251:0.24262465552129664 252:-160.65427260482213 253:0.08750909952540299 254:0.24520137635861672 255:0.26034891485832407 256:-3.6408043615216314 257:0.3297202151967195 258:0.27809424391891896 259:0.4313372564597292 260:-33.85488239324618 261:0.07255779608890196 262:0.37079232522522526 263:0.3778248036050676 264:4.928090166549524 265:-0.029111067279304965 266:0.37079232522522526 267:0.37193333096681386 268:-159.51089168736894 269:-0.1427409733967127 270:0.35285076110142405 271:0.38062927514327544 272:-141.97487604358307 
5.401959477715933E-4 8.839680351271574E-5 0.0 0.0 1:-0.810350374080279 2:-0.39289287300791215 3:0.9005734497710108 4:-47.13388811408813 5:-0.8263503233942915 6:-0.19129351165135497 7:0.8482028440023983 8:-59.966070172898675 9:-0.8391502828455014 10:0.007105859842399744 11:0.8391803682425995 12:-73.4851646435703 13:-0.835950292982699 14:0.2279051603757719 15:0.866460417136159 16:-88.2499331447712 17:-0.7815504653150566 18:0.44870446090914407 19:0.9011974384528326 20:-102.86103426994723 21:-0.6503508809401543 22:0.6503038222657013 23:0.9197017612210033 24:-117.99792699520648 25:-0.4711514486232145 26:0.8071033255430236 27:0.9345584335087673 28:-132.72549540290004 29:-0.28555203658066974 30:0.9479028795063333 31:0.9899797142223503 32:-146.23527758686708 33:-0.04235280700768013 34:0.9991027173111733 35:1.0 36:-160.57263685417936 37:0.2072464022909145 38:0.9671028186831483 39:0.989059620633366 40:4.904671728280462 41:0.42484571296148416 42:0.835903234308246 43:0.9376716359945726 44:-9.941839375556036 45:0.6072451351412264 46:0.6791037310309237 47:0.9110041337188363 48:-24.802640673911263 49:0.7640446384185486 50:0.493504318988379 51:0.9095662275812106 52:-40.14116534678736 53:0.8472443748514136 54:0.2823049880434143 55:0.8930392695685644 56:-54.571734459389106 57:0.876044283616636 58:0.061505687510042165 59:0.8782007381307919 60:-68.98394371089255 61:0.8856442532050435 62:-0.13369369412091003 63:0.8956783725661878 64:-81.58435158587253 65:0.8920442329306485 66:-0.33209306561466473 67:0.9518554079975461 68:-93.41945250443817 69:-0.7047507086077966 70:-0.559292345873642 71:0.899711892461155 72:-34.5643751990351 73:-0.5991510431353143 74:-0.7096918694253592 75:0.9287865858304567 76:-23.17243213024667 77:-0.41995161081837457 78:-0.792891605858224 79:0.8972382370749593 80:-10.907738182009183 81:-0.22155223932461987 82:-0.7896916159954216 83:0.8201818354018906 84:1.328249728384506 85:-0.03915281714487763 86:-0.7192918390137667 87:0.7203566427556469 88:13.884325048131558 89:0.12084667599524714 90:-0.6840919505229393 91:0.6946838963653755 92:-152.98190255268355 93:0.29364612858658184 94:-0.7512917376417916 95:0.806639525366015 96:-141.6517084061915 97:0.49844547980594156 98:-0.7416917680533841 99:0.8936188086299046 100:-129.0973766261921 101:0.6840448918484863 102:-0.6424920823065068 103:0.9384633663018276 104:-116.20583788502714 105:0.7768445978697587 106:-0.47929259930357954 107:0.9128027853740417 108:-104.67348977740743 109:0.024846980111172274 110:-0.5112924979316045 111:0.5118958789263544 112:-160.2178195444931 113:0.024846980111172274 114:-0.3736929338310972 115:0.3745180652731424 116:-159.19598184564427 117:0.024846980111172274 118:-0.23929335959339237 119:0.2405798918574401 120:-157.0719475733523 121:0.021646990248369778 122:-0.09209382590447761 123:0.09460372591255192 124:-149.77253560414323 125:-0.21835224946181736 126:0.02950578888201721 127:0.22033677955027367 128:-80.69572397108267 129:-0.10955259412653252 130:0.061505687510042165 131:0.1256372575151803 132:-102.31099198575984 133:0.0024470510715548064 134:0.09670557600086961 135:0.09673653130336422 136:15.550489109278487 137:0.11124670640683965 138:0.06790566723564716 139:0.13033422163456543 140:-41.59985455177379 141:0.21364638201651948 142:0.04230574833322719 143:0.21779474945641583 144:-61.799322450047875 145:-0.5383512357420669 146:-0.42169278177313463 147:0.6838470993025964 148:-34.92825275018102 149:-0.43275157026958455 150:-0.4280927614987396 151:0.6087177786284939 152:-28.310076356791704 153:-0.3303518946599047 154:-0.43769273108714707 155:0.5483678520408672 156:-20.04395575679473 157:-0.2023523001478049 158:-0.4280927614987396 159:0.473508041983158 160:-8.29931942745074 161:-0.3239519149342997 162:-0.40889282232192464 163:0.5216686528209153 164:-21.38859147599112 165:-0.43275157026958455 166:-0.4024928425963196 167:0.5909944246031911 168:-30.07476938535728 169:0.22964633133053197 170:-0.40569283245912213 171:0.4661803425738561 172:-133.4875517570997 173:0.36724589543103925 174:-0.40889282232192464 175:0.5496024816695562 176:-121.07149591191498 177:0.4696455710407191 178:-0.39289287300791215 179:0.612316725280777 180:-112.91494740442596 181:0.584845206101609 182:-0.38009291355670216 183:0.6975059412191814 184:-106.01997827302449 185:0.45684561158950915 186:-0.3736929338310972 187:0.5902154874483432 188:-112.28265699369179 189:0.3480459562542243 190:-0.3864928932823072 191:0.5201083966084823 192:-120.99621845331119 193:-0.4583514891720045 194:0.27590500831780934 195:0.5349856645191949 196:-104.04586812415289 197:-0.29195201630627476 198:0.22150518065016692 199:0.36647036016595175 200:-110.18773829678587 201:-0.13515251302895248 202:0.19590526174774697 203:0.23800225494413793 204:-128.39870694123636 205:-0.023152867830865155 206:0.22150518065016692 207:0.22271192232041953 208:-157.0328171595767 209:0.0760468179160122 210:0.20230524147335194 211:0.2161261882390525 212:-3.6013094600369158 213:0.23604631105613696 214:0.23110515023857442 215:0.33034444361908766 216:-28.606007102874486 217:0.4056457737846692 218:0.2823049880434143 219:0.4942110885679877 220:-38.1644116893089 221:0.22644634146772946 222:0.40710459269271165 223:0.46584556985724157 224:-12.084399093538089 225:0.0728468280532097 226:0.4551044406347491 227:0.4608977242760933 228:7.906026085340045 229:-0.035952827282075134 230:0.46150442036035405 231:0.46290272822885925 232:-158.54545300006703 233:-0.15755244206856994 234:0.44870446090914407 235:0.47556121082520564 236:-143.65242684252945 237:-0.30475197575748475 238:0.3975046231043042 239:0.5008829125827566 240:-125.52396283863942 241:-0.3975516817787571 242:0.2887049677690193 243:0.4913226008435075 244:-108.98742999280975 245:-0.14155249275455747 246:0.2951049474946243 247:0.3272980877439311 248:-137.37444170519626 249:-0.02635285769366765 250:0.3079049069458343 251:0.3090305888256785 252:-158.10811034482126 253:0.0760468179160122 254:0.3015049272202293 255:0.31094748697043184 256:2.8438822600494404 257:0.3448459663914218 258:0.2951049474946243 259:0.45387847555511873 260:-32.44445330804362 261:0.0696468381904072 262:0.33670481571105676 263:0.34383253917123296 264:5.313278809747288 265:-0.03275283741927264 266:0.34630478529946424 267:0.347850187121297 268:-157.59714716605458 269:-0.14475248261735998 270:0.33350482584825425 271:0.36356395598018726 272:-139.5375101296892 
3.166339731699438E-5 0.0 4.6237849780288156E-7 6.595402541377739E-6 1:-0.822486324628456 2:-0.30224804895922974 3:0.8762634519940261 4:-43.82258197242446 5:-0.8131497707235978 6:-0.1030682323222568 7:0.8196557875973759 8:-56.77617602888638 9:-0.7975888475488344 10:0.09611158431471614 11:0.8033588279055397 12:-70.87116364892587 13:-0.7726913704692128 14:0.30774013949149986 15:0.8317186708568217 16:-85.71593103583673 17:-0.6979989392303478 18:0.5131443253983783 19:0.8663253533489872 20:-100.32202042654376 21:-0.561062815292429 22:0.6998754034955403 23:0.8970044944825594 24:-115.28220932803082 25:-0.38055610646517224 26:0.8492602659732701 27:0.9306266434660685 28:-129.86270370777743 29:-0.18760065909810472 30:0.9737476513713782 31:0.9916544235999344 32:-143.09509706473756 33:0.05203755779325336 34:0.9986451284509998 35:1.0 36:23.017120300946345 37:0.2885635900496587 38:0.955074543561662 39:0.997715555287109 40:9.188477882252727 41:0.49085559132158435 42:0.8088018657188849 43:0.9460970719339594 44:-5.253239527191852 45:0.6495770077041721 46:0.631407341526581 47:0.905883833541349 48:-19.812637078861712 49:0.7865131316420911 50:0.42911534025465525 51:0.8959591963294522 52:-35.383467179040245 53:0.861205562880956 54:0.20815023117301343 55:0.8860031265602188 56:-50.412402546734064 57:0.8892152245955303 58:-0.022151431813486548 59:0.8894910913459825 60:-65.42701235560551 61:0.8861030399605776 62:-0.23066780235531759 63:0.9156343333835887 64:-78.59123469102248 65:0.8767664860557195 66:-0.44540854216705406 67:0.983416615939488 68:-90.93114960209923 69:-0.7353451548497804 70:-0.47341820388162836 71:0.8745611999897746 72:-31.22640047468181 73:-0.6575405389759628 74:-0.6352518048991689 75:0.9142780846243943 76:-19.987725437884265 77:-0.49570693795842224 78:-0.7317295285827027 79:0.8838288699403178 80:-8.115503047354444 81:-0.3058636752263074 82:-0.7441782671225134 83:0.8045830479698235 84:3.6569156262533227 85:-0.12535696639905067 86:-0.6974954975982229 87:0.7086708249918049 88:15.811321642301323 89:0.06137411169811146 90:-0.7099442361380337 91:0.7125921694857084 92:-149.0591097501525 93:0.22009552808069927 94:-0.7939732212817567 95:0.8239147514116076 96:-138.5062142333199 97:0.4130509754477668 98:-0.8064219598215675 99:0.9060504873354517 100:-126.87838245529824 101:0.5966698689099762 102:-0.7317295285827027 103:0.9441626107111596 104:-114.80536917072833 105:0.7087085157682735 106:-0.5885690353748784 107:0.9212389862161632 108:-103.70899093075931 109:-0.03821579662037501 110:-0.5076522348661081 111:0.5090886353827632 112:21.69492350819543 113:-0.022654873445611498 114:-0.3707161109281892 115:0.3714076980792915 116:22.502940260701763 117:-0.01020613490580069 118:-0.236892171625223 119:0.23711192750899207 120:23.533025085209047 121:0.002242603634010119 122:-0.0937316784173987 123:0.09375850260110771 124:-152.62941520013987 125:-0.21561032081267903 126:0.0463166301554729 127:0.22052900187935653 128:-76.12382436373369 129:-0.10668385858933446 130:0.06810192260014182 131:0.12656744267521888 132:-96.55223294333013 133:0.005354788268962821 134:0.08988721504481073 135:0.09004657231631569 136:22.590787680936728 137:0.1142812504923074 138:0.05254099942537831 139:0.12578060595617718 140:-39.3093127287126 141:0.21387115881079388 142:0.01519478380594588 143:0.2144102470172106 144:-59.93616736119982 145:-0.5703993691972871 146:-0.3551551877534257 147:0.6719305379046513 148:-32.091830556609715 149:-0.4708094608788006 150:-0.3738282955631419 151:0.6011731389679937 152:-25.550008065676487 153:-0.37121955256031414 154:-0.3956135880078108 155:0.5425072047627513 156:-17.17795551293454 157:-0.24361998252725336 158:-0.3956135880078108 159:0.46460822948263963 160:-5.624880737914509 161:-0.35565862938555065 162:-0.3644917416582838 163:0.5092615147382507 164:-18.297265271863644 165:-0.45836072233898983 166:-0.3458186338485676 167:0.5741820959417058 168:-26.966604128562857 169:0.18274931246126686 170:-0.43607198826219595 171:0.4728171847046282 172:-131.26238750813366 173:0.30412451322442224 174:-0.45474509607191216 175:0.5470693026897455 176:-120.22617843582148 177:0.4037144215429087 178:-0.4578572807068649 179:0.6104249533382546 180:-112.59585089894742 181:0.5188652530361587 182:-0.45163291143695944 183:0.6878905708768666 184:-105.03710249951064 185:0.4037144215429087 186:-0.43295980362724323 187:0.5919793287933849 188:-111.0019201971165 189:0.3010123285894695 190:-0.42984761899229057 191:0.5247641351275791 192:-118.99733603969534 193:-0.41167795281469927 194:0.3201888780313107 195:0.5215358611338738 196:-101.87454266670306 197:-0.26851745960687495 198:0.24238426215749315 199:0.3617343730631112 200:-106.07180849377502 201:-0.12535696639905067 202:0.20192586190310802 203:0.2376729322621442 204:-122.16770469728664 205:-0.003981765635895286 206:0.21748678507787153 207:0.21752323126757628 208:-152.95114141574902 209:0.1018325119524966 210:0.1894771233632972 211:0.21510797467454687 212:-2.255345185800465 213:0.25744174370013173 214:0.20192586190310802 215:0.32718542923650706 216:-25.8909392724047 217:0.41616316008271953 218:0.24549644679244584 219:0.4831772771951837 220:-33.46346174389614 221:0.2698904822399425 222:0.39176912463522284 223:0.4757351357858252 224:-8.563029006922385 225:0.1236178043971655 226:0.4571250019692296 227:0.47354474866621 228:10.867757342693935 229:0.011579157538868226 230:0.4757981097789458 231:0.47593898575187943 232:24.605908859963364 233:-0.11602041249419257 234:0.4695737405090404 235:0.4836943599950016 236:-140.1215414124138 237:-0.25918090570201685 238:0.42911534025465525 239:0.5013129931713184 240:-122.86848946906511 241:-0.35254644475059793 242:0.3264132473012161 243:0.48045249892160125 244:-106.79577024471948 245:-0.12224478176409798 246:0.3046279548565472 247:0.3282407310932549 248:-132.13479999267344 249:-8.695810009425836E-4 250:0.3108523241264526 251:0.3108535404108088 252:-153.83972070507969 253:0.10494469658744929 254:0.2921792163167364 255:0.3104546404698986 256:6.242767402276016 257:0.3663682059234763 258:0.26105736996720935 259:0.4498628821383058 260:-28.528050883736626 261:0.108056881222402 262:0.3357498012060742 263:0.3527098220767755 264:8.159877039060149 265:0.002242603634010119 266:0.35442290901579043 267:0.3544300039588558 268:25.637466977120653 269:-0.11602041249419257 270:0.348198539745885 271:0.3670190174861369 272:-135.5718293362222 
0.005670251487635891 8.114242285535756E-6 4.1306514755972115E-5 0.0 1:-0.8804057556164353 2:-0.3029410791250222 3:0.9310679845983211 4:-53.012040429247655 5:-0.8870348765755669 6:-0.09743832939194219 7:0.8923704949717487 8:-65.73134974675506 9:-0.8837203160960011 10:0.10143529938200621 11:0.8895227467814038 12:-78.54787594520383 13:-0.8671475136981721 14:0.31356717007421786 15:0.9221004178836897 16:-91.88037779533943 17:-0.8074854250659875 18:0.5190699198072979 19:0.9599303585900142 20:-104.73382781212555 21:-0.6682738849242237 22:0.7013707461834172 23:0.9687677269983751 24:-118.38425796722478 25:-0.4760293771094069 26:0.8372677258456153 27:0.9631309426105354 28:-132.37956274076194 29:-0.2738411878558927 30:0.9599064635895501 31:0.9982030930663973 32:-146.07766276002803 33:-0.025249151888457198 34:0.9996811893443398 35:1.0 36:-160.55317640297864 37:0.2299720050381099 38:0.9731647055078134 39:0.9999683330722816 40:4.704147664510813 41:0.45204755716901895 42:0.8505259677638786 43:0.9631933428876881 44:-9.9902769712671 45:0.6476066254634015 46:0.704685306662983 47:0.9570662060541043 48:-24.583045952587867 49:0.8033909680029945 50:0.5157553593277321 51:0.9546940023610008 52:-39.3006300536295 53:0.8862549799921396 54:0.3069380491150862 55:0.9379013037390678 56:-52.897416953077915 57:0.9127714638286661 58:0.07491881554547976 59:0.9158409109133876 60:-67.30777255400238 61:0.9227151452673635 62:-0.12726937370803446 63:0.9314508751350267 64:-79.85321088090991 65:0.9160860243082319 66:-0.32945756296154866 67:0.9735275495461982 68:-91.78041408065864 69:-0.7610815783520662 70:-0.5382748731741945 71:0.9321936536994702 72:-36.730143799888886 73:-0.6616447639650921 74:-0.7073174576320507 75:0.9685410572368577 76:-25.08914938494815 77:-0.4760293771094069 78:-0.8001251510598932 79:0.9310232141197055 80:-12.75026099500515 81:-0.2672120668967611 82:-0.803439711539459 83:0.846709902371437 84:-0.39635597878339013 85:-0.07165299860237849 86:-0.7371485019481429 87:0.7406227556138845 88:12.448123645349554 89:0.09738958585547765 90:-0.7172611390707481 91:0.7238427129246853 92:-154.26767630164227 93:0.279690412231597 94:-0.7868669091416299 95:0.8350965569300252 96:-142.43233595879974 97:0.49513684340337444 98:-0.7835523486620641 99:0.9268844462980781 100:-129.71067938727802 101:0.6840667907386254 102:-0.6907446552342216 103:0.9721499642164709 104:-117.27830030356647 105:0.7835036051255997 106:-0.5217020707763654 107:0.941302793949513 108:-105.65797504641229 109:-0.00204722853149655 110:-0.5250166312559312 111:0.5250206226806587 112:17.776584296434393 113:0.00789645290720087 114:-0.392434212073299 115:0.39251364915644227 116:-160.84726569541147 117:0.021154694825464098 118:-0.25985179289066673 119:0.2607114791904117 120:-157.3457793618533 121:0.031098376264161516 122:-0.12064025274890283 123:0.12458402622160886 124:-147.54511006128183 125:-0.20423541778501075 126:0.0450877712293875 127:0.20915308506510602 128:-84.44914982636973 129:-0.09485492195933914 130:0.06166057362721653 131:0.11313479818318371 132:-105.0259373030913 133:0.014525573866332483 134:0.08817705746374299 135:0.0893654617797643 136:8.645569645238396 137:0.11727694873287249 138:0.06166057362721653 139:0.1324987133678293 140:-44.26600182920912 141:0.2167137631198467 142:0.031829529311124274 143:0.2190387501373507 144:-63.64450235098699 145:-0.5887244334146443 146:-0.3990633330324306 147:0.7112299222265234 148:-37.86885255652039 149:-0.4826584980685385 150:-0.42889437734852287 151:0.6456853821165185 152:-30.375440630053177 153:-0.3699634417633011 154:-0.4454671797463519 155:0.5790629987078402 156:-21.709855909009384 157:-0.23075190162153722 158:-0.4189506959098254 159:0.47829501952799236 160:-10.845328685857261 161:-0.3600197603246037 162:-0.3891196515937332 163:0.5301210532327625 164:-24.775496663359206 165:-0.4793439375889727 166:-0.37586140967546994 167:0.6091325059349012 168:-33.8994261647353 169:0.2167137631198467 170:-0.4189506959098254 171:0.47168266952358134 172:-134.64849209403647 173:0.3526107427820448 174:-0.4487817402259177 175:0.5707358288083099 176:-123.84304824944124 177:0.4619912386077164 178:-0.44215261926678606 179:0.6394801351682251 180:-115.74302436792382 181:0.5813154158720855 182:-0.409007014471128 183:0.7107843207451336 184:-107.12978963495527 185:0.4586766781281506 186:-0.392434212073299 187:0.6036463417136445 188:-112.54960721779605 189:0.33935250086378155 190:-0.3990633330324306 191:0.5238431670008262 192:-121.62307378906627 193:-0.4263109699159198 194:0.3069380491150862 195:0.5253113448853235 196:-107.7533695152515 197:-0.2705266273763269 198:0.2373322790442043 199:0.3598767383367895 200:-113.26038926901762 201:-0.1213714057958656 202:0.1975575532894146 203:0.23186203873546132 204:-130.4351091589939 205:-0.00204722853149655 206:0.21744491616680944 207:0.2174545532092878 208:-161.46058021949295 209:0.10733326729417507 210:0.190928432330283 211:0.21902989873563444 212:-11.343167394848756 213:0.2564884888746364 214:0.21744491616680944 215:0.33625680140628417 216:-31.70950488408893 217:0.4155873918937951 218:0.27710700479899397 219:0.49950092333223617 220:-38.305280332140796 221:0.2564884888746364 222:0.3765438191859682 223:0.4556002553690566 224:-16.261323171743435 225:0.11064782777374088 226:0.4163185449407579 227:0.4307714854219546 228:3.1161918262810673 229:-0.005361789011062356 230:0.42957678685902106 231:0.429610247305066 232:-161.28489634770634 233:-0.1246859662754314 234:0.41963310542032367 235:0.4377653861953255 236:-145.45168815801495 237:-0.2705266273763269 238:0.3898020611042314 239:0.47447898052570986 240:-127.23895547654938 241:-0.3633343208041695 242:0.31025260959465206 243:0.47777453933264247 244:-112.49414415534724 245:-0.11805684531629979 246:0.2903652467172572 247:0.3134475956634703 248:-139.87430009615412 249:-0.00204722853149655 250:0.3003089281559546 251:0.30031590613025894 252:-161.60941641566558 253:0.10733326729417507 254:0.2903652467172572 255:0.309568097143773 256:-2.2867901935554897 257:0.3592398637411764 258:0.28705068623769137 259:0.4598384239820641 260:-33.373389641128064 261:0.10401870681460927 262:0.2969943676763888 263:0.31468324677186366 264:-1.3021924317136921 265:-0.00204722853149655 266:0.31025260959465206 267:0.3102593639279107 268:-161.62193435755324 269:-0.1213714057958656 270:0.3003089281559546 271:0.3239081204215834 272:-139.99364909963066 
1.227397886876118E-4 0.001051812802299415 0.0 3.4318053181638474E-5 1:-0.8536513900216217 2:-0.5156467817516149 3:0.9973025113859106 4:-31.865990743216333 5:-0.8646329062004847 6:-0.29327107912963746 7:0.9130158751843028 8:-44.26380083337439 9:-0.8509060109769059 10:-0.06540461841822848 11:0.8534159616664457 12:-58.60462086365989 13:-0.8234522205297482 14:0.15971646324846475 15:0.838798490775926 16:-73.9767709199137 17:-0.7630538815460012 18:0.36836527064686336 19:0.8473158789738073 20:-88.76898851378816 21:-0.6312756873996442 22:0.5550510456875358 23:0.84058946984882 24:-104.32364767206053 25:-0.4720437028061295 26:0.7252645464599136 27:0.8653519051291363 28:-119.94161664851707 29:-0.2908486858548886 30:0.8817511520087126 31:0.9284815841642781 32:-134.74468094068533 33:-0.07121836227762691 34:0.9311679748135965 35:0.9338874945323777 36:-148.62637137816012 37:0.15390271938906633 38:0.9146957005453018 39:0.9275528403446405 40:17.449119254324458 41:0.36255152678746494 42:0.7911536435330921 43:0.8702687500143901 44:2.380059719286777 45:0.5519826808728531 46:0.6456485541631563 47:0.8494391888043288 48:-13.528041533397221 49:0.7057239073769364 50:0.4671989162566311 51:0.8463575253961774 52:-29.494893863174894 53:0.7908306577631252 54:0.25580472981351676 55:0.8311733808616729 56:-45.07550698179661 57:0.8402474805680091 58:0.03342902719153928 59:0.8409122002087136 60:-60.721703874876276 61:0.8814281662387456 62:-0.18071053829629086 63:0.8997621412853138 64:-74.58623438346643 65:0.9061365776411876 66:-0.40034086187355256 67:0.9906342932813011 68:-86.83635595521164 69:-0.7328547120541278 70:-0.658406492076835 71:0.9851777188857156 72:-21.063051233627476 73:-0.609312655041918 74:-0.7929300652679078 75:1.0 76:-10.539820026961166 77:-0.4171361219118141 78:-0.8094023395362024 79:0.9105683343112179 80:-0.26490928845417727 81:-0.2359411049605732 82:-0.7709670329101816 83:0.8062619740781188 84:9.984177353865178 85:-0.07396374132234268 86:-0.6858602825239928 87:0.6898369098376004 88:20.84496239975597 89:0.1648842355679294 90:-0.6748787663451297 91:0.6947288394779251 92:-139.270631821339 93:0.34882463156388605 94:-0.7325317262841609 95:0.8113453972252099 96:-127.53665493812841 97:0.5327650275598427 98:-0.743513242463024 99:0.9146860206151177 100:-117.37647797070926 101:0.7112146654663678 102:-0.6803695244345612 103:0.9842403111810389 104:-106.73021907816045 105:0.8127936901208513 106:-0.5348644350646253 107:0.9729920588562229 108:-96.34718843836885 109:0.03859679951100393 110:-0.5074106446174677 111:0.5088764832487415 112:-148.65010447335666 113:0.022124525242709303 114:-0.3179794905320794 115:0.3187482564913196 116:-149.01986210152089 117:0.005652250974414676 118:-0.12305757835725967 119:0.12318731887751627 120:-150.37015247090613 121:-0.00807464424916418 122:0.0691189547728443 123:0.06958900623403855 124:-146.33677037787925 125:-0.213978072602847 126:0.09382736617528624 127:0.23364543693002118 128:-86.67699759422311 129:-0.12612594317194234 130:0.13775343089073858 131:0.18677194988322396 132:-110.52302896719637 133:-0.024546918517458806 134:0.18442487465090668 135:0.18605129829889766 136:-145.41850238763377 137:0.07703210613702473 138:0.15697108420374897 139:0.17485384368668105 140:0.8609318995652302 141:0.17586575174679248 142:0.1350080518460228 143:0.22171138153176265 144:-25.48738819714358 145:-0.5461689370134553 146:-0.5101560236621834 147:0.7473685009667037 148:-19.952608473425762 149:-0.4336083961801087 150:-0.5568274674223515 151:0.705742920413571 152:-10.908330579836957 153:-0.3073209601231832 154:-0.5403551931540569 155:0.6216348665411178 156:-2.6285692150040916 157:-0.20299655642398393 158:-0.4607392008572995 159:0.50347612964928 160:3.222245189766582 161:-0.31830247630204633 162:-0.4525030637231522 163:0.5532408960831203 164:-8.123554865568401 165:-0.4445899123589718 166:-0.4607392008572995 167:0.6402661957170479 168:-16.97806450963759 169:0.277444776401276 170:-0.4250492732759945 171:0.5075849570907368 172:-119.8660865335604 173:0.3954960753240542 174:-0.490938370349173 175:0.6304265453467451 176:-114.14535567267987 177:0.5162927532915481 178:-0.47721147512559414 179:0.7030568960567224 180:-105.74732875753418 181:0.6123810198566001 182:-0.4168131361418472 183:0.7407723698552826 184:-97.24090488649816 185:0.5190381323362638 186:-0.38386858760525794 187:0.6455661665307225 188:-99.4857719929017 189:0.39824145436876995 190:-0.3921047247394052 191:0.55887598905367 192:-107.55512957326778 193:-0.3979184685988037 194:0.288749278350106 195:0.49164545497718587 196:-98.96649110753067 197:-0.24692262113943628 198:0.2969854154842533 199:0.38622676996904826 200:-113.25884407251024 201:-0.11239904794836349 202:0.2914946573948218 203:0.3124142782739339 204:-131.91358184491617 205:-0.027292297562174578 206:0.3271845849761268 207:0.3283209133640783 208:-148.23167747275687 209:0.07977748518174049 210:0.3107123107078322 211:0.3207905658951386 212:12.599978693208982 213:0.21430105837281327 214:0.34091148019970563 215:0.4026730447294209 216:-5.153962671414433 217:0.36529690583218066 218:0.34091148019970563 219:0.499662352736845 220:-19.977641580323244 221:0.20881030028338174 222:0.45347202103305223 223:0.49923803477323025 224:2.2753437026139807 225:0.0687959690028774 226:0.5056342228826519 227:0.5102929087310426 228:19.251983515979518 229:-0.0437645718304692 230:0.516615739061515 231:0.5184661605096128 232:-148.157808051593 233:-0.13710745935080543 234:0.4946527067037888 235:0.5133027913999857 236:-137.50773124594554 237:-0.26339489540773087 238:0.4232728515411788 239:0.4985346304707931 240:-121.10675686203585 241:-0.34301088770448823 242:0.31345768975254795 243:0.4646635259505803 244:-105.42237318923951 245:-0.11788980603779502 246:0.37111064969157914 247:0.38938556814824926 248:-135.37663700162364 249:-0.03003767660689035 250:0.3930736820493053 251:0.3942197122617519 252:-148.63009734687034 253:0.07703210613702473 254:0.38758292395987376 255:0.39516384996756865 256:15.758949170497303 257:0.3076439458931495 258:0.35738375446800025 259:0.4715590582338028 260:-13.722607172473403 261:0.07154134804759318 262:0.3820921658704422 263:0.3887320255652117 264:16.394966588912965 265:-0.035528434696321894 266:0.38758292395987376 267:0.38920790410429246 268:-147.76252393318748 269:-0.12338056412722656 270:0.3656198916021476 271:0.38587649415262243 272:-134.35273322007404 
0.00260271966338556 4.817279242939638E-4 0.023933495187489648 7.906880582769373E-4 1:-0.7782407488630265 2:-0.48398995074464773 3:0.9164632756486705 4:-34.12241158562512 5:-0.7896435437181625 6:-0.2701875472108492 7:0.834588663236922 8:-47.110902920193524 9:-0.7839421462905946 10:-0.06493723981840265 11:0.7866270614757266 12:-61.264759084581044 13:-0.7668379540078907 14:0.15456656114296383 15:0.7822603591711453 16:-77.39604438822997 17:-0.706973281018427 18:0.3769210608181143 19:0.8011745790788749 20:-94.0641982283035 21:-0.5872439350394999 22:0.5878727656381288 23:0.8309331067057677 24:-111.03066021942355 25:-0.43615690320894895 26:0.7760188807478715 27:0.8901899502319713 28:-126.66208917607071 29:-0.2594135829543422 30:0.9442101048611263 31:0.9791976966593972 32:-140.637525925266 33:-0.0570139742756796 34:0.9983733804230219 35:1.0 36:-152.7315675430789 37:0.16248982668568687 38:0.9784184894265341 39:0.9918193808491772 40:14.570723092316896 41:0.3705908327919174 42:0.835883553737335 43:0.9143516176821492 44:0.08978939882048564 45:0.5387820569051722 46:0.6534388360551603 47:0.846917007331941 48:-15.506715716501695 49:0.6898690887357232 50:0.4567406248040657 51:0.8273641023995817 52:-32.49271020568984 53:0.7725393514354586 54:0.23438612512891527 55:0.8073127678720723 56:-49.12235981035998 57:0.8095984347146503 58:0.0034795293124128754 59:0.8096059119205146 60:-65.75375308516823 61:0.8295533257111383 62:-0.20462147679381767 63:0.8544171516090326 64:-79.85624232518539 65:0.8324040244249222 66:-0.4070210854724803 67:0.9265865442029699 68:-92.0572732202516 69:-0.6556607041703154 70:-0.6179727902924947 71:0.9009890834716066 72:-22.694936954486593 73:-0.5587369479016601 74:-0.7605077259816938 75:0.9436943245714204 76:-12.304329678817282 77:-0.3876950250746213 78:-0.8118203028298054 79:0.8996441721893652 80:-1.5273966533930263 81:-0.20525030739244657 82:-0.7861640144057496 83:0.8125155667624206 84:9.367932879056127 85:-0.03705908327919174 86:-0.7063444504197982 87:0.7073159536532035 88:20.99667210451595 89:0.13683353826163105 90:-0.6835388607095263 91:0.697100273485296 92:-144.67993134459152 93:0.30502476237488585 94:-0.7519556298403418 95:0.8114661883963131 96:-133.92046051458192 97:0.48461878134327663 98:-0.7548063285541259 99:0.896988270188636 100:-123.29775688900195 101:0.6499593067427475 102:-0.6778374632819584 103:0.939101020684161 104:-112.20279405636792 105:0.729778870728699 106:-0.5267504314514074 107:0.9000240092332532 108:-101.82154678389776 109:0.022805589710271842 110:-0.49824344431356765 111:0.49876509974484023 112:-153.3792878149019 113:0.01995489099648786 114:-0.3443057137692327 115:0.3448834907745259 116:-152.68302496151028 117:0.017104192282703882 118:-0.19606938065246574 119:0.19681401226306322 120:-151.01440060487707 121:0.0142534935689199 122:-0.03928095139434683 123:0.041787022164354794 124:-136.0561808839684 125:-0.17959401896839075 126:0.0576428048743085 127:0.1886178798603046 128:-83.7946416825808 129:-0.08837166012730338 130:0.09185118943971626 131:0.12746054807330096 132:-112.10606163054123 133:0.0 134:0.12320887529134004 135:0.12320887529134004 136:24.0 137:0.09122235884108737 138:0.10325398429485218 139:0.13777845994673366 140:-17.459806614654653 141:0.17674332025460676 142:0.08044839458458033 143:0.19419100248430365 144:-41.526358820248184 145:-0.49602157619841253 146:-0.4611843610343759 147:0.677294927573685 148:-23.084342278753766 149:-0.39909781992975724 150:-0.4754378546032958 151:0.620741672084668 152:-16.011178259239692 153:-0.2993233649473179 154:-0.4811392520308637 155:0.5666475594654973 156:-7.886312976010153 157:-0.19099681382352668 158:-0.4554829636068079 159:0.4939073931687798 160:1.250325692636622 161:-0.2993233649473179 162:-0.438378771324104 163:0.5308205195270962 164:-10.32511335725092 165:-0.4019485186435412 166:-0.438378771324104 167:0.5947592443900037 168:-18.517641549567003 169:0.2451600893854223 170:-0.4269759764689681 171:0.4923534847130637 172:-126.13651787353336 173:0.36774013407813344 174:-0.44693086746545596 175:0.57877457313295 176:-116.5520380084958 177:0.46466389034678873 178:-0.43552807261032006 179:0.6368651607867027 180:-109.1461989234968 181:0.5587369479016601 182:-0.4127224829000482 183:0.694641508147651 184:-102.45218743657986 185:0.4589624929192208 186:-0.3956182906173443 187:0.6059376220186491 188:-106.76080986569553 189:0.3591880379367815 190:-0.40417038675869627 191:0.5407122600140938 192:-114.37236314724613 193:-0.35063594179542956 194:0.3313098813975706 195:0.48240211565709384 196:-109.37669597193604 197:-0.22235449967515045 198:0.2971014968321628 199:0.37109408907404895 200:-119.18835606381876 201:-0.11687864726514319 202:0.2799973045494589 203:0.30341243999132966 204:-133.34298852891087 205:-0.03135768585162378 206:0.30565359297351474 207:0.307257910166017 208:-150.1423912150138 209:0.054163275561895624 210:0.29425079811837884 211:0.299194238936676 212:13.57021212242556 213:0.16534052539947083 214:0.3313098813975706 215:0.37027520420768845 216:-2.521535403536376 217:0.3021740636611019 218:0.36836896467676233 219:0.4764502690591049 220:-15.362122155073642 221:0.15108703183055094 222:0.44818852866271375 223:0.47296960622455875 224:5.370730950049818 225:0.03990978199297572 226:0.4766955158005536 227:0.4783632568279912 228:19.21425796165957 229:-0.05131257684811164 230:0.47954621451433754 231:0.4822836845652405 232:-149.89245506511037 233:-0.145385634402983 234:0.4595913235178497 235:0.4820385537938295 236:-138.4459219109701 237:-0.24230939067163831 238:0.413980144097306 239:0.4796805192151198 240:-125.6588591476403 241:-0.2964726662335339 242:0.33701127882513854 243:0.4488570416947646 244:-114.66154285126922 245:-0.12258004469271115 246:0.35126477239405846 247:0.37203871798768035 248:-136.76266461559464 249:-0.034208384565407764 250:0.3712196633905463 251:0.3727925053731168 252:-150.73498755296117 253:0.05131257684811164 254:0.3655182659629784 255:0.36910240218044627 256:16.008864279980884 257:0.24230939067163831 258:0.3712196633905463 259:0.443303371626532 260:-9.134034138490911 261:0.03990978199297572 262:0.3769210608181143 263:0.37902806860043947 264:17.955833697545273 265:-0.045611179420543685 266:0.37977175953189823 267:0.3825009399022269 268:-149.15149050022495 269:-0.13113214083406308 270:0.36266756724919436 271:0.38564673302670865 272:-136.12119038058026 
0.0 0.0 0.002517956873670174 2.0025062901117158E-5 1:-0.8510746038908051 2:-0.5038722426592956 3:0.9890476319724946 4:-31.372668840230705 5:-0.8592885992162403 6:-0.279356370430733 7:0.9035578998842528 8:-43.99055702807998 9:-0.8373846116817465 10:-0.05210249976035862 11:0.8390039680255794 12:-58.43961704294224 13:-0.8127426257054408 14:0.17515137091001579 15:0.831401574673895 16:-74.16161891897913 17:-0.7525066599855825 18:0.38597725092951973 19:0.8457214148629361 20:-89.15428731273578 21:-0.6238207332204307 22:0.5721611449727181 23:0.8464754473770444 24:-104.52668690333246 25:-0.46501682359534985 26:0.7501310436904811 27:0.8825742059084205 28:-120.20464172771696 29:-0.28157092799396327 30:0.9144109501991855 31:0.9567808387167664 32:-134.88503902518545 33:-0.05979305420721235 34:0.9636949221517969 35:0.9655480890730324 36:-148.44959880110144 37:0.16746081646316205 38:0.9363149377336795 39:0.9511723228068261 40:17.859808590207095 41:0.3755486980408543 42:0.8131050078521511 43:0.8956431088298662 44:3.2092079928112156 45:0.5644705905258643 46:0.6570390966688819 47:0.8662144204064478 48:-12.666291846075389 49:0.7068465095000748 50:0.4735932010674954 51:0.8508363579971159 52:-28.17757689438072 53:0.7862484643126152 54:0.25455332572255623 55:0.8264284864828654 56:-44.06028455372334 57:0.8382704347070383 58:0.03277545193580531 59:0.8389109320741525 60:-59.76093854814551 61:0.8875544066596496 62:-0.18900242185094562 63:0.9074550899336482 64:-74.02142482620977 65:0.9067203957523318 66:-0.4217322894049435 67:1.0 68:-86.94400255655661 69:-0.7388166677765238 70:-0.6599381538425648 71:0.9906404168423268 72:-20.227602396064007 73:-0.6101307410113721 74:-0.7886240806077166 75:0.9970894953019274 76:-9.727860986093965 77:-0.42394684696817375 78:-0.805052071258587 79:0.90985700332085 80:0.2283511013016124 81:-0.24871494669222238 82:-0.763982094631411 83:0.8034474255516121 84:9.967301819819312 85:-0.08991103706714149 86:-0.6927941351443058 87:0.6986041141281917 88:20.60546638393167 89:0.1510328258122916 90:-0.6818421413770588 91:0.6983692577931098 92:-139.5102474913367 93:0.3372167198554899 94:-0.7448161055387288 95:0.817597790615884 96:-127.64128136544163 97:0.5234006138986882 98:-0.7612440961895992 99:0.9238185842539884 100:-117.48916195339433 101:0.7013705126164513 102:-0.7037461289115527 103:0.9935689256039861 104:-107.0968692945052 105:0.8081524518471092 106:-0.5695842052627774 107:0.9887044817898439 108:-97.1761034656799 109:0.019608900605328102 110:-0.512086237984731 111:0.5124615342797 112:-149.80709084677142 113:0.005918908396269405 114:-0.3259023439415326 115:0.3259560879369926 116:-150.95953129014796 117:-0.005033085370977555 118:-0.13150445457289908 119:0.13160073525959962 120:25.808181726304525 121:-0.015985079138224514 122:0.06015543635392271 123:0.062243066103672515 124:-137.118720794304 125:-0.21859696383229327 126:0.09848741453928707 127:0.23975905284124374 128:-86.25363050993299 129:-0.1255050168106941 130:0.13681939272465143 131:0.18566382380581037 132:-109.46970705642272 133:-0.024199074463659733 134:0.18062736779363925 135:0.18224116220260556 136:-144.36938574144511 137:0.07710686788337463 138:0.1477713864918984 139:0.16667888810680914 140:0.44452077361879105 141:0.178412810230409 142:0.12039140207378099 143:0.21523294484721137 144:-27.988867802271223 145:-0.5553707721751373 146:-0.501134244217484 147:0.748045603766132 148:-19.938744812697692 149:-0.44037483761904417 150:-0.5476802177282836 151:0.7027685383530623 152:-10.80181955015157 153:-0.31442690929570416 154:-0.5339902255192248 155:0.6196852767650056 156:-2.4906494782308997 157:-0.21038296850685803 158:-0.4545882707066844 159:0.5009106600002153 160:3.1653505865775458 161:-0.3253789030629511 162:-0.44637427538124913 163:0.5523779722984838 164:-8.089706786244122 165:-0.45132683138629115 166:-0.4518502722648726 167:0.6386427618591078 168:-16.966793943637107 169:0.2578147650429495 170:-0.4354222816140022 171:0.506024719159148 172:-121.37010475091108 173:0.378286696482666 174:-0.5066102411011074 175:0.6322616239534793 176:-115.25124261407268 177:0.49875862792238257 178:-0.4956582473338605 179:0.7031623333747992 180:-106.82136450874364 181:0.600064570269417 182:-0.4381602800558139 183:0.7430086941020336 184:-98.13649111335491 185:0.504234624806006 186:-0.4025663003122613 187:0.6452225840749496 188:-100.60285144232034 189:0.3837626933662895 190:-0.4080422971958848 191:0.5601538370132293 192:-108.75634542197855 193:-0.39656686255005635 194:0.29014730546610884 195:0.4913763683186634 196:-98.1909893650728 197:-0.24871494669222238 198:0.29562330234973233 199:0.3863318024707212 200:-111.92529662250966 201:-0.11455302304344715 202:0.2928853039079206 203:0.314490375581873 204:-130.63858511633808 205:-0.018723077580036253 206:0.32574128520966145 207:0.3262789274901309 208:-148.7103516331004 209:0.09627285697605682 210:0.3010992992333558 211:0.3161158822159213 212:10.268951824041167 213:0.23043478062483208 214:0.31752728988422624 215:0.39233119674942485 216:-7.969009787737278 217:0.38102469492447777 218:0.3065752961169793 219:0.48904829038808106 220:-23.179586286035807 221:0.22769678218302034 222:0.446213216649378 223:0.5009511546339488 224:0.9653724455260644 225:0.0880588616506216 226:0.5146631776946715 227:0.5221422694917357 228:18.290711623677083 229:-0.029675071347283213 230:0.5338291667873537 231:0.5346533355103535 232:-148.81825508223645 233:-0.1391950090197528 234:0.5146631776946715 235:0.5331542337924234 236:-136.8659448411811 237:-0.26514293734309285 238:0.446213216649378 239:0.5190443255980244 240:-121.28092960394407 241:-0.3445448921556333 242:0.31752728988422624 243:0.4685453687016428 244:-104.66319110011482 245:-0.12002901992707063 246:0.37228725872046103 247:0.39115823988540577 248:-134.1301756347952 249:-0.018723077580036253 250:0.3887152493713315 251:0.3891659012913188 252:-149.2423904716848 253:0.09627285697605682 254:0.37228725872046103 255:0.3845338294557812 256:13.50103496338447 257:0.3235267276464312 258:0.33121728209328494 259:0.46300586546918693 260:-16.32704073231806 261:0.09079686009243333 262:0.383239252487708 263:0.39384818705940766 264:14.671268816586078 265:-0.02693707290547147 266:0.4024052415803902 267:0.40330581987877 268:-148.1703245381189 269:-0.12824301525250584 270:0.383239252487708 271:0.4041269548154289 272:-133.49825818165735 
0.0 1.5919095851938563E-5 0.0 0.0 1:-0.8512650772386384 2:-0.5241608872093304 3:0.9996983882182553 4:-35.37758814096906 5:-0.8737669335077258 6:-0.3075805206193639 7:0.9263230704003725 8:-47.607082000425606 9:-0.8737669335077258 10:-0.0881874219957615 11:0.8782059413883244 12:-61.23677591923713 13:-0.8681414694404539 14:0.14526933679602058 15:0.880211787682593 16:-76.49950425996846 17:-0.8175122928350073 18:0.3618497033859871 19:0.89401429338511 20:-90.87528085392753 21:-0.6909393513213904 22:0.5559282137068662 23:0.8868220599419767 24:-105.82007575081691 25:-0.5306136254041425 26:0.7331303318259297 27:0.9050032612691102 28:-121.10431957352682 29:-0.3365351150832634 30:0.8962687897768136 31:0.9573680730064583 32:-136.41961699779168 33:-0.10307835629148134 34:0.9553361624831681 35:0.9608810180682203 36:-150.84175434577375 37:0.1331911345339367 38:0.9412725023149884 39:0.9506491476526748 40:14.946051290418637 41:0.34695876909026724 42:0.8231377569022794 43:0.8932727211141899 44:0.144210186315604 45:0.5354118153438745 46:0.6909393513213907 47:0.8741069724091253 48:-14.77225542285079 49:0.6901120771938506 50:0.5137372332023272 51:0.8603375057889744 52:-30.33505195868544 53:0.7773067702365644 54:0.3027823306796326 55:0.8341959930540241 56:-45.717720387083546 57:0.8251232148083751 58:0.08901469612330201 59:0.8299107998704631 60:-60.8427161558821 61:0.8729396593801859 62:-0.11912747436575671 63:0.8810306487674302 64:-74.77098127446257 65:0.9010669797165453 66:-0.33852057298935917 67:0.9625579880051596 68:-87.590626018213 69:-0.6853138872541186 70:-0.6676102209247629 71:0.9567437123632229 72:-22.749700198986027 73:-0.5728046059086814 74:-0.8138722866738312 75:0.9952352563921208 76:-12.137943705900774 77:-0.38997702372234605 78:-0.8448123390438264 79:0.9304783539836057 80:-1.7786984289560763 81:-0.2071494415360107 82:-0.8054340905729234 83:0.8316459375153066 84:8.576703496311978 85:-0.05244917968603462 86:-0.7210521295638455 87:0.7229571840699105 88:18.839644356498056 89:0.2119476314757427 90:-0.7013630053283939 91:0.7326881080865542 92:-140.18550258520997 93:0.397587945695714 94:-0.7604303780347484 95:0.858097042531093 96:-129.3973637970391 97:0.5860409919493212 98:-0.7491794499002048 99:0.9511644928179972 100:-118.9659249463414 101:0.751992181933841 102:-0.6591720248238551 103:1.0 104:-108.23675723169444 105:0.8279359468420111 106:-0.4904081028056993 107:0.9622775272085817 108:-97.63936775744003 109:0.06568556572667439 110:-0.504471762973879 111:0.5087301378754818 112:-149.58144618145135 113:0.04880917352485882 114:-0.3244569128211795 115:0.3281076404133715 116:-148.44494743846514 117:0.02912004928940732 118:-0.14162933063484415 119:0.14459199343909576 120:-145.38147564720532 121:0.012243657087591746 122:0.03838551951785529 123:0.04029088293316721 124:5.309110379966739 125:-0.22121310170419034 126:0.06651283985421458 127:0.2309960913761548 128:-83.73462170038268 129:-0.12558021256056875 130:0.11432928442602537 131:0.1698280750174265 132:-109.31499272622409 133:-0.0215091273160394 134:0.16777119306510802 135:0.16914436372633684 136:-149.69424046668922 137:0.09100015402939775 138:0.14526933679602058 139:0.17141822612117352 140:-9.064003792819562 141:0.1950712392739271 142:0.12276748052693315 143:0.23048783626646469 144:-34.815867793380164 145:-0.5165499652359629 146:-0.504471762973879 147:0.7220219014844688 148:-22.67775025443489 149:-0.39560248778961793 150:-0.5185354231420586 151:0.6522118623564345 152:-14.34083514929133 153:-0.2830932064441808 154:-0.504471762973879 155:0.5784751707487721 156:-6.2997284521109265 157:-0.18183485323328732 158:-0.4594680504357041 159:0.49414046911941734 160:1.408777408323445 161:-0.2915314025450886 162:-0.4538425863684322 163:0.539410466965088 164:-9.715163246559236 165:-0.40966614795779754 166:-0.4594680504357041 167:0.6155787863090856 168:-18.72050413679687 169:0.29632959248482055 170:-0.40883887383025735 171:0.5049360871803608 172:-121.06510809827513 173:0.42290253399843736 174:-0.4341534621329807 175:0.6060823227453124 176:-112.75210216711196 177:0.5297863512766027 178:-0.4116516058638933 179:0.6709177465303016 180:-104.84772001277679 181:0.6226065083865883 182:-0.3722733573929903 183:0.7254145827800733 184:-97.87635056033113 185:0.5241608872093307 186:-0.3497715011239029 187:0.6301466009418294 188:-100.7151020916076 189:0.41446433789752957 190:-0.36664789332571845 191:0.5533636824630118 192:-108.49696186741653 193:-0.432168004226885 194:0.25215315407418587 195:0.5003502742949274 196:-97.26189234579532 197:-0.274655010343273 198:0.2549658861078218 199:0.3747572251276954 200:-109.87095928066913 201:-0.13401840866147655 202:0.26059135017509366 203:0.2930337619562511 204:-129.78388844269256 205:-0.038385519517854974 206:0.2943441345787248 207:0.2968365167386824 208:-149.56996890094683 209:0.08256195792848997 210:0.28590593847781703 211:0.2975881088919163 212:6.892702602236071 213:0.2231985596102864 214:0.31684599084781223 215:0.3875680313550622 216:-12.162346044479953 217:0.3750860894266265 218:0.3337223830496278 219:0.5020559763907625 220:-25.339803442886208 221:0.20632216740847084 222:0.45185712846233683 223:0.4967330282016265 224:-1.541879989119792 225:0.057247369625766605 226:0.49686084100051164 227:0.5001479347641105 228:16.427469940187862 229:-0.06932557188785018 230:0.5024863050677836 231:0.5072460169368027 232:-149.14477149742373 233:-0.17620938916601547 234:0.47435898473142424 235:0.5060298362998844 236:-136.62155775299124 237:-0.3055950627132682 238:0.4012279518568901 239:0.5043532608261805 240:-119.70530710090983 241:-0.38153882762143826 242:0.2746550103432733 243:0.4701140836960803 244:-102.74865057861331 245:-0.14526933679602025 246:0.3449733111841715 247:0.37431239044750686 248:-134.16388883203217 249:-0.044010983585126826 250:0.3702878994868949 251:0.37289421446644494 252:-150.2218443419007 253:0.0769364938612181 254:0.367475167453259 255:0.375442702396062 256:11.17506315328707 257:0.31320598468663613 258:0.34778604321780743 259:0.46803111082557747 260:-19.005278799817766 261:0.06849829776031031 262:0.3759133635541667 263:0.38210322387368995 264:12.672963067776067 265:-0.05526191171967054 266:0.3815388276214386 267:0.38552011084981613 268:-148.75861683502734 269:-0.15652026493056398 270:0.3534115072850793 271:0.38652074564691297 272:-133.11221862326977 
-0.0 0.0 0.0016255542688551475 0.0 1:-0.7882748479038799 2:-0.49537867300906124 3:0.9310087354639072 4:-30.853351523084193 5:-0.7976541461816514 6:-0.27496516348143213 7:0.8437167641152746 8:-43.98004286788723 9:-0.7765507250566657 10:-0.05924130309268877 11:0.7788071395269517 12:-58.637484151766344 13:-0.736688707376137 14:0.1635170310043832 15:0.7546178310933369 16:-75.51460871570877 17:-0.6686887948622939 18:0.3768960668236837 19:0.7675906132578418 20:-92.40710752353827 21:-0.5420682681123794 22:0.5879302780735414 23:0.7996874509269143 24:-110.32412532576694 25:-0.3873098465291504 26:0.7731714190595276 27:0.8647560121033896 28:-126.39203523619031 29:-0.2114480038209357 30:0.9255850160733137 31:0.9494302924908677 32:-140.1317218957069 33:-0.0051034417099637686 34:0.9677918583232852 35:0.9678053141795228 36:-152.6978658601612 37:0.20358594497045102 38:0.9302746652121994 39:0.9522910215502303 40:14.655719123109975 41:0.39586155966476577 42:0.7872403664761847 43:0.8811661415588882 44:0.3045946317192545 45:0.5670337532340948 46:0.61137852376797 47:0.8338530905569916 48:-15.844922405079963 49:0.7077232274006665 50:0.40503396165699806 51:0.8154291365274962 52:-33.21725250093253 53:0.7897920873311667 54:0.18462045212936898 55:0.8110833819992702 56:-49.84288852317789 57:0.8437230524283525 58:-0.04048270653714586 59:0.8446936952100385 60:-65.74700414563397 61:0.871860947261667 62:-0.260896216064775 63:0.9100595293259276 64:-79.65931947629772 65:0.8765505964005527 66:-0.4813097255924041 67:1.0 68:-91.77097724303901 69:-0.6921370405567225 70:-0.5915164803562186 71:0.9104644031721543 72:-22.482026466986838 73:-0.5983440577790081 74:-0.7275163053839047 75:0.9419636861784512 76:-12.435506754781265 77:-0.42717186420967906 78:-0.7650334984949905 79:0.8762146171982392 80:-2.1776868796401203 81:-0.2559996706403501 82:-0.722826656245019 83:0.7668208437088304 84:7.497652688302608 85:-0.09889642448767828 86:-0.6454474454534045 87:0.6529800208419647 88:18.288803640222454 89:0.11917226047050797 90:-0.6407577963145188 91:0.65174579492582 92:-142.46414309356953 93:0.2879996294703941 94:-0.7064128842589189 95:0.7628649615902471 96:-130.81961880242258 97:0.4638614721786088 98:-0.7462749019394476 99:0.8786886221161843 100:-121.13618996188288 101:0.6420681394562664 102:-0.6946887614117045 103:0.945961928904414 104:-110.25424961398667 105:0.7475852450811952 106:-0.5586889363840185 107:0.9332829293954843 108:-99.77167108314133 109:0.0019310319983648204 110:-0.4977234975785041 111:0.497727243504269 112:-152.7777090512587 113:-0.0051034417099637686 114:-0.32655130400917515 115:0.3265911806331881 116:26.10463726592495 117:-0.012137915418292356 118:-0.15537911043984615 119:0.1558524845864817 120:22.53323588580605 121:-0.01682756455717808 122:0.020482732268368567 123:0.02650866368008133 124:-113.59522562461567 125:-0.19972388097372137 126:0.09082746935165445 127:0.21940660386604355 128:-87.45438818360998 129:-0.11531019647377833 130:0.12599983789329738 131:0.17079929906167232 132:-110.53645143131718 133:-0.021517213696063808 134:0.15648255729605462 135:0.15795499746179317 136:-145.1706137026469 137:0.07462059365109357 138:0.1306894870321831 139:0.15049244172906753 140:-2.7253408738336162 141:0.16841357642880808 142:0.10724124133775449 143:0.1996592511485618 144:-30.512110923796314 145:-0.5397234435429364 146:-0.5047579712868328 147:0.7389736159616557 148:-19.91734011757196 149:-0.44124081162633627 150:-0.5539992872451328 151:0.7082433650326582 152:-11.536080163635205 153:-0.3122754603069788 154:-0.55165446267569 155:0.6339074138231384 156:-2.512931496606612 157:-0.2044135301126071 158:-0.47662007645351834 159:0.5186054266700797 160:3.7864024725565315 161:-0.32165475858475023 162:-0.4508270061896469 163:0.5538111349820748 164:-8.506989107435572 165:-0.44593046076522197 166:-0.448482181620204 167:0.6324478184554839 168:-17.836538045312103 169:0.2364134889426511 170:-0.46020630446741834 171:0.5173791457196503 172:-125.8098914906187 173:0.35834436655367996 174:-0.5282062169812614 175:0.6382887220517165 176:-118.84634282857678 177:0.48027524416470885 178:-0.516482094134047 179:0.7052787135016633 180:-110.08033381331714 181:0.581102700650752 182:-0.4625511290368612 183:0.7427206040476274 184:-101.51938992189363 185:0.4826200687341517 186:-0.4156546376480039 187:0.63693870077367 188:-103.73654656273277 189:0.35834436655367996 190:-0.4250339359257754 191:0.5559357262573743 192:-112.86589957509153 193:-0.32868923229307884 194:0.3768960668236837 195:0.5000872490001882 196:-111.908475049826 197:-0.2302066003764786 198:0.31124097887928354 199:0.38712533602262506 200:-116.51185081220373 201:-0.12703431932099263 202:0.27606861033764063 203:0.3038940537409444 204:-128.29024584656923 205:-0.03793098568216385 206:0.3088961543098407 207:0.31121631355414103 208:-145.99939570836898 209:0.060551646234436395 210:0.29248238232374063 211:0.298684525597613 212:15.303483203242237 213:0.17779287470657953 214:0.3417236982820408 215:0.3852082453219099 216:-0.4871730011502322 217:0.2926892786092798 218:0.3956546633792266 219:0.49214797212479683 220:-9.492534599447481 221:0.1731032255676938 222:0.47537869874028393 223:0.5059146508235807 224:6.991536345466059 225:0.060551646234436395 226:0.5222751901291413 227:0.5257735977453898 228:20.386755907409977 229:-0.04262063482104957 230:0.526964839268027 231:0.5286855968695636 232:-148.3760130038952 233:-0.13875844216820696 234:0.5105510672819269 235:0.5290711649444357 236:-137.7953194394027 237:-0.23255142494592146 238:0.45193045304585533 239:0.5082531845789169 240:-125.77085100657752 241:-0.2771030917653359 242:0.37455124225424086 243:0.46591282075094603 244:-116.5049672542959 245:-0.1293791438904355 246:0.36751676854591225 247:0.3896248683493543 248:-133.6060947647008 249:-0.03558616111272098 250:0.3839305405320123 251:0.38557623735902563 252:-147.704438621274 253:0.060551646234436395 254:0.37924089139312656 255:0.3840444708186196 256:17.928417042196088 257:0.23406866437320825 258:0.3956546633792266 259:0.4597072462939721 260:-3.608490988026439 261:0.05586199709555067 262:0.3839305405320123 263:0.38797322416979557 264:18.721541676586384 265:-0.04027581025160671 266:0.39330983880978376 267:0.3953666275699069 268:-147.15316381395985 269:-0.13172396845987835 270:0.372206417684798 271:0.39482758418399455 272:-133.51111257781253 
-6.443861907772076E-5 0.0032481515808523123 0.043049203074198836 6.424887610173668E-5 1:-0.7838527941182253 2:-0.4861610076926664 3:0.922376131655464 4:-32.19199208788598 5:-0.7908816279643843 6:-0.26592421384635007 7:0.8343916568143488 8:-45.41541511218442 9:-0.7697951264259072 10:-0.0503733092308064 11:0.7714415123338522 12:-60.256057103991516 13:-0.7393368464258847 14:0.16517759538473725 15:0.7575636016203895 16:-76.59381695207485 17:-0.6831061756566125 18:0.37604261076950823 19:0.7797705382576021 20:-92.83231124231096 21:-0.5683018895026817 22:0.5775358476927338 23:0.810255942886248 24:-109.4617192843049 25:-0.420696378733342 26:0.7391990261543916 27:0.8505296252024078 28:-124.35472939022421 29:-0.2520043664255252 30:0.8750898138467995 31:0.9106527235977262 32:-137.93489934863334 33:-0.04113935104075421 34:0.9219487061545264 35:0.9228661132494028 36:-151.44503290405544 37:0.1767544981901758 38:0.9008622046160493 39:0.9180385963216087 40:14.899243003532078 41:0.3735618458826287 42:0.7907438076928911 43:0.8745422929189239 44:0.713092422926195 45:0.5563115258827636 46:0.633766518462006 47:0.8432926619824586 48:-15.276215702637323 49:0.7062599812674896 50:0.4416450600003259 51:0.8329787033067809 52:-31.981051142013875 53:0.7999777658829433 54:0.23546593384632758 55:0.8339116451454486 56:-47.59870328760319 57:0.851522547421443 58:0.0035144169230795163 59:0.8515297997682834 60:-63.763529322341135 61:0.8843237720368518 62:-0.22843710000016856 63:0.9133520911707448 64:-78.48393135488462 65:0.8936955504983971 66:-0.4486738938464849 67:1.0 68:-90.65863414153941 69:-0.6760773418104534 70:-0.5775358476927338 71:0.8891727770684691 72:-23.4945490163704 73:-0.5823595571949997 74:-0.7298272476928462 75:0.9336972021652796 76:-12.587824521208788 77:-0.39960987719486485 78:-0.7720002507698004 79:0.8692942201236182 80:-1.3674037207733818 81:-0.22154608642550272 82:-0.7298272476928462 83:0.7627125801279087 84:9.113828049869014 85:-0.05519701873307228 86:-0.6501671307697104 87:0.6525059454214475 88:21.147415528315108 89:0.12052382742090353 90:-0.6571959646158695 91:0.6681560662626412 92:-143.60794541058328 93:0.29155878434410665 94:-0.7251413584620735 95:0.7815603076413455 96:-132.09633871122247 97:0.4766514089596278 98:-0.7579425830774823 99:0.895362231113958 100:-121.83522465136534 101:0.6594010889597627 102:-0.6993689676928238 103:0.9612110845662605 104:-110.68485509721859 105:0.7648335966521481 106:-0.5470775676927113 107:0.9403532823574521 108:-99.57574872038533 109:0.015091319728518049 110:-0.49553278615421176 111:0.49576253396651926 112:-152.25561138160623 113:0.005719541266972671 114:-0.32918371846178135 115:0.32923340300253545 116:-153.00459048804373 117:-0.005995181809959049 118:-0.1628346507693509 119:0.16294497751115541 120:23.891459026897707 121:-0.015366960271504426 122:0.008200306153852205 123:0.017418050665987332 124:-92.08582083822195 125:-0.20045958488702562 126:0.09488925692314694 127:0.22178371502999406 128:-89.33093409980158 129:-0.11845652334850357 130:0.1253475369231694 131:0.17246435265445406 132:-110.61900874053337 133:-0.02942462796382249 134:0.1511199276924192 135:0.15395792047365206 136:-142.98177455712042 137:0.06897904588240396 138:0.1347193153847148 139:0.15135191676544119 140:-1.1133752304014521 141:0.16503977511324408 142:0.12066164769239672 143:0.20444402802056666 144:-27.829220631530127 145:-0.5331577202718865 146:-0.5072475092311435 147:0.7359056938947505 148:-20.426596966560098 149:-0.4324111018102737 150:-0.5775358476927338 151:0.7214755826352958 152:-10.822834321521476 153:-0.2988632587332521 154:-0.5775358476927338 155:0.6502821716692095 156:-1.3606616029494916 157:-0.18640191719470756 158:-0.4721033400003483 159:0.5075699344655347 160:4.454263919938043 161:-0.3058920925794111 162:-0.45101683846187124 163:0.5449643666137748 164:-8.14620567962394 165:-0.44178288027181906 166:-0.4486738938464849 167:0.6296668772618036 168:-18.556611702710526 169:0.2540716704979252 170:-0.4580456723080303 171:0.5237921836661193 172:-124.9834671536535 173:0.37590479049801506 174:-0.5541064015388704 175:0.6695807014436068 176:-119.84710163122767 177:0.5094526335750367 178:-0.5470775676927113 179:0.7475532428724483 180:-111.03954350991873 181:0.6101992520366495 182:-0.46741745076957564 183:0.7686495953749115 184:-101.45240024954994 185:0.511795578190423 186:-0.4158726692310761 187:0.6594579523128441 188:-103.096472652039 189:0.37590479049801506 190:-0.4275873923080078 191:0.5693288940323675 192:-112.68033599604959 193:-0.3433792064255926 194:0.3830714446156673 195:0.5144443712253094 196:-112.12745078870627 197:-0.24028964334859346 198:0.31512605076946326 199:0.3962871945624191 200:-116.67378627942738 201:-0.13485713565620797 202:0.2682671584617364 203:0.3002560829467594 204:-127.31145405678038 205:-0.04816818488691324 206:0.30341132769253154 207:0.30721101511411436 208:-144.97926723080678 209:0.04554959972854052 210:0.28466777076944083 211:0.2882889275540654 212:16.909182139596354 213:0.16738271972863042 214:0.3526131646156448 215:0.39032424818862205 216:0.6066725924936094 217:0.2962446735748793 218:0.41821561384646244 219:0.5125087377659626 220:-9.311999249838657 221:0.16035388588247138 222:0.49318984153882545 223:0.5186034983633454 224:7.988778942122337 225:0.038520765882381486 226:0.5259910661542343 227:0.5273997071275573 228:21.811441769587347 229:-0.06222585257923131 230:0.5259910661542343 231:0.5296590020034402 232:-147.25314676273547 233:-0.16062952642545777 234:0.5095904538465299 235:0.5343072855681261 236:-136.5044719374623 237:-0.2520043664255252 238:0.4557027276926439 239:0.520740988135221 240:-125.05733322137397 241:-0.29183442488709305 242:0.3807285000002809 243:0.47970983131643685 244:-116.52926359755077 245:-0.141885969502367 246:0.37135672153873556 247:0.39753923450852574 248:-133.089413407954 249:-0.050511129502299586 250:0.39244322307721263 251:0.39568049932089017 252:-146.6658171740504 253:0.04320665511315418 254:0.38775733384643996 255:0.39015710296977363 256:19.64192776954846 257:0.24235694742099342 258:0.4158726692310761 259:0.4813387237451421 260:-4.232229094399841 261:0.038520765882381486 262:0.3830714446156673 263:0.38500335204267955 264:20.25777372594517 265:-0.05519701873307228 266:0.38775733384643996 267:0.3916662620506374 268:-145.8984100990829 269:-0.1465718587331397 270:0.3666708323079629 271:0.39488075293422653 272:-132.21158738489203 
-0.0012473369080236464 0.0033501752992581907 0.046663747784015074 0.0 1:-0.8492277249345594 2:-0.36319672160120964 3:0.9236339033293408 4:-50.84462962667962 5:-0.8728325364422295 6:-0.154125533961846 7:0.886335893942697 8:-63.98589212897723 9:-0.8795767683015638 10:0.05494565367751763 11:0.8812912777248353 12:-77.57452439951315 13:-0.882948884231231 14:0.27413318910588275 15:0.9245256824634658 16:-91.24824059935165 17:-0.8458556090048923 18:0.4933207245342478 19:0.9792022510901578 20:-104.2516332741821 21:-0.731203667396209 22:0.6821592165956085 23:1.0 24:-117.01260313012315 25:-0.5491094071941827 26:0.8136717378526276 27:0.981622553759469 28:-129.98640783141832 29:-0.340038219554819 30:0.9013467520239736 31:0.9633545339812223 32:-143.3307296662939 33:-0.08038529297044804 34:0.9384400272503123 35:0.9418765736929184 36:-159.10408490578618 37:0.17926763361392292 38:0.9249515635316437 39:0.9421636160143142 40:5.03132454638363 41:0.4321763283389596 42:0.8406486652899648 43:0.9452335992919122 44:-11.207633929667097 45:0.6345032841189889 46:0.7091361440329458 47:0.9515610796641996 48:-25.820755469084496 49:0.7828763850243438 50:0.5304139997605866 51:0.9456397016680337 52:-39.88159506295588 53:0.8638071673363554 54:0.3179706961915557 55:0.9204717192712663 56:-53.79114731813645 57:0.9076446744220285 58:0.10552739262252496 59:0.9137586582902396 60:-67.36827550403956 61:0.9312494859296986 62:-0.1001716790871715 63:0.9366215726404507 64:-80.13952618466489 65:0.9379937177890328 66:-0.3092428667265351 67:0.9876554891423108 68:-92.24663514652674 69:-0.6941103921698702 70:-0.5520352136625704 71:0.8868664576144996 72:-35.504303805557605 73:-0.5963190302095228 74:-0.7037804304975923 75:0.9224441880902075 76:-24.27488456072045 77:-0.4142247700074964 78:-0.7779669809502697 79:0.8813709681721089 80:-12.03285412498024 81:-0.2186420460868014 82:-0.7678506331612682 83:0.7983726818743134 84:0.10593300066456379 85:-0.03317566995510786 86:-0.6970361986382579 87:0.6978252555540272 88:13.275044683751005 89:0.12194166280958128 90:-0.6801756189899222 91:0.6910200010108892 92:-153.83600773194865 93:0.3006638070819405 94:-0.7476179375832653 95:0.8058109613831655 96:-142.09186410335582 97:0.4996186469323027 98:-0.7509900535129325 99:0.9020004727481147 100:-130.3649724697354 101:0.6850850230639962 102:-0.6700592712009208 103:0.9582906217577762 104:-118.36473415327853 105:0.7963648487430124 106:-0.5115698225065645 107:0.9465202880091259 108:-106.71592747720707 109:0.02415030084923378 110:-0.5284304021549002 111:0.5289819722378997 112:-161.383291835938 113:0.02415030084923378 114:-0.40028999682754834 115:0.4010178532076934 116:-160.5474153709707 117:0.020778184919566622 118:-0.2755217074298636 119:0.27630407929239675 120:-159.68726151604483 121:0.017406068989899468 122:-0.14063707024317737 123:0.1417101152503432 124:-156.9446169266966 125:-0.19840935050879846 126:0.031340842169847546 127:0.20086940722080737 128:-82.97630342805392 129:-0.10061798854845097 130:0.05157353774785047 131:0.11306550939771672 132:-101.13821462975653 133:5.454893415636917E-4 134:0.07180623332585341 135:0.07180830525133329 136:15.564750379030002 137:0.10170896723157835 138:0.05831776960718479 139:0.11724195608770337 140:-44.170953094095765 141:0.19950032919192584 142:0.041457189958849006 143:0.20376231238129114 144:-62.2607195707937 145:-0.5457372912645154 146:-0.4104063446165498 147:0.6828342103162736 148:-37.05603598278416 149:-0.4378295815151665 150:-0.44412750391322137 151:0.6236537358037185 152:-28.59086644248361 153:-0.32654975583615037 154:-0.4542438517022228 155:0.5594392012059223 156:-19.711846506432813 157:-0.19166511864946414 158:-0.4238948083352184 159:0.4652121303668519 160:-8.330225691116098 161:-0.31980552397681605 162:-0.40028999682754834 163:0.5123550084914604 164:-22.622567215150134 165:-0.43445746558549936 166:-0.39017364903854684 167:0.5839424336413912 168:-32.07390895868228 169:0.25345418406660036 170:-0.4171505764758841 171:0.4881123096942225 172:-132.71778711519045 173:0.38833882125328656 174:-0.4508717357725557 175:0.5950566042074898 176:-123.26146091378344 177:0.5029907628619699 178:-0.43738327205388705 179:0.6665612006387942 180:-115.00908690157024 181:0.6108984726113188 182:-0.4036621127572155 183:0.7322158459870021 184:-107.45544855570793 185:0.49287441507296836 186:-0.3800573012495454 187:0.6223895414180803 188:-111.63595066050185 189:0.37822247346428506 190:-0.39354576496821403 191:0.5458301096109106 192:-120.13744586446231 193:-0.39399207442949347 194:0.3213428121212229 195:0.5084200602014353 196:-113.2009359422465 197:-0.22875839387580288 198:0.26401684131688125 199:0.3493355053062603 200:-123.0925826328875 201:-0.10399010447811813 202:0.22355145016087538 203:0.24655464444702774 204:-139.05342172409706 205:-0.01294297437710493 206:0.24041202980921117 207:0.240760180808022 208:-160.9183630650865 209:0.06461569200523964 210:0.23366779794987685 211:0.24243726498222268 212:0.542387233872887 213:0.18601186547325724 214:0.2842495368948842 215:0.33970312527528695 216:-17.200590022954266 217:0.34112919823794635 218:0.3651803192068959 219:0.49972572019710426 220:-27.049728283991136 221:0.17589551768425576 222:0.3955293625739003 223:0.43287724564768726 224:-7.975151466936438 225:0.05112722828657102 226:0.3921572466442332 227:0.395476041711572 228:8.571999228500445 229:-0.036547785884775016 230:0.38541301478489887 231:0.3871420057532688 232:-158.58297788614337 233:-0.13096703191545536 234:0.37192455106623024 235:0.39430982125044867 236:-144.60113454016474 237:-0.24561897352413864 238:0.36180820327722873 239:0.43730293403286014 240:-129.82878466234524 241:-0.32654975583615037 242:0.3179706961915557 243:0.4557851540728285 244:-118.23739443586967 245:-0.11073433633745243 246:0.2842495368948842 247:0.3050571954061273 248:-142.71573634644594 249:-0.016315090306772084 250:0.2977380006135528 251:0.298184672947947 252:-160.86351129787113 253:0.06124357607557249 254:0.2977380006135528 255:0.30397153258139226 256:4.37659830374804 257:0.28043111150393757 258:0.3584360873475616 259:0.4551022269912143 260:-22.038705770873214 261:0.05112722828657102 262:0.30785434840255427 263:0.3120709747839879 264:6.570607257490778 265:-0.029803554025440705 266:0.30111011654321995 267:0.30258148343416336 268:-158.34733705149483 269:-0.1208506841264539 270:0.2909937687542185 271:0.31509087785528717 272:-141.44672495228428 
-0.0 0.0014001106338678388 0.0 0.0 1:-0.849829660559172 2:-0.3324256387637385 3:0.9125334280307746 4:-53.63618383217987 5:-0.8700577978620214 6:-0.1267729095181026 7:0.8792450979153624 8:-66.70998161109858 9:-0.8768005102963046 10:0.08225117594467485 11:0.8806499820020108 12:-80.3591369550247 13:-0.8700577978620214 14:0.29801797384173545 15:0.9196821648554697 16:-93.90769811497906 17:-0.8228588108220394 18:0.513784771738796 19:0.9700883538204896 20:-106.98024136561727 21:-0.7116040556563675 22:0.7025807198987241 23:1.0 24:-119.63442398112552 25:-0.5329221761478642 26:0.8340636123672454 27:0.9897818725887405 28:-132.42359152518577 29:-0.3205267344679452 30:0.9284615864472093 31:0.982231288962408 32:-145.95412421884095 33:-0.07104637439946887 34:0.9655465048357667 35:0.9681568263023685 36:-160.79167378108866 37:0.18180534188614902 38:0.9419470113157756 39:0.9593317228493289 40:4.075665053130379 41:0.42791434573748377 42:0.8644058183215195 43:0.9645248084088011 44:-11.337191642822376 45:0.6369384312002613 46:0.7329229258529982 47:0.9710131720943693 48:-25.9919062978244 49:0.7819067485373488 50:0.5542410463444949 51:0.958416037460397 52:-39.6697399346189 53:0.8661906539658881 54:0.34521696088171744 55:0.9324489257317325 56:-53.27043577765994 57:0.9133896410058702 58:0.1260788067675153 59:0.9220501623082947 60:-67.140898597128 61:0.9369891345258611 62:-0.08968799112954533 63:0.941271785390583 64:-80.46765681260769 65:0.9471032031772858 66:-0.2987120765923228 67:0.9930928366324936 68:-92.50503930227146 69:-0.7183467680906507 70:-0.5313356555750912 71:0.8934985495856695 72:-38.51097916051912 73:-0.6172060815764036 74:-0.6931607539978867 75:0.9281245487636974 76:-26.682594583171166 77:-0.43178148963361707 78:-0.777444659426426 79:0.8893005415836072 80:-14.047158011915066 81:-0.2227574041708396 82:-0.7707019469921429 83:0.8022483108180475 84:-1.1209777012198572 85:-0.03733281222805315 86:-0.6931607539978867 87:0.6941653763706268 88:11.917096220564133 89:0.11100686132617602 90:-0.6864180415636035 91:0.6953360705770282 92:-155.81371412093296 93:0.2930600970518209 94:-0.753845165906435 95:0.8088057582909034 96:-143.75622304213482 97:0.4987128262974568 98:-0.7572165221235766 99:0.9066925302937718 100:-131.63057068829178 101:0.6875087744573848 102:-0.6661899042607541 103:0.9573282109573749 104:-119.09774580037953 105:0.7886494609716319 106:-0.500993449620817 107:0.9343245736112326 108:-107.42595486281954 109:0.02335159968049514 110:-0.5313356555750912 111:0.5318485461981166 112:-162.48353480026287 113:0.02335159968049514 114:-0.40996683175799464 115:0.41063134360314724 116:-161.73997049965615 117:0.02335159968049514 118:-0.28859800794089807 119:0.28954120155012963 120:-160.3740510711993 121:0.016608887246211998 122:-0.1537437592552352 123:0.15463828324670803 124:-158.8342673183218 125:-0.20252926686799017 126:0.02156676403612655 127:0.20367432152599785 128:-81.07835801706621 129:-0.10475993657088459 130:0.04179490133897598 131:0.11278944138646356 132:-96.74996442837511 133:-2.478938394958616E-4 134:0.06202303864182541 135:0.062023534031212926 136:-164.77100130125143 137:0.10089279267475129 138:0.048537613773259124 139:0.11196095553590289 140:-49.308672934889 141:0.19866212297185687 142:0.031680832687551265 143:0.20117234964940336 144:-65.93928256993281 145:-0.5497789572335721 146:-0.42008090040941937 147:0.6918994614144619 148:-37.61689698669257 149:-0.4418955582850418 150:-0.45042310636369354 151:0.6309933907564865 152:-29.452462824704597 153:-0.33738351555365304 154:-0.46727988744940135 155:0.5763489652823776 156:-20.82988373408319 157:-0.20590062308513174 158:-0.43356632527798566 159:0.47997377532725843 160:-10.403040433336713 161:-0.3272694469022283 162:-0.40996683175799464 163:0.5245742025847042 164:-23.599763104255153 165:-0.4385242020679002 166:-0.3998527631065699 167:0.5934523636849441 168:-32.640984795662625 169:0.2424897537946973 170:-0.4301949690608441 171:0.49383093473442263 172:-135.5911709389627 173:0.37397264626321863 174:-0.4639085312322598 175:0.5958747062119577 176:-126.12651641440631 177:0.4818560452117489 178:-0.45042310636369354 179:0.6595954995703246 180:-118.06893379964407 181:0.5863680879431377 182:-0.4133381879751362 183:0.717409222269034 184:-110.18048714246837 185:0.4717419765603242 186:-0.39648140688942834 187:0.6162288523414511 188:-115.04578995011528 189:0.36048722139465234 190:-0.4032241193237115 191:0.5408703423124805 192:-123.2029021892934 193:-0.37783979015935193 194:0.31150339871030175 195:0.48969099893272733 196:-114.50327833112712 197:-0.2227574041708396 198:0.25081898680175346 199:0.33545644315348744 200:-123.39107376143046 201:-0.10138858035374301 202:0.21373406841319614 203:0.23656266870874662 204:-139.62183885838598 205:-0.013733318708062148 206:0.23059084949890402 207:0.23099944570358474 208:-161.5916564642692 209:0.07055058672047715 210:0.22384813706462087 211:0.2347027348666923 212:-2.4933739355199975 213:0.1952907667547153 214:0.27441848032174443 215:0.3368144681003776 216:-20.437674992934603 217:0.34700179652608604 218:0.35870238575028374 219:0.4990767960297058 220:-29.050121881781074 221:0.1851766981032906 222:0.3890445917045579 223:0.4308666891916842 224:-10.45342430385638 225:0.06043651806905243 226:0.38230187927027476 227:0.38704947953704144 228:6.0166899960024125 229:-0.030590099793770007 230:0.3755591668359916 231:0.3768029219631092 232:-160.34341565265947 233:-0.12161671765659245 234:0.3654450981845669 235:0.385150289887845 236:-146.5930390179748 237:-0.23961418525654746 238:0.3519596733160006 239:0.42578230284602586 240:-130.75296168968418 241:-0.31715537825080364 242:0.3081320424931602 243:0.4421910102709201 244:-119.17323912833712 245:-0.10813129278802616 246:0.277789836538886 247:0.29809322327807264 248:-143.73123815878213 249:-0.01710467492520372 250:0.2912752614074523 251:0.29177705155182543 252:-161.6392563371013 253:0.06717923050333557 254:0.2912752614074523 255:0.298921941180302 256:2.012506005102182 257:0.2930600970518209 258:0.34521696088171744 259:0.452834374318505 260:-25.328449941929975 261:0.05706516185191086 262:0.29801797384173545 263:0.3034322748652788 264:4.1600858087262935 265:-0.023847387359486865 266:0.2879039051903107 267:0.288889869167655 268:-160.264938828288 269:-0.11487400522230931 270:0.277789836538886 271:0.3006047743468426 272:-142.53351271272936 
-0.0 9.212019871933253E-5 9.833043576855942E-4 1.6047572927437233E-5 1:-0.8921252017373292 2:-0.292513258163508 3:0.9388564223438542 4:-58.84652911009255 5:-0.9126453890362823 6:-0.09415144760696124 7:0.9174890196703576 8:-71.11001826706826 9:-0.9126453890362823 10:0.1076303941660777 11:0.9189700255598834 12:-83.7259577830164 13:-0.905805326603298 14:0.3128322671556088 15:0.9583043968784791 16:-96.05305358506556 17:-0.8442447647064387 18:0.5043540152791712 19:0.9834237110536092 20:-107.85420450589702 21:-0.7279637033457044 22:0.685615669753257 23:1.0 24:-120.28404533967321 25:-0.5432820176551264 26:0.8189968871964523 27:0.9828078408035333 28:-133.44167284991318 29:-0.3380801446655952 30:0.9181777924747256 31:0.9784419465716248 32:-146.78590394505258 33:-0.08841786586166568 34:0.9592181670726319 35:0.9632845950422496 36:-161.73352822146137 37:0.16808447537524823 38:0.9523781046396474 39:0.9670969160633178 40:2.9909845392577097 41:0.3972265668802247 42:0.8566172305778663 43:0.9442362125857825 44:-11.877879129741615 45:0.6024284398697558 46:0.7232360131346711 47:0.9412706071363548 48:-26.793027718692436 49:0.752909813395412 50:0.5419743586605853 51:0.9276903538102931 52:-41.25216279459021 53:0.8349905625912244 54:0.3401925168875463 55:0.9016319582638432 56:-54.832996434848326 57:0.882870999622115 58:0.14183070633099953 59:0.89419078010909 60:-67.87357352411007 61:0.920491343003529 62:-0.05311107300905502 63:0.9220222874858361 64:-80.30222569617307 65:0.9478515927354665 66:-0.2480528523491096 67:0.9797718404861868 68:-91.66541880337937 69:-0.6903433599642903 70:-0.5661157554828828 71:0.8927827301492458 72:-37.64655015880956 73:-0.5740622986035561 74:-0.7097570665755546 75:0.9128541045708973 76:-25.96645823842656 77:-0.38596058169648584 78:-0.7747376596889062 79:0.8655541646620003 80:-13.481672938217507 81:-0.1807587087069547 82:-0.7713176284724139 83:0.7922149927675659 84:-0.1892826456479071 85:0.010763039416607691 86:-0.7063370353590624 87:0.7064190332496095 88:-166.12700456000763 89:0.12020403834435762 90:-0.699496972926078 91:0.7097499742634996 92:-157.24932568942938 93:0.2980456616019513 94:-0.7507974411734608 95:0.8077920611595296 96:-145.34830166266124 97:0.496407472158498 98:-0.7268572226580156 99:0.8801941834305168 100:-132.66885962772315 101:0.6639890017666151 102:-0.6379364110292187 103:0.9207845888066689 104:-120.85361766092737 105:0.7665899382613807 106:-0.48745503750356256 107:0.9084451260429477 108:-109.45124267712225 109:0.048383382798021735 110:-0.531915443317961 111:0.5341114027720462 112:-161.80264031188722 113:0.044963351581529545 114:-0.42589447560670324 115:0.42826137735937964 116:-160.97338407886247 117:0.044963351581529545 118:-0.3198735078954455 119:0.32301821007302645 120:-158.99858394705802 121:0.04154332036503736 122:-0.20359244653471117 123:0.20778770837790514 124:-155.46704321233105 125:-0.17049861505747813 126:-0.008650667194656613 127:0.1707179304567356 128:-74.09544817736415 129:-0.08157780342868132 130:0.008449488887804314 131:0.08201421751570698 132:-82.91337208165692 133:0.007343008200115506 134:0.022129613753773057 135:0.02331607973734318 136:-5.356782732926007 137:0.09626381982891233 138:0.01870958253728087 139:0.09806513899838526 140:-66.00126664777876 141:0.18176460024121696 142:0.0118695201042965 143:0.18215173731907064 144:-73.26379838088107 145:-0.5330219240056497 146:-0.42247444439021103 147:0.68014485783067 148:-38.59957264596922 149:-0.42358092507789985 150:-0.44299463168916414 151:0.6129152011455317 152:-30.716629594754593 153:-0.3141399261501499 154:-0.46351481898811725 155:0.5599373899135588 156:-21.126843034426038 157:-0.19101880235643126 158:-0.4361545692561798 159:0.4761501770835847 160:-10.651556114970731 161:-0.3004598012841812 162:-0.40879431952424233 163:0.5073350843998647 164:-23.315520284266597 165:-0.4167408626449155 166:-0.3985342258747658 167:0.5766302765131459 168:-33.27931062703864 169:0.2467451933545685 170:-0.42247444439021103 171:0.4892523342881472 172:-136.7130371987369 173:0.3801264107977637 174:-0.4361545692561798 175:0.5785558715189346 176:-125.92652776625468 177:0.48614737850902145 178:-0.4122143507407345 179:0.6373852403278563 180:-117.29529636966598 181:0.5853282837872948 182:-0.3814340697923048 183:0.698642361584023 184:-110.09061277202537 185:0.47246725364305275 186:-0.37117397614282827 187:0.6008289493114372 188:-115.15345528507835 189:0.3630262547153028 190:-0.38827413222528917 191:0.5315494928677115 192:-123.92473297366867 193:-0.3551803007480562 194:0.3196723295885932 195:0.4778529526371871 196:-118.9881089750304 197:-0.2286391457378453 198:0.2170713930938276 199:0.3152710717199196 200:-120.51330719433052 201:-0.10209799072763442 202:0.15893086241346047 203:0.18889949374761814 204:-134.28310544363643 205:-0.013177179098837607 206:0.18629111214539795 207:0.1867565702013508 208:-162.95395971441144 209:0.08258369496294359 210:0.16577092484644484 211:0.18520277049271747 212:-13.481549978706802 213:0.20228478754017007 214:0.23417154917628855 215:0.3094437747213453 216:-27.82149100703412 217:0.3151458176844122 218:0.35045261053702287 219:0.4713108513881163 220:-28.963580499007392 221:0.18518463145770914 222:0.40517311000089784 223:0.4454869210155638 224:-11.562801087010826 225:0.06548353888048265 226:0.4325333597328353 227:0.4374622282507211 228:4.391062078984035 229:-0.037117397614282906 230:0.4359533909493275 231:0.43753063925384006 232:-162.13353078016945 233:-0.1294582404595719 234:0.41885323486686654 235:0.4384033170281981 236:-149.8247814700389 237:-0.2457393018203062 238:0.3778128602689603 239:0.45069985782529876 240:-133.9589778592088 241:-0.297039770067689 242:0.30599220472262445 243:0.42645498514248614 244:-122.85053374552388 245:-0.1089380531606188 246:0.2752119237741948 247:0.2959883484428382 248:-145.4046895510323 249:-0.020017241531821977 250:0.2923120798566557 251:0.2929966586646803 252:-163.08255761516637 253:0.07574363252995922 254:0.28889204864016355 255:0.298656514471632 256:-1.69150524508008 257:0.25358525578755287 258:0.34361254810403846 259:0.4270539370704698 260:-23.427238726362432 261:0.06548353888048265 262:0.28889204864016355 263:0.29622071101093234 264:0.2285044367389446 265:-0.02685730396480635 266:0.2923120798566557 267:0.29354329630632325 268:-161.75046704928815 269:-0.11577811559360317 270:0.278631954990687 271:0.3017289154064256 272:-144.43596884942886 
-0.0 0.0 0.0 6.725503068937607E-4 1:-0.8201421155207961 2:-0.4034622853280061 3:0.9140103420273888 4:-42.805493297022714 5:-0.826074742918851 6:-0.2076855811921977 7:0.8517821209227079 8:-54.887607967338354 9:-0.8201421155207961 10:-0.011908877056389372 11:0.8202285724136116 12:-68.16809485571015 13:-0.811243174423714 14:0.198699395574556 15:0.8352226875814367 16:-82.76262396183705 17:-0.7578495278412207 18:0.41227398190452874 19:0.8627315590637548 20:-97.54641467843429 21:-0.6302980387830426 22:0.6228822545354741 23:0.8861477984562988 24:-113.66095207373775 25:-0.4582518442394534 26:0.7919621353800358 27:0.9149856701744385 28:-128.9451034661431 29:-0.26840776750169987 30:0.9521430751275154 31:0.9892518209073603 32:-143.25693185345676 33:-0.02813635788048052 34:0.9996040943119537 35:1.0 36:-157.38769266308054 37:0.21806767913879363 38:0.9729072710207072 39:0.9970466742785613 40:8.366511543105034 41:0.42570963807071155 42:0.8245915860693372 43:0.927997833921309 44:-6.305825717251693 45:0.6007221463133281 46:0.6436464504286659 47:0.8804248123608923 48:-22.024374209949343 49:0.7520041449637255 50:0.4389708051957753 51:0.8707500225993975 52:-38.72641391754787 53:0.8320946148374653 54:0.21649727776872038 55:0.8597979526160645 56:-54.415936933092546 57:0.8765893203228763 58:-4.362226027977502E-5 59:0.8765893214082771 60:-69.0028512455569 61:0.8914208888180133 62:-0.21065189489122513 63:0.9159723914192832 64:-82.29567343913668 65:0.8884545751189858 66:-0.41532754012411566 67:0.980738750960421 68:-94.05476714183776 69:-0.6985232538606727 70:-0.551777970279376 71:0.8901649648631033 72:-30.694062496513 73:-0.6006349017927686 74:-0.700093655230746 75:0.9224388388104413 76:-19.627450792372485 77:-0.425622393550152 78:-0.7505209881142118 79:0.8628071484933891 80:-8.557684298830843 81:-0.24467725790948067 82:-0.7267904785219926 83:0.7668711496779166 84:2.3939641298241554 85:-0.07559737706491891 86:-0.6526326360463076 87:0.6569964391470077 88:14.392618657083887 89:0.12314564076991684 90:-0.6467000086482528 91:0.6583204007368172 92:-148.21872127975706 93:0.2922255216144786 94:-0.7208578511239377 95:0.7778378989287391 96:-136.93306621887407 97:0.4820695983522322 98:-0.7416220470171296 99:0.8845305864001312 100:-125.97530324314283 101:0.6570821065948487 102:-0.6733968319394994 103:0.9408614074736399 104:-114.70254254441144 105:0.7520041449637255 106:-0.5191485195900747 107:0.9137972529151037 108:-103.61938564321466 109:0.007459406507848273 110:-0.49838432369688285 111:0.49844014370057377 112:-158.1425079396936 113:0.010425720206875672 114:-0.36490020724064987 115:0.36504911571746246 116:-157.3634229583833 117:0.013392033905903072 118:-0.23438240448344433 119:0.23476468666215058 120:-155.72981576093792 121:0.016358347604930473 122:-0.09496566062915655 123:0.09636426845618591 124:-149.22640661867592 125:-0.19424992502601487 126:0.029619514729994217 127:0.1964951628551012 128:-77.66976406688332 129:-0.0963615729581107 130:0.06224896541929561 131:0.11471916334568498 132:-101.86220384788069 133:0.004493092808820874 134:0.0919121024095696 135:0.09202185855727914 136:18.20134262621727 137:0.10534775857575245 138:0.065215279118323 139:0.12389989050606864 140:-37.24051991518718 141:0.19730348324560182 142:0.03555214212804902 143:0.2004809699466273 144:-58.785474343492155 145:-0.5205444319190288 146:-0.41532754012411566 147:0.6659305303013621 148:-30.41463301798214 149:-0.42265607985112463 150:-0.4420243634153623 151:0.6115747703166609 152:-22.71682611152447 153:-0.32180141408419305 154:-0.4568559319104993 155:0.5588143632982218 156:-14.160203708484893 157:-0.20314886612309707 158:-0.44499067711438967 159:0.4891688507313431 160:-3.5378295196724423 161:-0.31586878668613827 162:-0.41236122642508827 163:0.519437071704914 164:-16.45212244559424 165:-0.4167234524530698 166:-0.4034622853280061 167:0.5800346985366508 168:-24.926305680874812 169:0.22993293393490322 170:-0.4390580497163349 171:0.4956219578757828 172:-131.359129960657 173:0.3485854818959992 174:-0.4568559319104993 175:0.5746557062367664 176:-121.65601919609983 177:0.45537277506098556 178:-0.44795699081341706 179:0.6387721267285814 180:-113.52964729989752 181:0.5532611271288898 182:-0.41532754012411566 183:0.6918054931680424 184:-105.89518741383353 185:0.44350752026487594 186:-0.39752965792995126 187:0.5955910925000503 188:-110.8708662307902 189:0.3367202270998896 190:-0.41236122642508827 191:0.532374203354186 192:-119.766087320097 193:-0.34256560997738483 194:0.3559140216230081 195:0.493989866218975 196:-115.09482729234757 197:-0.24467725790948067 198:0.26395829695315876 199:0.35991796713767216 200:-116.17089319942787 201:-0.1319573373464395 202:0.22242990516677516 203:0.25862676116763833 204:-128.3213112364894 205:-0.02517004418145312 206:0.24616041475899436 207:0.24744389448603585 208:-153.1617637316542 209:0.06678568048839625 210:0.22539621886580258 211:0.23508250168249217 212:4.495261068744725 213:0.18840454214851962 214:0.272857238050241 215:0.33158308741339504 216:-13.624598133087105 217:0.3218886586047526 218:0.36184664902106295 219:0.4842987775600298 220:-20.655396993735167 221:0.18543822844949223 222:0.4241392367006383 223:0.4629054208793479 224:-2.6154653603483524 225:0.06678568048839625 226:0.46270131478799453 227:0.4674963463224466 228:12.78672885038553 229:-0.034068985278535316 230:0.4686339421860493 231:0.4698706923471036 232:-154.84199751485528 233:-0.1408562784435217 234:0.4567686873899397 235:0.4779938545179083 236:-141.8615185983419 237:-0.24467725790948067 238:0.4211729230016109 239:0.4870868419571847 240:-128.8458746410142 241:-0.28620564969586426 242:0.34998139422495333 243:0.4521069013203337 244:-119.72459598893006 245:-0.1319573373464395 246:0.31735194353565194 247:0.34369316976835257 248:-136.4220894839387 249:-0.02517004418145312 250:0.33514982572981633 251:0.33609364291938426 252:-154.7050994994878 253:0.06678568048839625 254:0.32625088463273416 255:0.3330164663225225 256:9.431012177913317 257:0.2625623846242046 258:0.3559140216230081 259:0.44228248507872414 260:-15.41667672029623 261:0.06085305309034146 262:0.34701508052592595 263:0.3523103180192581 264:11.053663891076852 265:-0.034068985278535316 266:0.3559140216230081 267:0.35754088793559285 268:-153.53216350497001 269:-0.13492365104546689 270:0.34108245312787117 271:0.3667991704504869 272:-137.417492958984 
