svm_type c_svc
kernel_type linear
nr_class 3
total_sv 16
rho -35.63794531470501 -1.3370158907533631 0.8304332638428303
label 3 0 4
nr_sv 3 9 4
SV
0.0016375487227357037 8.748349406566863E-4 1:-0.8418198762305804 2:-0.5283970958464146 3:0.9939135751743181 4:-35.88415428427398 5:-0.861200136488162 6:-0.3041397985801137 7:0.9133272645484645 8:-48.54891416652565 9:-0.85566291927171 10:-0.07434528409736094 11:0.8588866355253773 12:-63.03425922363765 13:-0.8335140504059025 14:0.14991201316893996 15:0.8468879996294775 16:-78.1959492394925 17:-0.7781418782413838 18:0.36586348461056306 19:0.8598609608793809 20:-93.18177437895035 21:-0.6480172736547648 22:0.5596660871863787 23:0.8562432575509518 24:-108.81583366506896 25:-0.4846693657694345 26:0.7313198208963867 27:0.8773443306657136 28:-124.4662724116037 29:-0.2991725890182967 30:0.891899120173491 31:0.9407381562295419 32:-139.45683657423822 33:-0.08875833479312548 34:0.9472712923380099 35:0.9514204871049246 36:-152.64707387708597 37:0.13826757108140136 38:0.9361968579051061 39:0.9463521955192705 40:13.598679522067286 41:0.3459132166983466 42:0.8171466877513908 43:0.8873469799293094 44:-0.9438338192229452 45:0.5314099934494844 46:0.678716257340094 47:0.8620048370605153 48:-16.059644256245953 49:0.6781462496854591 50:0.5042939150218599 51:0.8451004015444129 52:-31.36418220762591 53:0.7639731165404632 54:0.3021854866213665 55:0.8215661818266013 56:-46.418990256965984 57:0.8193452887049819 58:0.08900262378796936 59:0.8241651346448676 60:-61.80046710660715 61:0.8774860694777266 62:-0.12694884765365375 63:0.8866215720633353 64:-76.23205600469286 65:0.9051721555599859 66:-0.34566892770350277 67:0.9689291195855354 68:-88.90095529991476 69:-0.7006208372110576 70:-0.6502158746083558 71:0.9558505328381799 72:-25.136936592858326 73:-0.5788020584491164 74:-0.8107951738854602 75:0.9961930720803512 76:-13.521889181631998 77:-0.3822308472650748 78:-0.8467870857923974 79:0.9290580117870777 80:-2.293919388261429 81:-0.18842824468925923 82:-0.8052579566690083 83:0.8270100242291032 84:8.829900922977131 85:-0.02231172819570299 86:-0.7111252639893264 87:0.7114751958423907 88:20.20292050649853 89:0.19640835185414604 90:-0.6945136123399708 91:0.7217516182202693 92:-142.2091044085837 93:0.3902109544299616 94:-0.7554230017209415 95:0.8502520217477987 96:-130.6815525013226 97:0.5784763397893253 98:-0.7526543931127155 99:0.9492752557440466 100:-120.45478189339018 101:0.7501300734993335 102:-0.6612903090412596 103:1.0 104:-109.39835348602638 105:0.8304197231378856 106:-0.4924051839394774 107:0.9654324325124328 108:-98.66621997181429 109:0.06905235587575292 110:-0.5145540528052849 111:0.5191667372919182 112:-150.35666048616935 113:0.049672095618171375 114:-0.33459449327059904 115:0.3382614255425967 116:-149.55584977459054 117:0.027523226752363874 118:-0.15186632512768716 119:0.15434023687506257 120:-147.72759887504327 121:0.008142966494782316 122:0.0253246257987728 123:0.026601589711575814 124:4.175147744583427 125:-0.2105771135550667 126:0.06408514631393591 127:0.22011275912872935 128:-84.92663141428625 129:-0.11921302948361079 130:0.10838288404555091 131:0.16111671531126617 132:-110.27563691455549 133:-0.019543119587477054 134:0.15544923038539185 135:0.1566728973071637 136:-150.83435359249847 137:0.08012679030865667 138:0.14160618734426217 139:0.16270407130537853 140:-7.503023337685505 141:0.17425948298833854 142:0.1305317529113584 143:0.21772667711944485 144:-31.1643881033813 145:-0.506818234635242 146:-0.5145540528052849 147:0.7222399851968367 148:-22.566053178918132 149:-0.3905366730897526 150:-0.5477773561039961 151:0.6727398642033163 152:-13.486887248082922 153:-0.2714865029360373 154:-0.5311657044546405 155:0.59652487531136 156:-5.072235000684678 157:-0.17735381025635547 158:-0.46471909785721804 159:0.4974115136641631 160:1.1113158430244283 161:-0.28532954597716703 162:-0.4591818806407662 163:0.5406116437113865 164:-9.8562710772907 165:-0.4043797161308823 166:-0.467487706465444 167:0.6181162597071962 168:-18.860005235845136 169:0.2822352187091501 170:-0.41765275151737713 171:0.5040739425221639 172:-123.9505389559682 173:0.40959121468754317 174:-0.467487706465444 175:0.6215381877612496 176:-116.77664877150475 177:0.5258727762330325 178:-0.4481074462078624 179:0.6908997468012051 180:-108.43502718948261 181:0.6200054689127144 182:-0.3927352740433437 183:0.7339262748802329 184:-100.35173991759794 185:0.5203355590165807 186:-0.3622805793528584 187:0.6340317911219754 188:-102.84733876115095 189:0.40128538886286536 190:-0.37889223100221403 191:0.5518960826357224 192:-111.35591122069924 193:-0.3877680644815267 194:0.28280522636378497 195:0.47994048369607356 196:-104.10384776036634 197:-0.2548748512866817 198:0.2717307919308812 199:0.3725571272996827 200:-114.83333514233567 201:-0.13859328974119234 202:0.26896218332265526 203:0.30257024972554014 204:-130.7384407978488 205:-0.0527664228861883 206:0.31325992105427025 207:0.31767290335049303 208:-148.43868391829093 209:0.049672095618171375 210:0.3021854866213665 211:0.3062407311376017 212:12.665413406329847 213:0.1797967002047904 214:0.34925183296120743 215:0.39281509165419604 216:-5.239650449593789 217:0.3348387822654429 218:0.3797065276516927 219:0.5062549330626916 220:-19.406999358755634 221:0.16595365716366073 222:0.4683020031149227 223:0.4968373802839747 224:2.4870399952219344 225:0.024754618144137937 226:0.4959880891971821 227:0.49660545279420154 228:19.14275554141092 229:-0.08045250896844768 230:0.49321948058895615 231:0.499737993584396 232:-148.73567206297884 233:-0.17458520164812952 234:0.4683020031149227 235:0.4997867132647357 236:-137.5543069271621 237:-0.27979232876071514 238:0.40185539651750024 239:0.48966468827513127 240:-123.15238590435382 241:-0.33516450092523387 242:0.29941687801314054 243:0.44942820285291063 244:-109.77578706747612 245:-0.14689911556587015 246:0.3547890501776593 247:0.3839982034853816 248:-135.50817741014248 249:-0.05830364010264017 250:0.3824751362599187 251:0.38689345342905657 252:-149.33268551123712 253:0.046903487009945434 254:0.3824751362599187 255:0.3853403261413675 256:15.008641522947627 257:0.2766980014926982 258:0.3852437448681446 259:0.4743147973551799 260:-13.687471833034586 261:0.03306044396881575 262:0.3824751362599187 263:0.38390131910747394 264:17.059738093399716 265:-0.06937807453554393 266:0.3797065276516927 267:0.3859926998889554 268:-147.6454223163401 269:-0.15797354999877392 270:0.35202044156943335 271:0.38584198032608374 272:-133.8312485835222 
0.0 1.4445395591162585E-4 1:-0.7339524910285607 2:-0.49056159421059947 3:0.8828006212058725 4:-29.241893569118574 5:-0.7507673048000193 6:-0.2935880614592275 7:0.8061299496905399 8:-41.64198321264105 9:-0.7531694210530848 10:-0.08460394744252801 11:0.7579063297877232 12:-56.59079996764815 13:-0.7387567235346918 14:0.13879286409256458 15:0.7516814190138865 16:-73.6403310137618 17:-0.6763017009549884 18:0.35738544312152615 19:0.7649237515398383 20:-90.85380241049806 21:-0.5561958883017128 22:0.5639674408851602 23:0.7920941487868017 24:-108.39750454916802 25:-0.4312858431423063 26:0.7633430898895976 27:0.8767554684044853 28:-123.53372256455918 29:-0.279952519199179 30:0.933893343857249 31:0.9749513786373352 32:-136.312885223391 33:-0.08538110270087258 34:0.9963483664369522 35:1.0 36:-148.1020598849384 37:0.1139945463035649 38:0.9699250876532316 39:0.9766009585527164 40:20.296822352636852 41:0.28214268401815074 42:0.8209938799631699 43:0.8681217916179422 44:8.034208545921885 45:0.4286717754551469 46:0.6552478585016496 47:0.7830129291032594 48:-6.193239816992708 49:0.5655924018798811 50:0.47028490701560516 51:0.7355696152173017 52:-23.256786938919703 53:0.664079168255567 54:0.2685071417581022 55:0.7163080530652376 56:-40.98503817908053 57:0.7169257258230083 58:0.0619251439944682 59:0.7195951777253533 60:-58.06327532903185 61:0.7553595858720565 62:-0.1470589700222313 63:0.7695417107816861 64:-74.01695169373082 65:0.7817828646557772 66:-0.3560430840389308 67:0.8590408169355787 68:-87.4856831412979 69:-0.5922276320976956 70:-0.6346885693945302 71:0.8680801508732467 72:-16.01790707061987 73:-0.5081535632404026 74:-0.7740113120723299 75:0.9259122825893646 76:-6.2856819469793095 77:-0.34961389053807884 78:-0.8172494046275091 79:0.8888905792172566 80:3.8390812556349942 81:-0.18146575282349303 82:-0.7932282420968539 83:0.8137203841049223 84:14.114260084625656 85:-0.03974089389262785 86:-0.713958405745692 87:0.7150635942224407 88:23.81404657359576 89:0.15002629009954757 90:-0.685133010708906 91:0.701366616031932 92:-140.64866719147318 93:0.3085659628018713 94:-0.7403816845294127 95:0.8021084665969164 96:-130.37528248767097 97:0.4839204492756537 98:-0.7355774520232816 99:0.8804846331153166 100:-119.65994962886201 101:0.6400580057249119 102:-0.6563076156721198 103:0.9167409323695405 104:-108.71815026304967 105:0.7049151445576808 106:-0.502572175475927 107:0.8657275279147486 108:-98.48712750156409 109:0.04673529121773057 110:-0.4761488966922064 111:0.4784369961305371 112:-147.39422148846575 113:0.032322593699337494 114:-0.3080007589776206 115:0.3096921335685535 116:-147.00912442690128 117:0.017909896180944428 118:-0.13745050500996928 119:0.1386124298492303 120:-145.57614635398812 121:0.005899314915616868 122:0.03309974895768206 123:0.03362135181005062 124:16.894376846564228 125:-0.2174974966194757 126:0.045110330223009615 127:0.22212632200747354 128:-74.71736861437077 129:-0.11660861399072422 130:0.09075053903125434 131:0.1477607159948169 132:-100.89180284278953 133:-0.006111266349710691 134:0.14119498034563008 135:0.1413271737890487 136:-150.52164446376162 137:0.10678819754436836 138:0.10996746905577844 139:0.15328588775653362 140:-17.15967235799974 141:0.21248131267925088 142:0.07873995776592678 143:0.22660160896798043 144:-42.66662596465305 145:-0.4408943081545683 146:-0.46654043167994436 147:0.6419094681925204 148:-16.38112480322298 149:-0.3400054255258168 150:-0.4689425479330099 151:0.5792329433387703 152:-8.943879986781035 153:-0.24632289165626187 154:-0.45933408292074784 155:0.5212127844619192 156:-1.2029177615883455 157:-0.1502382415336414 158:-0.4305086878839617 159:0.45597067840234096 160:7.762114919329903 161:-0.24872500790932736 162:-0.4305086878839617 163:0.4971939861895609 164:-3.0170358438064255 165:-0.34961389053807884 166:-0.4401171528962237 167:0.5620791587762793 168:-11.462417727258618 169:0.2389045914629715 170:-0.39928117659411005 171:0.4652965310471014 172:-122.10636742742166 173:0.34940193910398504 174:-0.4112917578594376 175:0.5396689958972362 176:-112.6513230786382 177:0.4454865892266055 178:-0.39687906034104453 179:0.5966332958509312 180:-104.69748957995111 181:0.5319627743369639 182:-0.37766213031652046 183:0.6523902803962456 184:-98.37250044777079 185:0.44068235672047446 186:-0.3632494327981274 187:0.5710963928732808 188:-102.49836900911319 189:0.339793474091723 190:-0.3704557815573239 191:0.5026898558003434 192:-110.47199217286986 193:-0.4192752618769787 194:0.17962884039467827 195:0.45613404337271946 196:-86.19159881816176 197:-0.279952519199179 198:0.17242249163548173 199:0.32879009812911714 200:-94.6288763016523 201:-0.1262170790029863 202:0.1844330729008093 203:0.22348670969809661 204:-118.61414788222791 205:-0.022926080121169274 206:0.21566058419066095 207:0.21687575411552906 208:-146.93188747295937 209:0.09237550002597529 210:0.2036500029253334 211:0.2236214584885298 212:2.600988951648972 213:0.25091517272829905 214:0.21566058419066095 215:0.33085935301685115 216:-22.321073340302434 217:0.3758252178877057 218:0.2637029092519712 219:0.45911198933190017 220:-27.944055008564867 221:0.236502475209906 222:0.4919039532931948 223:0.5458048369572092 224:1.3222202566988983 225:0.07315857000145119 226:0.5927928359219463 227:0.5972901494960726 228:19.964508890459655 229:-0.0493493589048899 230:0.6048034171872738 231:0.6068134249221314 232:-148.33524480607446 233:-0.16945517155816547 234:0.5783801384035532 235:0.6026928236403024 236:-136.6703468729296 237:-0.31358214674209617 238:0.4534700932441466 239:0.5513337357918854 240:-118.33549411468665 241:-0.3712329368156685 242:0.2036500029253334 243:0.4234232127178131 244:-91.74817771835933 245:-0.1334234277621828 246:0.23968174672131606 247:0.2743157866167959 248:-123.89666404266893 249:-0.025328196374234783 250:0.2637029092519712 251:0.26491648095112 252:-147.5136717083671 253:0.08757126751984426 254:0.2540944442397091 255:0.26876144345593694 256:7.983968340525237 257:0.33258712533252643 258:0.2709092580111677 259:0.428959231178343 260:-23.835418899802292 261:0.08036491876064773 262:0.4919039532931948 263:0.498425540510194 264:17.72126398997851 265:-0.037338777639562344 266:0.5063166508115878 267:0.5076915748805371 268:-148.78230597255748 269:-0.1526403577867069 270:0.4750891395217362 271:0.4990077848258057 272:-135.18842025841457 
0.0074551934076295895 0.0 1:-0.8655669433470804 2:-0.483514964011538 3:0.9914599607842399 4:-42.81180676874849 5:-0.8890645438850718 6:-0.2808481593713613 7:0.9323687316806868 8:-54.46910288926245 9:-0.8890645438850718 10:-0.07524415466393569 11:0.8922429299269684 12:-67.16241731508093 13:-0.8743785435488272 14:0.14798305044698354 15:0.8868127314366674 16:-81.60592380179904 17:-0.8244461424055952 18:0.3653358554234049 19:0.901765894778361 20:-95.89951282519509 21:-0.6981465395138909 22:0.5650654599963326 23:0.8981690067665927 24:-110.98599687583196 25:-0.5307261356807015 26:0.7442346640985178 27:0.9140872312533438 28:-126.50669971521268 29:-0.33687093124227163 30:0.8940318675282136 31:0.9553925918029826 32:-141.3536063954305 33:-0.11364372613135243 34:0.9527758688731923 35:0.9595294434232253 36:-155.19809777400786 37:0.12720667938306043 38:0.9557130689404413 39:0.9641415919994435 40:10.418417721307577 41:0.3563082846284775 42:0.8587854667212264 43:0.9297677514016512 44:-4.533459319513952 45:0.5560378892014053 46:0.7207370635605264 47:0.9102966818666344 48:-19.649650265790342 49:0.7087722926983501 50:0.5503794596600879 51:0.8973715576686204 52:-34.16976449477942 53:0.7910138945813203 54:0.3477126550199113 55:0.8640642753185112 56:-48.27074450962435 57:0.8468206958590501 58:0.13329705011073886 59:0.8572475689690993 60:-63.05453894847774 61:0.8908786968677841 62:-0.07230695459668676 63:0.8938082278743514 64:-76.64016257185955 65:0.9114390973385267 66:-0.2867225595058592 67:0.955474256213562 68:-89.46264986006918 69:-0.7040209396483889 70:-0.6538725679119763 71:0.9608302756112561 72:-29.11502949923465 73:-0.5865329369584313 74:-0.8066069714089211 75:0.997314239576752 76:-18.02317717522849 77:-0.3926777325200015 78:-0.8565393725521531 79:0.9422608441132879 80:-6.628937002291607 81:-0.19588532801432268 82:-0.8271673718796636 83:0.8500452475213238 84:4.67695981582402 85:-0.013778923844888553 86:-0.7390513698621956 87:0.7391798062971627 88:16.93189734877285 89:0.19182508086253705 90:-0.715553769324204 91:0.740819855593784 92:-146.99305040935792 93:0.38568028530096693 94:-0.7713605706019339 95:0.8624073355144749 96:-135.43494882292202 97:0.5883470899411436 98:-0.7537373701984402 99:0.9561758841739697 100:-124.02536056122693 101:0.7616418939088309 102:-0.6479981677774784 103:1.0 104:-112.39084178815787 105:0.8291974954555564 106:-0.4600173634735465 107:0.9482533739285722 108:-101.0203822308847 109:0.07139987810533063 110:-0.5246357649530231 111:0.5294720280253714 112:-154.2499909822423 113:0.05377667770183701 114:-0.3601525611870826 115:0.36414529846513544 116:-153.50754470936383 117:0.033216277231094445 118:-0.19273215735389318 119:0.19557352978196915 120:-152.221463055288 121:0.015593076827600819 122:-0.025311753520703764 123:0.029729260186629622 124:-130.36522963306416 125:-0.20469692821606947 126:0.030495047757026047 127:0.20695598652563305 128:-80.4734095370024 129:-0.11070652606410349 130:0.0745530487657601 131:0.1334694421710521 132:-105.9574904592584 133:-0.00790452371039068 134:0.1215482498417431 135:0.12180500209219215 136:-158.2791812526891 137:0.09489747864332213 138:0.10392504943824948 139:0.1407336042088114 140:-24.400260945047073 141:0.19769948099703494 142:0.0892390491020048 143:0.21690710608720729 144:-47.70618461491962 145:-0.5131029352772079 146:-0.5011381644150316 147:0.71722666014542 148:-27.67587388811237 149:-0.4014893327217483 150:-0.5187613648185252 151:0.6559779248707488 152:-19.737663313999107 153:-0.2928129302335376 154:-0.5099497646167784 155:0.5880375621885546 156:-11.864423512269838 157:-0.1841365277453269 158:-0.4717661637425422 159:0.5064282516827638 160:-3.3213543970537387 161:-0.29868733036803546 162:-0.4600173634735465 163:0.5484798045685337 164:-14.995493478230557 165:-0.41030093292349507 166:-0.46589176360804435 167:0.6208075313297224 168:-23.369683851023176 169:0.3034386834179967 170:-0.4130221623975635 171:0.5125059426250651 172:-125.69605880940587 173:0.42680108624245205 174:-0.436519762935555 175:0.6104987065105463 176:-117.64496952328282 177:0.5384146887979117 178:-0.4130221623975635 179:0.6785850600660991 180:-109.49209837838109 181:0.6324050909498776 182:-0.36602696132158047 183:0.7306927777620584 184:-102.06164055298426 185:0.5266658885289159 186:-0.3513409609853358 187:0.6331014365850481 188:-105.70741444149434 189:0.4121150859062074 190:-0.3689641613888294 191:0.5531486205540449 192:-113.83789422199371 193:-0.4044265327889972 194:0.2713454532714389 195:0.4870207135582762 196:-105.85919338563367 197:-0.2634409295610482 198:0.26253385306969207 199:0.3719208885981101 200:-116.90118993373193 201:-0.13126692653484603 202:0.2566594529351942 203:0.288279518493593 204:-134.91280111154543 205:-0.04021372445012899 206:0.2948430538094304 207:0.29757279783915325 208:-154.23333570995698 209:0.05965107783633488 210:0.2860314536076836 211:0.2921852897391669 212:6.219963970139105 213:0.18888788079528812 214:0.3359638547509155 215:0.38542229205175615 216:-11.345861009135554 217:0.33868508422498395 218:0.3770846556924006 219:0.5068534540033646 220:-23.92914332718145 221:0.17713908052629238 222:0.456389057508122 223:0.4895602370115981 224:-3.212813503845368 225:0.03909067736559232 226:0.48282385811336237 227:0.4844037149118214 228:13.371280475185472 229:-0.06664852505536943 230:0.48282385811336237 231:0.48740219927235506 232:-154.14061601720948 233:-0.1665133273418333 234:0.456389057508122 235:0.4858164879824483 236:-141.95552661680406 237:-0.28693853009903975 238:0.3888334559613964 239:0.48324442731425343 240:-125.57463583573774 241:-0.3486197315112674 242:0.2919058537421815 243:0.45469192278722087 244:-111.94007125201175 245:-0.14007852673659285 246:0.3359638547509155 247:0.3639968479970515 248:-139.3665369082697 249:-0.04608812458462686 250:0.36239865535615595 251:0.365317533977878 252:-154.75230379973004 253:0.056713877769085944 254:0.36239865535615595 255:0.36680955458596864 256:9.105592112453905 257:0.27406668274550733 258:0.38295905582689854 259:0.47092481887341225 260:-17.589605457057715 261:0.04790227756733913 262:0.3653358554234049 263:0.3684629091972344 264:10.530078438339643 265:-0.05489972478637368 266:0.3653358554234049 267:0.3694377715388217 268:-153.4539972964276 269:-0.14595292687109074 270:0.3359638547509155 271:0.366297650226332 272:-138.51840614140957 
-0.0015887851665136975 0.0 1:-0.8345679239559006 2:-0.41962760209137817 3:0.9341257646232769 4:-45.30637470238522 5:-0.8471910944678288 6:-0.19872211813263455 7:0.8701857449882285 8:-58.7990230075676 9:-0.8345679239559006 10:0.028494951082073144 11:0.835054238916989 12:-73.9555106347195 13:-0.8156331681880082 14:0.24308884978485265 15:0.8510873362576431 16:-88.5960027758687 17:-0.7619846935123133 18:0.4639943337435962 19:0.8921386746987365 20:-103.33843386641233 21:-0.6452203662769775 22:0.6470303061665552 23:0.9137601097424769 24:-117.08024901920783 25:-0.49058652750585696 26:0.7827293891697834 27:0.9237642760143722 28:-129.92199899252842 29:-0.29808317719895183 30:0.8679357901252989 31:0.9176960914755214 32:-143.04551917396185 33:-0.06139873010029798 34:0.8994937164051193 35:0.901586795550058 36:-158.0950925987076 37:0.17844150962633792 38:0.8837147532652091 39:0.9015504076291663 40:6.584216072524853 41:0.3835680304451713 42:0.814287315449604 43:0.9001045861907996 44:-7.22266447517265 45:0.5760713807520764 46:0.7164577439821603 47:0.9193312431510258 48:-20.801193147005314 49:0.7149262563832867 50:0.5618239052110399 51:0.9092665464718276 52:-33.838010206992614 53:0.8064442425947661 54:0.3566973843922065 55:0.8818079952271286 56:-48.1397717757679 57:0.860092717270461 58:0.15157086357337315 59:0.8733459846968229 60:-62.00560078256554 61:0.8979622288062457 62:-0.05039986461747814 63:0.8993755115168193 64:-75.21246579024623 65:0.92005277720212 66:-0.2618379706922756 67:0.9565857179226452 68:-87.88583174026553 69:-0.6988688409526723 70:-0.6184425376542474 71:0.9332142461593462 72:-30.493763901047778 73:-0.6105066473691749 74:-0.7920111321932602 75:1.0 76:-19.626145889764217 77:-0.43693805283016207 78:-0.8866849110327217 79:0.988496329514743 80:-8.233024004901601 81:-0.2412789098952749 82:-0.8866849110327217 83:0.918926353857238 84:2.7776198535382974 85:-0.06771031535626208 86:-0.8235690584730807 87:0.82634779656019 88:13.299957611191502 89:0.14057199809055332 90:-0.7951669248212423 91:0.8074967027653065 92:-151.97466159893435 93:0.3299195557694764 94:-0.8298806437290448 95:0.893055875136188 96:-140.31967513395642 97:0.5318902839603277 98:-0.7825437543093141 99:0.9461934271489705 100:-127.79628896317183 101:0.6928357079874123 102:-0.656312049190032 103:0.9543410418579082 104:-115.44928733851245 105:0.7717305236869636 106:-0.47643186939505505 107:0.9069483598118594 108:-103.6893244935468 109:0.033275048739163565 110:-0.5521708924666243 111:0.553172598160811 112:-158.5513991552948 113:0.017496085599253305 114:-0.3817580905555935 115:0.3821588056239829 116:-159.3759537373494 117:0.008028707715307152 118:-0.2145010812725448 119:0.2146512846797538 120:-159.85643772792938 121:-0.001438670168639003 122:-0.044088279361514035 123:0.04411174615579207 124:16.131011437970642 125:-0.20972098361545438 126:0.047429706849965454 127:0.21501736688115997 128:-84.7434227588486 129:-0.10873561952002875 130:0.07898763312978596 131:0.1343967303912194 132:-107.99537188676103 133:-0.004594462796621054 134:0.11054555940960648 135:0.1106409950857835 136:-159.6200589848873 137:0.1027024865547687 138:0.08845501101373213 139:0.13554368195519817 140:-31.262525201846863 141:0.20053205802221227 142:0.06636446261785776 143:0.2112281898639028 144:-53.68845605572641 145:-0.5253002464136596 146:-0.4669644915111089 147:0.7028486218343748 148:-30.36457559279227 149:-0.4243148823182339 150:-0.5048340030468935 151:0.6594698552542698 152:-22.04717805798473 153:-0.31070634771088 154:-0.49852241779092943 155:0.5874206631945699 156:-13.933410254113866 157:-0.18763043521958003 158:-0.45434132099918073 159:0.4915599822890078 160:-4.439275340830747 161:-0.31070634771088 162:-0.42593918734734226 163:0.5272216097865761 164:-18.109320851665714 165:-0.42747067494621593 166:-0.42593918734734226 167:0.6034528724408293 168:-27.102820093221958 169:0.24155736218597895 170:-0.41962760209137817 171:0.4841872402936784 172:-132.07324741231224 173:0.3741006525612251 174:-0.44802973574321664 175:0.5836796573094448 176:-122.13843329460573 177:0.490864979796561 178:-0.4227833947193602 179:0.6478381180828313 180:-112.73841355346514 181:0.5855387586360226 182:-0.3754465052996294 183:0.6955686279632793 184:-104.66792705272377 185:0.47824180928463284 186:-0.3533559569037551 187:0.594622283830002 188:-108.45938419350891 189:0.35832168942131487 190:-0.3691349200436653 191:0.5144463259713189 192:-117.85160660474124 193:-0.39906854129437747 194:0.3566973843922065 195:0.5352464149184596 196:-113.79113647203982 197:-0.24759049515123902 198:0.2778025686926552 199:0.3721227223127783 200:-120.29109807045785 201:-0.10873561952002875 202:0.23993305715687058 203:0.26342229759275615 204:-137.62037084718293 205:-0.010906048052585156 206:0.265179398180727 207:0.26540357025409034 208:-159.64492046993402 209:0.09007931604284049 210:0.2462446424128347 211:0.26220356041779974 212:-2.093140622194184 213:0.20999943590615844 214:0.2967373244605475 215:0.363528269614495 216:-17.286840830548222 217:0.32676376314149436 218:0.3945668959279911 219:0.512306150914315 220:-21.63012960720799 221:0.19422047276624818 222:0.4419037853477219 223:0.4827013026149717 224:-5.72589730954482 225:0.06798876764696613 226:0.4545269558596501 227:0.4595837531170934 228:9.492693402197858 229:-0.03930818170442362 230:0.4608385411156142 231:0.46251193944208147 232:-157.12463819782664 233:-0.1434493384278313 234:0.448215370603686 235:0.47061101893260215 236:-144.25296058506453 237:-0.26968104354711336 238:0.4261248222078116 239:0.5042918097196296 240:-129.67156258684287 241:-0.34542006661868263 242:0.35354159176422445 243:0.49427389120814047 244:-117.66571344605342 245:-0.1182029974039749 246:0.3093604949724757 247:0.3311734657923235 248:-141.0887328288489 249:-0.01721763330854926 250:0.32198366548440394 251:0.32244368149418 252:-158.93910230820268 253:0.08692352341485844 254:0.31567208022843984 255:0.3274210762284615 256:2.6045642198466226 257:0.2668037032098354 258:0.37878793278808087 259:0.46331901976106005 260:-17.159398643886256 261:0.07745614553091228 262:0.34407421388027826 263:0.3526847305141482 264:5.31336434102073 265:-0.029840803820477466 266:0.35354159176422445 267:0.35479871854311107 268:-157.17536498682568 269:-0.1308261679159031 270:0.3409184212522962 271:0.3651586725804526 272:-141.00588178972478 
-0.0026084828697093077 0.0 1:-0.8471159851938593 2:-0.42958930008968804 3:0.9498170661356381 4:-45.109530904482384 5:-0.8567283815104434 6:-0.20850418480825586 7:0.8817355129334755 8:-58.32169733088321 9:-0.8439118530883314 10:0.01898919468423235 11:0.8441254677461976 12:-73.28901749707468 13:-0.8278911925606913 14:0.24007430996566456 15:0.8619973903818118 16:-88.17125660398406 17:-0.7798292109777712 18:0.46115942524709674 19:0.9059810228633082 20:-102.5983514697385 21:-0.6644804551787632 22:0.6534073515787769 23:0.9319202983151337 24:-116.51860304798494 25:-0.504273849902363 26:0.7943891642220091 27:0.9409284031894738 28:-129.5928454752539 29:-0.30882179146515487 30:0.8905131273878492 31:0.9425415263710324 32:-142.873922824258 33:-0.07171601565608264 34:0.9321668447597132 35:0.9349215011811756 36:-157.60063022028817 37:0.1653897601529896 38:0.9129420521265452 39:0.9278022220842601 40:7.731590461668361 41:0.37045421490678176 42:0.8424511458049291 43:0.9203044378955465 44:-5.736713335905733 45:0.572314537555046 46:0.736714786322505 47:0.9328947455544276 48:-19.84173369086289 49:0.7165004823038061 50:0.5797123131516329 51:0.9216503171817407 52:-33.024075890847655 53:0.8094203133641182 54:0.3842602547144247 55:0.8960006624102808 56:-46.60466553329885 57:0.8606864270525663 58:0.1695834036440485 59:0.8772340944719447 60:-60.85363307568302 61:0.9055442765299583 62:-0.0386851832152717 63:0.9063702224568969 64:-74.4462092782595 65:0.9279732012686543 66:-0.2597702984967039 67:0.9636466521779967 68:-87.63868530687093 69:-0.6965217762340432 70:-0.6474702832655923 71:0.950978628824146 72:-29.09018843962334 73:-0.5939895488571472 74:-0.8044727564364644 75:1.0 76:-18.440632803263462 77:-0.411354018842051 78:-0.8781677948636085 79:0.969737492702597 80:-7.099473749806435 81:-0.20949369619378677 82:-0.8589430022304405 83:0.8841214225577712 84:4.293328423725313 85:-0.036470562495274604 86:-0.7724314353811844 87:0.7732919398867149 88:15.296771584910644 89:0.13655257120323755 90:-0.7403901143259044 91:0.752877231754116 92:-151.55018162099404 93:0.32239223332386174 94:-0.7948603601198804 95:0.8577527290527575 96:-139.92271909859159 97:0.5338649522887099 98:-0.7724314353811844 99:0.9389686414610784 100:-127.34976236173478 101:0.7132963501982781 102:-0.6634909437932323 103:0.9741724260631783 104:-114.92822335022257 105:0.8030120491530622 106:-0.4840595458836641 107:0.9376257222613399 108:-103.08177592323169 109:0.03722447593186947 110:-0.5577545843108082 111:0.5589953827431179 112:-158.1817487372572 113:0.024407947509757454 114:-0.384731450612296 115:0.3855049117610315 116:-158.36993364667023 117:0.011591419087645443 118:-0.21811658112483986 119:0.21842436667655532 120:-158.9579789634476 121:0.001979022771061435 122:-0.04509344742632771 123:0.045136853367501825 124:-159.48706422818492 125:-0.20949369619378677 126:0.031805723106344365 127:0.21189434340550972 128:-80.63282626709166 129:-0.11336973302794667 130:0.06705117626715239 131:0.13171391955915915 132:-102.60168605329574 133:-0.010837505651050577 134:0.09909249732243243 135:0.09968337150364062 136:-155.75850632026618 137:0.09810298593690152 138:0.08307183679479241 139:0.12855009108591298 140:-31.74267636197925 141:0.1974310812082696 142:0.06064291205609639 143:0.20653472979068146 144:-54.925141430404594 145:-0.529906906746587 146:-0.4840595458836641 147:0.7177151062774388 148:-29.588914340372312 149:-0.424170547264163 150:-0.5128967348334161 151:0.6655702170088136 152:-21.591076473031748 153:-0.30882179146515487 154:-0.5064884706223601 155:0.5932128368108068 156:-13.371962638756948 157:-0.18706477145509073 158:-0.4648347532504961 159:0.5010634456323819 160:-3.9214738097201973 161:-0.3120259235706829 162:-0.4424058285118001 163:0.5413714935987578 164:-17.195065485429012 165:-0.430578811475219 166:-0.4456099606173281 167:0.6196501834848344 168:-26.017178758912223 169:0.25830959121330166 170:-0.42318103587863204 171:0.4957882955860244 172:-130.6001199774052 173:0.38647487543442177 174:-0.4488140927228561 175:0.5922811149856901 176:-121.26818114067336 177:0.4986194991279019 178:-0.42638516798416004 179:0.6560683778292017 180:-112.5347900074507 181:0.594743462293742 182:-0.381527318506768 183:0.7065995193234372 184:-104.68012999937591 185:0.4890071028113179 186:-0.3623025258736 187:0.6085976231093163 188:-108.53453232087537 189:0.37365834701230977 190:-0.37832318640124 191:0.5317414725792592 192:-117.35542386195785 193:-0.3985374904199389 194:0.32979000892044863 195:0.5172944821414323 196:-111.60777671413058 197:-0.2575556777767068 198:0.2528908383877766 199:0.36095526495050795 200:-116.4764031875044 201:-0.11977799723900268 202:0.22084951733249653 203:0.2512394832198618 204:-133.52675698442334 205:-0.01404163775657858 206:0.24968670628224857 207:0.2500812245750665 208:-158.78124612286754 209:0.09489885383137352 210:0.23366604575460856 211:0.25220153329649525 212:-4.103559774449366 213:0.21345174173590964 214:0.2817280273375286 215:0.3534576741812076 216:-19.14945410204752 217:0.31918810121833374 218:0.3810561226088967 219:0.49707626430668733 220:-21.9509103513424 221:0.1910228169972136 222:0.44513876471945674 223:0.48439471143842483 224:-5.225668258014153 225:0.06606166488162149 226:0.46756768945815275 227:0.47221148629842463 228:9.958028758576049 229:-0.04608295881185861 230:0.47077182156368075 231:0.47302193085653177 232:-156.40923669211992 233:-0.15502345039981072 234:0.45795529314156874 235:0.48348249264088433 236:-143.29841326756406 237:-0.2831887346209308 238:0.4227098399807607 239:0.5088019931493629 240:-128.18042742661243 241:-0.3536796409425469 242:0.32658587681492063 243:0.48140172761657124 244:-114.71921661931165 245:-0.12618626145005868 246:0.2881362915485846 247:0.31455602853245956 248:-138.34949007158923 249:-0.020449901967634587 250:0.3009528199706966 251:0.30164681058947135 252:-158.1126972950656 253:0.08849058962031751 254:0.2977486878651686 255:0.31062013066892663 256:1.4481074255360937 257:0.26471785542435766 258:0.36503546208125665 259:0.4509173223079235 260:-17.949019328238315 261:0.07887819330373351 262:0.36183132997572864 263:0.3703291518782525 264:5.702085306936041 265:-0.033266430389746596 266:0.3682395941867847 267:0.36973917038599485 268:-156.83796362145054 269:-0.13900278987217068 270:0.35542306576467264 271:0.38163769634275607 272:-140.63997538320365 
-0.0015027422032054048 0.0 1:-0.8472891866046228 2:-0.4534465073466591 3:0.9609956819684503 4:-42.84550181910832 5:-0.8599847553126301 6:-0.23127405495653056 7:0.8905399866744674 8:-55.94768338383032 9:-0.8536369709586265 10:-0.015449386920405659 11:0.8537767634127995 12:-69.96315639008844 13:-0.8314197257196136 14:0.2067230654697229 15:0.856734022969134 16:-84.96280776319895 17:-0.7711157743565787 18:0.4320694100368533 19:0.8839137472350683 20:-100.26265867865263 21:-0.6600295481615144 22:0.6225029406569635 23:0.9072755455609172 24:-114.32401676591935 25:-0.4981610471344208 26:0.7716758729760498 27:0.918503174635456 28:-128.15543711313757 29:-0.3045536243373087 30:0.8700665304631068 31:0.9218289849690663 32:-141.7081739623345 33:-0.06651171106217096 34:0.9081532365871288 35:0.9105855856711631 36:-156.8112261120438 37:0.17153020221296678 38:0.8922837757021196 39:0.908621453990853 40:8.118363682899158 41:0.38100708589508797 42:0.8288059321620829 43:0.9121873013199241 44:-5.688527092718729 45:0.5809622930462037 46:0.7208935981440204 47:0.9258535336577464 48:-19.865058647063925 49:0.7237874410112863 50:0.5685467736479323 51:0.9203877952206556 52:-32.84979077434474 53:0.8158303141443396 54:0.36541767431981476 55:0.893929067757702 56:-46.871966787627684 57:0.8602648046223653 58:0.14007132975268433 59:0.8715936619151391 60:-61.752056133327955 61:0.8983515107463874 62:-0.06623166175243504 63:0.9007896923693152 64:-75.21654714978895 65:0.9205687559854002 66:-0.2884041141425636 67:0.9646884302980233 68:-88.39520261671646 69:-0.7012901464625383 70:-0.6534017144977748 71:0.9585101303763461 72:-28.024565928148753 73:-0.5965517046214777 74:-0.8025746468168612 75:1.0 76:-17.623328829617606 77:-0.40929206617836933 78:-0.8565308138258924 79:0.949297124439869 80:-6.540738845847628 81:-0.21885853555825913 82:-0.8216179998788722 83:0.8502677203749793 84:4.084183102319315 85:-0.050642250177161785 86:-0.7390968032768244 87:0.7408297524512816 88:15.080271109253133 89:0.14931295697395391 90:-0.707357881506806 91:0.722945040546031 92:-149.08066899053964 93:0.3302248110630586 94:-0.7644879406928391 95:0.8327606122448459 96:-137.63780167619174 97:0.5333539103911762 98:-0.7613140485158373 99:0.929551221933 100:-125.98606071812642 101:0.711091872303279 102:-0.6756189597367876 103:0.9808734014191648 104:-114.5346584296575 105:0.7936130689053268 106:-0.5010548900016867 107:0.9385508542065971 108:-103.26664186410558 109:0.03822673077888964 110:-0.551837164833716 111:0.5531595967148681 112:-157.03735087009719 113:0.02235726989388046 114:-0.3899686638066224 115:0.390609019696461 116:-157.7187709369539 117:0.00966170118587311 118:-0.22810016277952871 119:0.22830469274601564 120:-158.57455677896195 121:1.4002465486760073E-4 122:-0.06305776957543321 123:0.06305792504303008 124:-160.8727704988775 125:-0.20933685902725363 126:0.03533288791162373 127:0.21229774731629072 128:-80.58036373083704 129:-0.11094620154019669 130:0.07341959403564577 131:0.13303945439063172 132:-104.49493815651817 133:-0.009381651876137908 134:0.1019846236286623 135:0.10241522762072516 136:-155.74410510382387 137:0.09218289778792087 138:0.0861151627436531 139:0.12614875306139228 140:-27.949104159817182 141:0.1905735552749778 142:0.06389791750464026 143:0.20100055679419104 144:-52.464074727918714 145:-0.5362477532584428 146:-0.49153321347068113 147:0.7274383498410996 148:-28.491133750651258 149:-0.434683203594384 150:-0.513750458709694 151:0.6729702974957348 152:-21.234491495570076 153:-0.3204230852223179 154:-0.5074026743556903 155:0.6001070133623632 156:-13.272273146399321 157:-0.1998151824962481 158:-0.47248986040867014 159:0.5130036796603057 160:-3.923421748959143 161:-0.31724919304531607 162:-0.44709872299265546 163:0.5482192249361266 164:-16.358483753160165 165:-0.4378570957713859 166:-0.44709872299265546 167:0.6257923812407881 168:-25.401679748468936 169:0.25722529099201635 170:-0.4280553699306444 171:0.499395885097573 172:-129.9976715891034 173:0.3905287624260935 174:-0.45662039952366096 175:0.600845157709708 176:-120.46098177745296 177:0.5016149886211578 178:-0.4344031542846481 179:0.6635689092037511 180:-111.89286146797069 181:0.5968317539312129 182:-0.39314255598362424 183:0.714681195937003 184:-104.37353094615133 185:0.4920933120901523 186:-0.3709253107446114 187:0.6162316236244635 188:-108.00790093800715 189:0.37465930154108434 190:-0.38679477162962056 191:0.5384977136360595 192:-116.91305882171957 193:-0.38707482093935647 194:0.33367875254979634 195:0.5110464038699648 196:-111.76305851417845 197:-0.22838021208926462 198:0.301939830779778 199:0.37858312519875803 200:-123.89699296056813 201:-0.104598417186193 202:0.2892442620717707 203:0.3075761239421877 204:-141.11866207358736 205:-0.01890332840714342 206:0.31146150731078354 207:0.31203462365765366 208:-157.52684528305406 209:0.07631343690291167 210:0.301939830779778 211:0.3114344265864897 212:4.8158887223288644 213:0.18739966309797595 214:0.3400265369038 215:0.3882482189631089 216:-9.86058597029102 217:0.31435535017804944 218:0.3876349195588276 219:0.49907926930192437 220:-20.04057500928584 221:0.17470409438996862 222:0.43841719439085697 223:0.47194401885623 224:-2.726700150619962 225:0.05409619166389883 226:0.44159108656785884 227:0.44489221805817136 228:12.015898462269377 229:-0.041120573646156275 230:0.44159108656785884 231:0.44350150993336107 232:-155.68000885246119 233:-0.13316344677920955 234:0.42572162568284966 235:0.4460621101731997 236:-143.63059644313336 237:-0.2505974573282775 238:0.4035043804438368 239:0.47498933741375965 240:-129.15754274001483 241:-0.33629254610732706 242:0.3368526447267982 243:0.4759856939308022 244:-116.04767363718537 245:-0.11412009371719851 246:0.3368526447267982 247:0.3556586847659715 248:-142.28447149837297 249:-0.025251112761147092 250:0.3558959977888092 251:0.3567906668310821 252:-156.94161835191022 253:0.069965652548908 254:0.3527221056118074 255:0.35959432187372137 256:7.780494554295117 257:0.2603991831690182 258:0.38128713520482393 259:0.4617224426728611 260:-15.331033805105342 261:0.06361786819490434 262:0.3558959977888092 263:0.36153726556989435 264:8.865185887766913 265:-0.031598897115150765 266:0.3558959977888092 267:0.35729602788302306 268:-155.92619075456562 269:-0.1204678780712022 270:0.3400265369038 271:0.3607361299423296 272:-141.49129136199912 
-0.0 4.232683502748165E-4 1:-0.8304282363821129 2:-0.42330179943646623 3:0.9320919853677838 4:-43.99027942916659 5:-0.8430710484439027 6:-0.20205258835514658 7:0.8669452354014731 8:-57.52254757213585 9:-0.8335889393975604 10:0.019196622726173115 11:0.8338099484954834 12:-72.31922466708563 13:-0.8146247213048758 14:0.2404458338074928 15:0.8493689631464214 16:-87.4445699719038 17:-0.7672141760731644 18:0.45853434187336506 19:0.8937960251896763 20:-101.86513379383588 21:-0.659750273547952 22:0.6513372258156579 23:0.927097947996777 24:-115.63234680197884 25:-0.5017151227755808 26:0.8030509705571343 27:0.9468943582757642 28:-129.00445497318543 29:-0.30259083280239313 30:0.9073541700668992 31:0.9564793787812875 32:-142.55712681501797 33:-0.06553810664383633 34:0.9452826062522683 35:0.9475518186914845 36:-157.03392947461276 37:0.1778360255456153 38:0.9326397941904787 39:0.9494433304255285 40:8.204417985922717 41:0.3864424245651453 42:0.8536222188042931 43:0.9370211523440398 44:-5.356688660735955 45:0.5697631994610959 46:0.7398369102481858 47:0.9338033825306732 48:-18.600587143666544 49:0.7056734291253351 50:0.5754803534449198 51:0.9105781821318799 52:-31.80257711715361 53:0.7878517075269682 54:0.3700346574408372 55:0.8704228631880697 56:-45.84170512005147 57:0.838422955774127 58:0.15826755540585977 59:0.8532301400344287 60:-60.31016858340176 61:0.8795120949749434 62:-0.05349954662911764 63:0.8811377455862023 64:-74.48093670652081 65:0.9047977190985228 66:-0.27790946072588474 67:0.9465160224987433 68:-88.07438868746229 69:-0.6913573037024263 70:-0.6413903075023385 71:0.9430569696156396 72:-28.14711151057709 73:-0.5965362132390036 74:-0.8025861612901571 75:1.0 76:-17.62222290822946 77:-0.42585825040484265 78:-0.8847644396917902 79:0.9819182059525127 80:-6.702622684082513 81:-0.22989466344710238 82:-0.891085845722685 83:0.9202638429976314 84:4.533502303822033 85:-0.056055997597494064 86:-0.8247110823982892 87:0.826613963284681 88:15.11155991431022 89:0.1367468863447988 90:-0.8057468643056046 91:0.8172684505493355 92:-151.36785666736301 93:0.3200676612407494 94:-0.8436753004909736 95:0.9023476715937477 96:-140.22460517143637 97:0.5223526542293846 98:-0.7994254582747097 99:0.9549520190659909 100:-127.83899433643532 101:0.6867092110326506 102:-0.6824794467031551 103:0.9681672044070333 104:-115.82299964865658 105:0.7688874894342836 106:-0.5054800778380992 107:0.9201619860110319 108:-104.32161874371471 109:0.035604389850481234 110:-0.5686941381470477 111:0.5698075950173344 112:-157.41754322203718 113:0.02296157778869154 114:-0.4043375813437817 115:0.4049890291618842 116:-157.74977032908293 117:0.007158062711454418 118:-0.24314172755596308 119:0.2432470709806786 120:-159.31370632242613 121:-0.002324046334887854 122:-0.07562446773724961 123:0.07566016991726236 124:17.239774042873336 125:-0.204609039323523 126:0.035000137803410235 127:0.2075809929139773 128:-80.70698519445389 129:-0.10978794886010028 130:0.060285761926989624 131:0.12525081559026138 132:-99.77166937720119 133:-0.008645452365782702 134:0.08557138605056902 135:0.08600701109342503 136:-155.23086634669383 137:0.09881845015942972 138:0.0697678709733319 139:0.12096545751603298 140:-35.77711695357211 141:0.19680024363829987 142:0.04764294986519993 143:0.20248502800936208 144:-57.39121001528931 145:-0.5206793408682654 146:-0.4801944537145199 147:0.7083033879526466 148:-28.316325325598996 149:-0.41953684437394784 150:-0.5149621868844415 151:0.6642267818358852 152:-20.169513651904374 153:-0.3057515358178406 154:-0.5149621868844415 155:0.5988906875012958 156:-11.699125109890225 157:-0.18880552424628588 158:-0.47703375069907245 159:0.5130387171470977 160:-2.5931988183148604 161:-0.3057515358178406 162:-0.4454267205445982 163:0.5402674939602454 164:-15.46663380563998 165:-0.42269754738939525 166:-0.4422660175291508 167:0.6117781026075592 168:-24.70399220068562 169:0.24737149188545865 170:-0.44858742356004566 171:0.5122727121113102 172:-132.12566122268197 173:0.3706389094879082 174:-0.47387304768362504 175:0.6016052414560173 176:-122.96932695425272 177:0.4844242180440155 178:-0.44858742356004566 179:0.6602253400194479 180:-113.80036161975077 181:0.5729239024765433 182:-0.40117687832833426 183:0.699417390214326 184:-106.00075445387611 185:0.47178140598222573 186:-0.3790519572202023 187:0.6051925985197042 188:-109.7800762964129 189:0.3579960974261185 190:-0.39801617531288686 191:0.535329881085513 192:-119.03016689310434 193:-0.36896559612678903 194:0.3826774695026269 195:0.5315803389800368 196:-117.04510422135098 197:-0.22673396043165497 198:0.32262411220912585 199:0.3943280443891226 200:-125.90119629645149 201:-0.10346654282920542 202:0.27521356697741445 203:0.29402012334780697 204:-140.39624894682524 205:-0.018127561412124973 206:0.3004991911009939 207:0.3010454655614364 208:-157.54782560007087 209:0.07985423206674518 210:0.2783742699928619 211:0.2896013338592009 212:2.9939723305188437 213:0.19363954062285244 214:0.33842762728636294 215:0.38990964415272766 216:-10.777074217235864 217:0.31058555219440714 218:0.420605905687996 219:0.5228505648189778 220:-17.443054939527066 221:0.18099672856106275 222:0.4395701237806805 223:0.4753753353618273 224:-3.379830330938063 225:0.0703721230204029 226:0.44589152981157537 227:0.4514105582018499 228:10.031360586643515 229:-0.03077037347391467 230:0.4490522328270228 231:0.4501052362399919 232:-157.08005303517174 233:-0.12243076092188997 234:0.44273082679612796 235:0.45934722837467523 236:-145.54199232694572 237:-0.23937677249344466 238:0.4269273117188908 239:0.4894570141502697 240:-131.72079061974497 241:-0.308912238833288 242:0.37635606347173206 243:0.4868990221934449 244:-121.62092484048748 245:-0.10662724584465284 246:0.39215957854896916 247:0.40639697907848815 248:-145.78913667261202 249:-0.018127561412124973 250:0.40164168759531144 251:0.40205056112031495 252:-158.41578524742374 253:0.07985423206674518 254:0.39215957854896916 255:0.4002072380988064 256:7.490395094089251 257:0.24737149188545865 258:0.40796309362620625 259:0.47710223302632143 260:-12.230843242331154 261:0.07353282603585032 262:0.3004991911009939 263:0.3093652216348345 264:5.2497945971438895 265:-0.024448967443019824 266:0.3099813001473361 267:0.3109439796009287 268:-156.49028063928787 269:-0.1129486518755477 270:0.2973384880855464 271:0.31806850591893293 272:-140.19994009080148 
-1.6574559190717642E-4 9.33072566386092E-6 1:-0.7714454964061896 2:-0.5032685587098589 3:0.9210903300498225 4:-25.88074200143683 5:-0.7739733632988082 6:-0.29092773972989766 7:0.8268456426930095 8:-38.39933331705889 9:-0.756278295050478 10:-0.07858692074993644 11:0.7603504216329565 12:-53.06753225768275 13:-0.7259438923390551 14:0.14133749890788058 15:0.7395747585078284 16:-70.01736178505294 17:-0.6753865544866834 18:0.3460947172099861 19:0.7588995659914782 20:-86.13239214716025 21:-0.5565768105336097 22:0.5331568672637614 23:0.7707360061228966 24:-102.76882086315513 25:-0.41501626454696894 26:0.7050518159618253 27:0.8181299181851176 28:-118.51755920030853 29:-0.2431213158489051 30:0.8516680957337033 31:0.8856898551472606 32:-133.0678173083011 33:-0.03330836376156243 34:0.8971696998008378 35:0.8977877908154009 36:-146.8738107544449 37:0.19672752346672892 38:0.8643074301967962 39:0.8864135899131635 40:18.17720195224686 41:0.39895687487621584 42:0.7379140855658669 43:0.8388586207982285 44:2.6019095679999538 45:0.5784354242521355 46:0.5761306044382773 47:0.8164030949231897 48:-14.114377410362707 49:0.7124123695609205 50:0.3789569868140277 51:0.8069323281159162 52:-30.98993080192408 53:0.7857205094468596 54:0.16408830094144786 55:0.8026715950320427 56:-47.20400130739003 57:0.8312221135139941 58:-0.05330825182375057 59:0.8329297519642193 60:-62.6694893434879 61:0.8666122500106542 62:-0.2656490708037118 63:0.90641393451745 64:-76.04226124687028 65:0.87419585068851 66:-0.4855734904615288 67:1.0 68:-88.05005277594536 69:-0.6829701551645391 70:-0.649884838481737 71:0.9427611235800445 72:-15.421954985011766 73:-0.5717440118893213 74:-0.7661667155421918 75:0.9559825579664131 76:-5.731760632040768 77:-0.39226546251340166 78:-0.7737503162200476 79:0.8675031671016981 80:4.116520210681713 81:-0.22542624760057497 82:-0.7257208452602946 83:0.7599261400640145 84:13.743956214422141 85:-0.06111489958036688 86:-0.6524127053743555 87:0.6552689288258707 88:25.648422594939575 89:0.10319644843984123 90:-0.6321897702334068 91:0.6405571110825049 92:-139.72900558164628 93:0.2750913971379051 94:-0.7054979101193458 95:0.7572335029315919 96:-127.6979375679924 97:0.4570978134064433 98:-0.7383601797233874 99:0.8683974700689222 100:-117.23952683468616 101:0.6391042296749815 102:-0.710553643904583 103:0.955688598474698 104:-107.03034724500421 105:0.7604418405206737 106:-0.5866881661662723 107:0.9604555154373435 108:-96.65053039482484 109:0.0020817727350977778 110:-0.49315709113938455 111:0.4931614850318097 112:-148.7581377510494 113:-0.008029694835376567 114:-0.3035670741929906 115:0.3036732529104958 116:29.484814686521148 117:-0.020669029298469498 118:-0.11397705724659664 119:0.1158359976463921 120:20.721467682670806 121:-0.03330836376156243 122:0.07308509280717874 123:0.08031735732148124 124:-124.4989821009595 125:-0.19003611110391477 126:0.11100309619645754 127:0.22008046457761635 128:-89.289875836588 129:-0.1142001043253572 130:0.1514489664783549 131:0.18967987050629367 132:-111.98187747912667 133:-0.028252629976325258 134:0.18431123608239652 135:0.1864640524251258 136:-140.28510229405424 137:0.06022271126532526 138:0.15903256715621067 139:0.1700533221329163 140:10.259243819186125 141:0.1486980525069758 142:0.13375389823002481 143:0.20000304025463003 144:-17.02861900318996 145:-0.5211866740369496 146:-0.4678784222131987 147:0.7003897252004843 148:-17.0851209178811 149:-0.4251277321174433 150:-0.49062922424676597 151:0.6491922860757852 152:-9.908763361564148 153:-0.3164294557348441 154:-0.4881013573541474 155:0.5816962570857842 156:-1.954791403533612 157:-0.2077311793522449 158:-0.45018335396486864 159:0.49579965213998756 160:6.2296601332599835 161:-0.3189573226274627 162:-0.42237681814606415 163:0.5292787074546572 164:-6.058232254469111 165:-0.4301834659026805 166:-0.41984895125344557 167:0.6011081069197627 168:-14.696555671336718 169:0.2371733937486263 170:-0.4350161526091571 171:0.49546974855495907 172:-120.40051903442145 173:0.3458716701312255 174:-0.46282268842796154 175:0.5777820117683219 176:-112.22889825241563 177:0.4570978134064433 178:-0.46029482153534296 179:0.6486984921773788 180:-104.1996684128092 181:0.5607403560038053 182:-0.4350161526091571 183:0.7096962729803137 184:-96.80391344144836 185:0.45962568029906187 186:-0.38951454854202255 187:0.6024760157186932 188:-99.27995449527943 189:0.3458716701312255 190:-0.3945702823272597 191:0.5247026966722934 192:-107.76290426368597 193:-0.3366523908757928 194:0.3385111165321303 195:0.4774145036529756 196:-104.15773492667455 197:-0.2228983807079564 198:0.32081604828380017 199:0.39064897921108493 200:-114.20898231959481 201:-0.1142001043253572 202:0.30817671382070727 203:0.32865567204789353 204:-128.66695936254504 205:-0.028252629976325258 206:0.34103898342474886 207:0.3422072461476602 208:-144.264270151156 209:0.06275057815794385 210:0.32081604828380017 211:0.3268953531263329 212:19.932855628702725 213:0.17144885454054307 214:0.34862258410260466 215:0.388500213474384 216:4.812534508913245 217:0.2953143322788538 218:0.3764291199214091 219:0.47844481100134406 220:-7.1147200818343705 221:0.16639312075530588 222:0.4674323280556782 223:0.4961649442939726 224:11.40566170085161 225:0.055166977480088086 226:0.505350331444957 227:0.508352587183164 228:24.769930023717777 229:-0.038364097546799605 230:0.5129339321228128 231:0.5143666228513963 232:-144.72261519456163 233:-0.13442303946630588 234:0.49271099698186405 235:0.5107187876769587 236:-133.73976044231165 237:-0.23553771517104932 238:0.43962579223687376 239:0.49874728316843714 240:-120.81898989597602 241:-0.2936786537012768 242:0.34862258410260466 243:0.4558342437621072 244:-108.8893105871452 245:-0.11925583811059436 246:0.3789569868140277 247:0.3972786840224723 248:-131.53147606842032 249:-0.030780496868943845 250:0.40423565574021353 251:0.4054058514121614 252:-144.64561938295464 253:0.06275057815794385 254:0.3966520550623578 255:0.4015849696444675 256:22.010277904847214 257:0.24728486131910063 258:0.38401272059926483 259:0.45674453715359953 260:-1.7794965048917035 261:0.055166977480088086 262:0.3865405874918834 263:0.39045745118112285 264:22.877612171112204 265:-0.03583623065418102 266:0.3941241881697392 267:0.39575006143771563 268:-143.8045965582304 269:-0.12431157189583153 270:0.37137338613617193 271:0.3916268106724292 272:-130.492816637107 
-0.0 0.0012605319668675806 1:-0.7799219067628311 2:-0.4895763332274182 3:0.9208491552393228 4:-36.88248797194255 5:-0.7935871192492708 6:-0.2736659759416708 7:0.839448379727106 8:-49.97341025946096 9:-0.7935871192492708 10:-0.05228953366134753 11:0.795307934808196 12:-65.23022462738751 13:-0.7799219067628311 14:0.16908690861897577 15:0.7980404521795196 16:-81.23240808290991 17:-0.7416593118007999 18:0.39866247839116287 19:0.8420156212671002 20:-97.25926420586048 21:-0.646002824395722 22:0.6118397931796223 23:0.8897570351760827 24:-112.44422792859855 25:-0.49568548704488513 26:0.7949536404979145 27:0.9368326385261203 28:-127.05480551754252 29:-0.30983859722930507 30:0.9343388078595994 31:0.9843723707040548 32:-140.6538244248483 33:-0.07479694246254208 34:0.9971987852972222 35:1.0 36:-154.7104448062374 37:0.17664296728794857 38:0.9780674878162066 39:0.9938907126115006 40:10.762505442852287 41:0.4007524520655598 42:0.8714788304219768 43:0.9592069014087707 44:-3.6954944479415985 45:0.6029975968648675 46:0.72116149307114 47:0.9400425527141849 48:-18.90060760708193 49:0.7451158067238405 50:0.5243824332664082 51:0.9111391231574455 52:-33.86366345935193 53:0.8189079541506149 54:0.30573903348337284 55:0.8741204687950583 56:-48.52689779505257 57:0.862636634107222 58:0.07616346371118574 59:0.8659923993363466 60:-63.95435469542899 61:0.9008992290692531 62:-0.15067906356371344 63:0.9134131601493446 64:-78.49506525513094 65:0.9200305265502687 66:-0.3747885483413247 67:0.9934397947294856 68:-91.16427862236515 69:-0.6842654193577531 70:-0.6234954155945274 71:0.925724417629909 72:-26.6605490118649 73:-0.5886089319526752 74:-0.782011880437228 75:0.9787763053524735 76:-15.968242842317437 77:-0.41096116962895896 78:-0.8339396878856989 79:0.9297012885726785 80:-5.233839776968715 81:-0.22784732231066682 82:-0.8038762204155315 83:0.8355425662608108 84:5.175370074814197 85:-0.055665644981526485 86:-0.7218849454968933 87:0.724027995706148 88:16.59056135253313 89:0.14111341482320533 90:-0.7136858180050295 91:0.7275028815507015 92:-147.81546547369385 93:0.3214942196442095 94:-0.7738127529453642 95:0.8379407555940471 96:-136.43869265385467 97:0.5128071944543654 98:-0.7792788379399401 99:0.9328701549225276 100:-125.65294308049097 101:0.6904549567780817 102:-0.7027536480158777 103:0.9851856358773441 104:-114.50577120748541 105:0.7861114441831596 106:-0.5387710981786011 107:0.9530191492873104 108:-103.42526726922375 109:0.02085954494253589 110:-0.5360380556813132 111:0.5364437694239839 112:-156.77149936510514 113:0.007194332456096182 114:-0.38572071833047644 115:0.38578780562488957 116:-157.93146238550287 117:-0.006470880030343528 118:-0.2326703384823517 119:0.2327603030971115 120:19.40693672899029 121:-0.020136092516783236 122:-0.07415387363965106 123:0.07683917749175737 124:5.807964981347425 125:-0.19231776984592358 126:0.04336695374373043 127:0.1971466897402046 128:-81.70744863817616 129:-0.11305953742457327 130:0.06796433621932191 131:0.13191516213230195 132:-100.01165768468213 133:-0.028335220008647063 134:0.09256171869491339 135:0.09680163459722524 136:-141.97947438848007 137:0.0673212673964309 138:0.07889650620847367 139:0.10371505067137303 140:-19.473655147264196 141:0.16024471230422094 142:0.062498251224746025 143:0.17200116054147424 144:-47.69334324660532 145:-0.5093506995313248 146:-0.4622459082545388 147:0.6878294954500814 148:-26.775631479157113 149:-0.408228127131671 150:-0.4868432907301303 151:0.6353476162781867 152:-18.98052587014501 153:-0.30163946973744127 154:-0.4868432907301303 155:0.5727152516149949 156:-10.781620989250236 157:-0.19231776984592358 158:-0.454046780762675 159:0.493096951642837 160:-1.9557560761500667 161:-0.3071055547320171 162:-0.4212502707952197 163:0.5213114351252098 164:-15.093301874142945 165:-0.4164272546235348 166:-0.4212502707952197 167:0.5923372764214153 168:-23.670117187945152 169:0.2641003272011627 170:-0.4349154832816594 171:0.508822621770967 172:-127.731985232131 173:0.3734220270926804 174:-0.4567798232599629 175:0.5899930654299332 176:-119.73366150228699 177:0.485476769481486 178:-0.4485806957680991 179:0.660993444991682 180:-111.73794342139468 181:0.5865993418811398 182:-0.4157841858006438 183:0.7190099283440325 184:-104.3291814965562 185:0.4827437269841981 186:-0.37752159083861264 187:0.6128328136546792 188:-107.02658558994864 189:0.3679559420981045 190:-0.39118680332505235 191:0.5370462646932542 192:-115.75278636829324 193:-0.361766404677776 194:0.35220075593726785 195:0.504896329988907 196:-113.23240375556867 197:-0.2524447047862583 198:0.2893407784996452 199:0.3839875194292151 200:-117.89587834145703 201:-0.1403899623974527 202:0.25381122603490197 203:0.29005082313846015 204:-130.05181324252163 205:-0.03926738999779883 206:0.2866077360023573 207:0.2892851919017566 208:-151.19862370481133 209:0.06185518240185502 210:0.2647433960240537 211:0.2718733700242002 212:7.849205488335173 213:0.18210905228252447 214:0.31667120347252464 215:0.3653003668653733 216:-8.902044155662843 217:0.31876117714692154 218:0.393196393396587 219:0.5061739738826708 220:-18.031406023587756 221:0.17390992479066064 222:0.45605637083420963 223:0.4880902327635367 224:0.12643657959972643 225:0.05092301241270325 226:0.4833867958070891 227:0.486061670525283 228:14.986282361296475 229:-0.055665644981526485 230:0.48885288080166495 231:0.49201199487339353 232:-152.50371470048586 233:-0.16498734487304414 234:0.4724546258179373 235:0.5004340090611589 236:-139.75012933550533 237:-0.266109917272698 238:0.43419203085590613 239:0.5092516153431998 240:-127.49647949448533 241:-0.30983859722930507 242:0.3549337984345558 243:0.47114536780510263 244:-117.88074538728912 245:-0.14585604739202856 246:0.3412685859481161 247:0.3711310204171195 248:-135.85844127125176 249:-0.042000432495086774 250:0.3603998834291317 251:0.3628389619452493 252:-152.35282445891295 253:0.05912213990456708 254:0.35220075593726785 255:0.3571285481583321 256:11.470893346848868 257:0.26136728470387477 258:0.39046335089929907 259:0.46986645539875 260:-12.797451960077552 261:0.053656054909991195 262:0.3603998834291317 263:0.3643721287423555 264:12.532047376871319 265:-0.050199559986950595 266:0.37133205341828346 267:0.3747098740608824 268:-151.30098545240392 269:-0.15132213238660444 270:0.3494677134399799 271:0.3808228859811303 272:-135.58702771978602 
-1.5092868797022177E-4 0.0 1:-0.7621912089945164 2:-0.555062484885543 3:0.9428837686564746 4:-24.936181079589048 5:-0.7776717950792318 6:-0.33317408433795576 7:0.8460368735085901 8:-37.80849491086459 9:-0.7621912089945164 10:-0.1087055861095826 11:0.7699041131984881 12:-52.883075423323895 13:-0.7338101345058715 14:0.11576291211879054 15:0.7428851629462982 16:-69.96486776234134 17:-0.6925285716132972 18:0.33765131266637777 19:0.7704571574371165 20:-86.99215033375492 21:-0.5867445667010753 22:0.5440591271292496 23:0.8001684324977296 24:-103.83823229985254 25:-0.43967899889627915 26:0.7169256717419048 27:0.8410113203001583 28:-119.47987934235634 29:-0.26939255196440987 30:0.8485106534619856 31:0.890248659697044 32:-133.38594438482073 33:-0.06298473750153802 34:0.8872121186737741 35:0.8894450071138433 36:-146.9392851899678 37:0.16148376072683512 38:0.8614111418659152 39:0.8764166590778735 40:18.382325610651208 41:0.3627313798281352 42:0.7504669415921215 43:0.8335314537164482 44:3.203621272535372 45:0.5510785105255057 46:0.5930809830641817 47:0.8095879058109663 48:-13.89759712272756 49:0.6929838829687301 50:0.4124741454091688 51:0.8064499877149499 52:-30.238273208818782 53:0.7755470087538789 54:0.20090613558472517 55:0.8011469516279002 56:-46.4767327460995 57:0.824568864688811 58:-0.01840216728207617 59:0.8247741826553934 60:-62.27847602509408 61:0.8658504275813853 62:-0.2402905678296634 63:0.8985747158310041 64:-76.51038357965041 65:0.8813310136661007 66:-0.47249935910039426 67:1.0 68:-89.19665803245852 69:-0.67188779016701 70:-0.6608464897977648 71:0.9424177872119855 72:-16.474667342211504 73:-0.5557833945316446 74:-0.782111080794702 75:0.959475338056677 76:-6.398344052809556 77:-0.3751765568766317 78:-0.7872712761562738 79:0.872097191309852 80:3.5197215664502437 81:-0.20747020762554833 82:-0.7408295179021277 83:0.7693323479792636 84:13.355032433814003 85:-0.05008424909760852 86:-0.6608464897977648 87:0.6627416654215266 88:24.665951466061372 89:0.14084297928054795 90:-0.6453659037130495 91:0.6605557466921181 92:-138.68894411933798 93:0.31112942621241724 94:-0.7072882480519109 95:0.7726954029160582 96:-127.2557589293041 97:0.4865760685058583 98:-0.7305091271789841 99:0.8777242478902009 100:-117.33328850403619 101:0.6568625154377276 102:-0.6995479550095532 103:0.959601847406114 104:-107.8024696234767 105:0.7703868133923071 106:-0.5757032663318302 107:0.9617328595373517 108:-97.7704376795233 109:0.024738583645182523 110:-0.49056004286589555 111:0.4911834211141078 112:-148.11306141713726 113:0.009257997560467133 114:-0.30995320521088265 115:0.310091438029703 116:-149.28914005171438 117:-0.006222588524248256 118:-0.12934636755586978 119:0.1294959590405827 120:26.245741016129443 121:-0.021703174608963646 122:0.051260470099143085 123:0.055665640954652686 124:-128.0526826625158 125:-0.18682942617926113 126:0.10544252139564694 127:0.2145305568089158 128:-90.43945082706351 129:-0.11458669111725597 130:0.1441439866074354 131:0.1841401603569573 132:-112.51719503907736 133:-0.02686336997053544 134:0.1776852564576521 135:0.1797044546153363 136:-142.40283678002334 137:0.0660201465377569 138:0.15446437733057902 139:0.16798185501116 140:5.857486839621572 141:0.15374346768447744 142:0.12866340052272002 143:0.20047774063401114 144:-21.075025270328815 145:-0.5016013432351407 146:-0.47765955446196606 147:0.6926489424694888 148:-17.400536088049797 149:-0.4009775336844907 150:-0.503460531269825 151:0.6436268243836574 152:-9.535317772060452 153:-0.29003333341069704 154:-0.49830033590825323 155:0.5765609761817032 156:-1.2013409092844398 157:-0.18682942617926113 158:-0.4466983822925353 159:0.48419487732651606 160:6.303117214665178 161:-0.29519352877226884 162:-0.428637698527034 163:0.5204512426996181 164:-5.5543454890364785 165:-0.40871782672684837 166:-0.43121779620781986 167:0.5941372313284592 168:-14.465543036899135 169:0.24920708187355567 170:-0.4208974054846763 171:0.489140875003986 172:-120.37085695545626 173:0.3627313798281352 174:-0.45959887069646477 175:0.5854956668135884 176:-112.7182728756425 177:0.4736755801019288 178:-0.4518585776541071 179:0.6546332785495185 180:-104.64965468693484 181:0.569139194291007 182:-0.4208974054846763 183:0.7078658406943711 184:-97.48416017109012 185:0.4736755801019288 186:-0.3847760379536737 187:0.610263184673814 188:-100.08763816508672 189:0.36015128214734926 190:-0.3925163309960314 191:0.5327081904110033 192:-108.46222767656954 193:-0.34163528702641505 194:0.3428115080279496 195:0.48397768479343956 196:-106.09846263187677 197:-0.2255308913910496 198:0.3247508242624483 199:0.39538244881479123 200:-116.22103958848948 201:-0.11458669111725597 202:0.306690140496947 203:0.32739723893038336 204:-130.51312251276298 205:-0.03976385837446493 206:0.33765131266637777 207:0.33998466638681296 208:-144.28343916857295 209:0.045379365091469705 210:0.31959062890087647 211:0.3227963086179312 212:20.91847194401545 213:0.16148376072683512 214:0.3531318987510932 215:0.3883029009601062 216:4.425845664925788 217:0.28790854708534414 218:0.38409307092052397 219:0.48001960232260565 220:-7.854499450759434 221:0.14858327232290564 222:0.47697658742881627 223:0.49958348028074545 224:11.697633861688828 225:0.02989877900675432 226:0.5130979549598188 227:0.5139683340148915 228:25.665083444455945 229:-0.06298473750153802 230:0.5156780526406047 231:0.5195102801036221 232:-144.03640464145448 233:-0.14812796096747266 234:0.5053576619174611 235:0.5266196533353689 236:-134.66334239999793 237:-0.2487517705181227 238:0.4563358059825291 239:0.5197305178240212 240:-122.40489638907368 241:-0.29519352877226884 242:0.3531318987510932 243:0.46026227017275345 244:-111.10673937676903 245:-0.12232698415961367 246:0.3892532662820957 247:0.40802205377266865 248:-133.5541186086864 249:-0.042343956055250834 250:0.40989404772838295 251:0.4120754069069967 252:-145.10200173228483 253:0.045379365091469705 254:0.4021537546860252 255:0.4047059786859748 256:22.561929715329 257:0.23630659346962618 258:0.3892532662820957 259:0.45536678779693557 260:-2.2609625713185437 261:0.03505897436832611 262:0.38667316860130985 263:0.38825928321153624 264:23.819258205889838 265:-0.052664346778394426 266:0.39441346164366753 267:0.3979139506819732 268:-143.39452573957476 269:-0.13264737488275727 270:0.37377268019738036 271:0.39661233279516145 272:-131.46084551501613 
-3.397716229676055E-4 0.0 1:-0.8000883739765495 2:-0.4353510037905308 3:0.9108632733148602 4:-46.44812188348843 5:-0.8204346751846293 6:-0.22898137725143577 7:0.8517896027618984 8:-59.40570776080705 9:-0.8233412896429264 10:-0.013891907337449362 11:0.823458477593345 12:-74.03336301557108 13:-0.8204346751846293 14:0.20701079149313126 15:0.8461480508988488 16:-89.16119761566826 17:-0.7826486872267668 18:0.43953994815690034 19:0.897627057103089 20:-104.31881393359816 21:-0.6692907233531794 22:0.6488161891542925 23:0.93215477238242 24:-119.11007972907524 25:-0.5094269281468382 26:0.8261196711104164 27:0.9705614386099968 28:-133.33992904164444 29:-0.30887053052433733 30:0.9511040928171923 31:1.0 32:-147.00882339843903 33:-0.07052814494397404 34:0.9859834663167577 35:0.9885027137439973 36:-160.90855811029397 37:0.18234731292787484 38:0.9656371651086779 39:0.9827032498018619 40:4.306400701494709 41:0.4090632406750497 42:0.8755321169014674 43:0.9663794402808549 44:-10.04276755743382 45:0.6067130238392534 46:0.7447344662780973 47:0.9605884230817551 48:-24.16868011462015 49:0.7404172889209206 50:0.5703375987802705 51:0.9346136839975384 52:-37.393223145966026 53:0.8188958792949427 54:0.3639679722411754 55:0.8961379056504586 56:-51.03667856865305 57:0.8624950961693995 58:0.15469173124378321 59:0.8762575663761543 60:-64.83189558558671 61:0.9002810841272619 62:-0.05167789529531184 63:0.901763070489977 64:-78.2852846662942 65:0.9235339997936388 66:-0.26095413629270403 67:0.95969375845793 68:-90.77819079334726 69:-0.6896370245612592 70:-0.6155611002049519 71:0.9243996396208934 72:-33.248311140025976 73:-0.5820922896042661 74:-0.772518280952996 75:0.9672724166558813 76:-21.998013602727795 77:-0.3989755787315479 78:-0.8335571845772354 79:0.9241207131021905 80:-10.577740264907433 81:-0.20713902448393837 82:-0.8103042689108585 83:0.8363609171161206 84:0.66049811682322 85:-0.03274215698611156 86:-0.7260124496202421 87:0.7267503875800053 88:12.41778930845203 89:0.14746793942830946 90:-0.7143859917870538 91:0.7294478311852082 92:-153.3364797192329 93:0.339304493675919 94:-0.7754248954112931 95:0.846410838690223 96:-141.36714298992112 97:0.5398608912984199 98:-0.7637984375781046 99:0.9353276619454158 100:-129.7469222157345 101:0.7142577587962466 102:-0.6678801604542999 103:0.9778691398797176 104:-118.07816282966633 105:0.8043628070034571 106:-0.4963899074147702 107:0.9451996960821164 108:-106.67964432632499 109:0.03410997555472205 110:-0.5516155821224153 111:0.5526691966019048 112:-161.46153515602023 113:0.022483517721533595 114:-0.41209808812415394 115:0.4127109676331821 116:-161.8771154093203 117:0.007950445430048025 118:-0.27548720858418957 119:0.27560190796880374 120:-163.34692663897715 121:-0.0036760124031404284 122:-0.1301564856693339 123:0.13020838616993746 124:13.382224134173711 125:-0.18388610881756146 126:0.018080851703818887 127:0.1847728827896549 128:-80.6156344019648 129:-0.1025009039852423 130:0.04424038182849291 131:0.1116407036081496 132:-98.34549506102991 133:-0.015302470236328882 134:0.06458668303657271 135:0.06637473330266902 136:-151.67074448189362 137:0.07770919242917874 138:0.058773454119978474 139:0.09743222001570295 140:-37.89884925720434 141:0.16490762617809215 142:0.04714699628679002 143:0.17151491022811977 144:-59.04479720825254 145:-0.5239600004383238 146:-0.4586039194569077 147:0.6963128872860003 148:-33.80547221221948 149:-0.41641526548133057 150:-0.4876700640398789 151:0.6412673114127575 152:-25.49359204494484 153:-0.30305730160774313 154:-0.490576678498176 155:0.5766361118973293 156:-16.705999660145515 157:-0.1896993377341557 158:-0.4556973049986106 159:0.4936049761902467 160:-7.601163537877767 161:-0.30305730160774313 162:-0.4266311604156395 163:0.5233143176861891 164:-20.388069432864313 165:-0.41932187993962766 166:-0.4208179314990453 167:0.5940694996944706 168:-29.8979725177647 169:0.263732517760194 170:-0.4324443893322337 171:0.5065204742051989 172:-133.6224639334958 173:0.391623553925267 174:-0.4498840760820164 175:0.5964601327006073 176:-123.9604677933001 177:0.5020749033405574 178:-0.4295377748739366 179:0.6607434514303434 180:-115.54782460330375 181:0.5950865660060649 182:-0.3859385579994799 183:0.7092789236905384 184:-107.96509777500353 185:0.4904484455073689 186:-0.3655922567914001 187:0.6117167448471749 188:-111.70174616581613 189:0.37709048163378145 190:-0.3859385579994799 191:0.5395792823019756 192:-120.66437145253639 193:-0.3786292775234681 194:0.33780844211650135 195:0.507419622564127 196:-116.73895517897932 197:-0.2623646991915835 198:0.24479677945099373 199:0.35883241020212847 200:-118.01608483384086 201:-0.13447366302651054 202:0.19538433365994282 203:0.23718811919551822 204:-130.46222873775446 205:-0.04727522927759713 206:0.23026370715950817 207:0.23506663340016826 208:-153.397880177289 209:0.05445627676280184 210:0.2128240204097255 211:0.21968056295955296 212:0.647402682108364 213:0.18234731292787484 214:0.28548938186715334 215:0.3387546747882686 216:-17.56711859171019 217:0.3247714213844334 218:0.3843142734492552 219:0.5031639264940345 220:-25.20005916368129 221:0.16490762617809215 222:0.4453531770734946 223:0.4749041771780375 224:-5.318838208856178 225:0.037016590013019164 226:0.4627928638232773 227:0.46427089370532626 228:10.426920066195876 229:-0.06762153048567693 230:0.4598862493649801 231:0.46483118843319243 232:-156.63518707180742 233:-0.1664464220677788 234:0.4453531770734946 235:0.4754407047662417 236:-144.5072590125953 237:-0.2768977714830691 238:0.4075671891156321 239:0.49273054451282744 240:-130.80813678782397 241:-0.3234036028158229 242:0.32908859874161006 243:0.46139917223156235 244:-120.49919068845816 245:-0.14028689194310476 246:0.302929068616936 247:0.33383593674764955 248:-140.1510768668545 249:-0.050181843735894245 250:0.3232753698250158 251:0.32714703449096777 252:-156.17643182216898 253:0.05154966230450473 254:0.31746214090842156 255:0.3216202397142739 256:5.776784380810355 257:0.2608259033018969 258:0.378501044532661 259:0.4596663926649042 260:-19.57081231835233 261:0.042829818929613385 262:0.33490182765820425 263:0.337629423419152 264:7.712135308296041 265:-0.05890168711078558 266:0.3407150565747985 267:0.3457689380515043 268:-155.19183924524063 269:-0.15191334977629323 270:0.3203687553667187 271:0.3545614266322196 272:-139.630497165492 
-0.0027362859880918824 0.0 1:-0.7743523636268245 2:-0.5377750107370108 3:0.942774387235696 4:-30.220655442867972 5:-0.7982049731768355 6:-0.32045123483691146 7:0.8601279980983841 8:-43.12627417993987 9:-0.792904393276833 10:-0.10047716898681086 11:0.7992452929891466 12:-57.777948612535496 13:-0.7690517837268221 14:0.12479747676329214 15:0.7791117097437896 16:-74.21729676500217 17:-0.7239968545768015 18:0.3421212526633915 19:0.8007611360206428 20:-90.29285238595988 21:-0.6206355465267542 22:0.5514941587134873 23:0.8302615784845521 24:-106.62415815676837 25:-0.4775198892266888 26:0.7290635853635684 27:0.8715267959794756 28:-121.77612286763278 29:-0.2999504625766076 30:0.8695289527136326 31:0.9198102410862731 32:-135.9677459267141 33:-0.08527697662650946 34:0.9278353316136593 35:0.9317459768269393 36:-149.74872101877213 37:0.1532491188735996 38:0.9066330120136497 39:0.9194937253230591 40:15.405921367686773 41:0.3732231847237002 42:0.7953208341135988 43:0.8785390001533522 44:-0.1394323858554145 45:0.5666943510737886 46:0.6469045969135309 47:0.8600163051051999 48:-16.218656674464405 49:0.7124602983238553 50:0.461384300413446 51:0.8488080756895059 52:-32.07318888324753 53:0.7893187068738904 54:0.2467108144633479 55:0.8269765697976208 56:-47.64275362187642 57:0.8423245058739147 58:0.03468761846325094 59:0.8430384357017102 60:-62.641844935474175 61:0.8873794350239352 62:-0.177335577536846 63:0.9049255045382052 64:-76.30122123131991 65:0.9165326244739486 66:-0.3999599333369478 67:1.0 68:-88.57567374184148 69:-0.6736413455267785 70:-0.7020929876370859 71:0.9729990882278863 72:-18.815231528518147 73:-0.554378297776724 74:-0.8213560353871404 75:0.9909394703576497 76:-9.017575559976926 77:-0.37680887112664274 78:-0.839908065037149 79:0.9205598747904357 80:0.8375128137012382 81:-0.2071903143265652 82:-0.7922028459371271 83:0.8188486889906 84:10.343330064916756 85:-0.04552262737649128 86:-0.7126941474370908 87:0.7141465237570933 88:21.34525418856532 89:0.1718011485236081 90:-0.6967924077370835 91:0.7176595948735535 92:-141.1494086979381 93:0.3493705751736893 94:-0.7471479167871066 95:0.8247968285320376 96:-129.93894453009574 97:0.5348908716737741 98:-0.7550987866371102 99:0.925355295106029 100:-119.68730961970797 101:0.7071597184238528 102:-0.6967924077370835 103:0.9927711351773605 104:-109.57691409861059 105:0.8105210264739001 106:-0.5589773303370205 107:0.9845811242284748 108:-99.59215992195354 109:0.04193694097354871 110:-0.5245235609870047 111:0.5261973708112831 112:-150.42878614428318 113:0.02603520127354144 114:-0.34695413433692357 115:0.3479295949453536 116:-150.70860657971423 117:0.004832881673531746 118:-0.16673441773684117 119:0.16680444479483694 120:-153.33971763101715 121:-0.013719147976476737 122:0.013485298863241247 123:0.019237159526068328 124:-109.50749826623647 125:-0.18863828467655672 126:0.08769341746327518 127:0.20802532997714945 128:-89.93258735516604 129:-0.10912958617652037 130:0.12479747676329214 131:0.16578201586886024 132:-113.83181503438655 133:-0.024320307776481583 134:0.1592512461133079 135:0.16109760010311808 136:-146.3170711071071 137:0.06843984047356083 138:0.14334950641330063 139:0.15884927684123518 140:-0.5213673086807091 141:0.15854969877360203 142:0.12214718681329093 143:0.20014480314912236 144:-27.38923070948765 145:-0.5013724987766998 146:-0.5033212413869951 147:0.7104270930651064 148:-19.88886704232179 149:-0.3980111907266524 150:-0.5192229810870024 151:0.6542212256053157 152:-12.472025965894765 153:-0.28934930277660276 154:-0.5139224011869999 155:0.5897789869596218 156:-4.380441508668703 157:-0.18863828467655672 158:-0.47416805193698175 159:0.5103133781544688 160:3.3058523780707816 161:-0.2999504625766076 162:-0.45561602228697323 163:0.5454871582031282 164:-8.358527339530603 165:-0.40596206057665607 166:-0.45826631223697445 167:0.6122199013090972 168:-16.536607631826577 169:0.2804630364736578 170:-0.43441370268696355 171:0.5170829526393439 172:-122.15319645693076 173:0.3944255043237099 174:-0.46091660218697567 175:0.6066428872348208 176:-114.44502045148118 177:0.5030873922737595 178:-0.44501486248696837 179:0.6716659527615696 180:-106.49493592666562 181:0.5984978304738032 182:-0.4132113830869539 183:0.727284882418494 184:-99.62174873060448 185:0.5004371023237584 186:-0.38405819363694055 187:0.6308232632694117 188:-102.50427297841422 189:0.39177521437370866 190:-0.39465935343694536 191:0.5560969554428734 192:-110.21012333610625 193:-0.36620771132663793 194:0.3553727024133976 195:0.5102919218013307 196:-109.13973048756162 197:-0.24694466357658337 198:0.3156183531633794 199:0.40074507074013477 200:-116.95982604731287 201:-0.13033190577653006 202:0.29971661346337214 203:0.3268278660844187 204:-131.49816510549715 205:-0.04817291732649249 206:0.3394709627133903 207:0.34287193598966526 208:-146.92331940980205 209:0.04193694097354871 210:0.3209189330633818 211:0.3236474449408774 212:17.55490838930983 213:0.15854969877360203 214:0.3606732823134 215:0.39398378590485356 216:1.270012360012032 217:0.27781274652365656 218:0.4057282114634206 219:0.4917268588437321 220:-9.400465532200407 221:0.13734737917359233 222:0.49053748986345935 223:0.5094029166852091 224:9.358091254197731 225:0.01013346157353417 226:0.5276415491634764 227:0.52773884777141 228:23.899758342775044 229:-0.08262668667650824 230:0.5302918391134775 231:0.5366904172625893 232:-146.14374980176794 233:-0.17803712487655188 234:0.5143900994134702 235:0.5443293049330604 236:-135.90859549473333 237:-0.2787481429765979 238:0.461384300413446 239:0.5390510178831934 240:-123.86147078181186 241:-0.31585220227661487 242:0.36332357226340123 243:0.48142147007090014 244:-113.99821801123323 245:-0.1409330655765349 246:0.3845258918634109 247:0.40953911960416123 248:-134.87154633718006 249:-0.053473497226494915 250:0.4083785014134218 251:0.41186455943951295 252:-147.5400738756581 253:0.036636361073546286 254:0.4057282114634206 255:0.407378944632657 256:19.84031084171893 257:0.2195063676236299 258:0.4083785014134218 259:0.46363352536674085 260:-3.2583478020320555 261:0.020734621373539017 262:0.39247676171341456 263:0.3930240870589898 264:21.975864549933533 265:-0.06937523692650219 266:0.40042763156341815 267:0.40639292761820656 268:-145.17091176097853 269:-0.15683480527654217 270:0.3818756019134097 271:0.41282699945965246 272:-132.67223713734967 
-0.0 -1.61976108987003E-4 1:-0.686455292660121 2:-0.4836048177751775 3:0.8396990464425067 4:-34.83546820025677 5:-0.7119908287109351 6:-0.2769991170004087 7:0.7639760801147443 8:-48.74154053862111 9:-0.7143122410791909 10:-0.06807200385738402 11:0.717548448165513 12:-64.5563082099875 13:-0.6980623545014001 14:0.1454979340221523 15:0.7130643025539513 16:-81.77365976096046 17:-0.6539555195045393 18:0.34746081006040946 19:0.740531455117396 20:-97.98268171235307 21:-0.5680632618790736 22:0.5563879232034341 23:0.7951499170491836 24:-114.40511104327851 25:-0.43806416925674724 26:0.7606722116099471 27:0.8777940703275298 28:-130.06275339686647 29:-0.277886715847095 30:0.9231710773878552 31:0.964088100211665 32:-143.24750980525752 33:-0.07128101507232615 34:0.9974562731720418 35:1.0 36:-155.91243220355173 37:0.13996751043895433 38:0.9695993247529718 39:0.9796498121981638 40:11.785752983475817 41:0.33728756174069985 42:0.8512072939719245 43:0.9155963939509552 44:-1.6157532448167302 45:0.4997864275186079 46:0.6771013663527373 47:0.8415775267012282 48:-16.432015729386556 49:0.6181784582996552 50:0.4937097892605267 51:0.7911346044241854 52:-31.38729854380182 53:0.6994278911886093 54:0.28246126374924624 55:0.7543101089680333 56:-48.00887008282285 57:0.7481775509219817 58:0.0758555629744774 59:0.7520131076901448 60:-64.2107288036522 61:0.7829987364458191 62:-0.13075013780029143 63:0.7938404246512926 64:-79.48014536468793 65:0.7876415611823308 66:-0.33735583857506024 67:0.8568478223829605 68:-93.18600132871057 69:-0.5680632618790736 70:-0.6205681475022714 71:0.841308917812651 72:-22.470743246876673 73:-0.5030637155679104 74:-0.7691385390706446 75:0.9190468944535511 76:-13.187144132457213 77:-0.3498504992630257 78:-0.817888198804017 79:0.8895709514015548 80:-3.158747649963061 81:-0.1989586953263968 82:-0.790031250384947 83:0.814698679899989 84:5.864765995611748 85:-0.05735254086279118 86:-0.7157460546007605 87:0.7180401998634707 88:15.418692883934682 89:0.11675338675639604 90:-0.6739606319721555 91:0.6839987476358388 92:-150.17192100657098 93:0.27460942779779246 94:-0.7273531164420396 95:0.7774656865954781 96:-139.31615990389776 97:0.44407253068046804 98:-0.7250317040737838 99:0.8502184333552701 100:-128.5130701366785 101:0.5972857469853528 102:-0.6553893330261089 103:0.8867273771550412 104:-117.65568138160788 105:0.6669281180330277 106:-0.49753329198471247 107:0.8320651965178096 108:-106.72320993843482 109:0.02389689202616286 110:-0.49289046724820085 111:0.4934694257526598 112:-157.22429252927182 113:0.01461124255313954 114:-0.367534199362386 115:0.3678245180923871 116:-157.72341751662935 117:6.827683436045626E-4 118:-0.24217793147657124 119:0.24217889393355868 120:-159.838467359145 121:-0.010924293497674585 122:-0.11450025122250061 123:0.11502020569638663 124:14.549994257825475 125:-0.168780334539071 126:-0.007715282282732455 127:0.16895658290763035 128:-67.38271880571102 129:-0.09449513875488445 130:0.01782025376808167 131:0.09616076482986027 132:-80.67963251722645 133:-0.013245705865930414 134:0.038712965082384136 135:0.040916285136319945 136:-141.11153205111998 137:0.07264655175953529 138:0.029427315609360818 139:0.07838040818038504 140:-47.94835172189781 141:0.1538959846484893 142:0.013177429031570011 143:0.15445911668402781 144:-65.10595442556833 145:-0.4519926434662822 146:-0.46039069409261923 147:0.6451797741364197 148:-24.472634747833425 149:-0.3661003858408165 150:-0.5091403538259917 151:0.6270991886510863 152:-15.718247117822806 153:-0.25699400453279253 154:-0.5021761167212242 155:0.5641159194447622 156:-7.101582525176298 157:-0.15717327269779185 158:-0.43253374567354924 159:0.4602052572460739 160:0.02996591815603722 161:-0.2662796540058158 162:-0.40235538488622347 163:0.48248804118278216 164:-13.496676171305516 165:-0.37538603531383985 166:-0.4046767972544793 167:0.5519764358600703 168:-22.849597630047136 169:0.22585976806442004 170:-0.409319621990991 171:0.4674988639311986 172:-131.110386483119 173:0.3256804998994207 174:-0.4673549311973867 175:0.5696388502632617 176:-125.12893987895652 177:0.4371082935757005 178:-0.46039069409261923 179:0.6348411230534334 180:-116.48600075060435 181:0.5253219635694221 182:-0.39771256014971185 183:0.658891831721468 184:-107.12876056986161 185:0.4347868812074447 186:-0.3559271375211069 187:0.5618930140997177 188:-109.30459233784184 189:0.32103767516290904 190:-0.36985561173064185 191:0.489753368954878 192:-119.0417539138138 193:-0.28485095295186247 194:0.33817516058738617 195:0.4421566516924613 196:-119.8919687268943 197:-0.2152085819041876 198:0.22210454217459466 199:0.30926551922223355 200:-115.90341829028854 201:-0.10378078822790777 202:0.1617478205999431 203:0.19217910779800498 204:-127.31491944706234 205:-0.020209942970697902 206:0.18960476901901305 207:0.19067881431777406 208:-153.91582391290623 209:0.06568231465476779 210:0.17799770717773392 211:0.18972967669539267 212:-0.25438966129854634 213:0.17943152069930343 214:0.26156855243494376 215:0.317196750051725 216:-14.449451265718878 217:0.24907389174697833 218:0.39388905742552605 219:0.466032609491605 220:-12.30702145213143 221:0.16550304648976846 222:0.544780861362155 223:0.5693658273060352 224:3.101351305961785 225:0.04711101570872116 226:0.6074589953050624 227:0.6092830859117485 228:15.565346596808638 229:-0.04806689138976786 230:0.6167446447780857 231:0.6186148906309343 232:-155.54357838065968 233:-0.1455662108565127 234:0.5935305210955274 235:0.6111202837535759 236:-146.21992769577878 237:-0.24306553032325753 238:0.5122810882065734 239:0.5670209567250909 240:-134.61674196511362 241:-0.22217281900895508 242:0.33585374821913033 243:0.4026890881303153 244:-126.5147037273974 245:-0.11074502533267526 246:0.27781843901273456 247:0.29907782547592426 248:-138.26660022465387 249:-0.024852767707209563 250:0.28942550085401375 251:0.29049058609067735 252:-155.09209027490073 253:0.06103948991825613 254:0.29174691322226953 255:0.2980638869507733 256:8.182992910225437 257:0.18175293306755927 258:0.3869248203207586 259:0.42748677787612566 260:-5.161184399850043 261:0.04943242807697698 262:0.43799589242238685 263:0.4407765496535274 264:13.560818056294224 265:-0.04110265428500037 266:0.44263871715889846 267:0.4445429811810638 268:-154.69482780595865 269:-0.1293163242787219 270:0.4240674182128518 271:0.44334623818712315 272:-143.041290282335 
-3.726728502093424E-5 -4.7086530198854326E-5 1:-0.6780868016489509 2:-0.48896369096829406 3:0.8359947378158794 4:-30.20488801790094 5:-0.6960231636102963 6:-0.2759693926773176 7:0.7487371701583759 8:-44.37194380281376 9:-0.6937811183651281 10:-0.06073304914117298 11:0.6964343066348411 12:-60.997126065652424 13:-0.6579083944424373 14:0.15450329439497165 15:0.6758067204879846 16:-79.2158705124555 17:-0.5996152180680648 18:0.3607714569504436 19:0.6997817187444658 20:-97.03412850682015 21:-0.5099334082613379 22:0.5692816647510837 23:0.7642733115075978 24:-114.14764235454516 25:-0.39558910075776105 26:0.7710657368162193 27:0.8666216632015803 28:-128.84027176863043 29:-0.2565822955573343 30:0.9302509492231595 31:0.9649877216441982 32:-140.58005122024935 33:-0.07049254020837592 34:0.9975123065782048 35:1.0 36:-151.95772242021252 37:0.12232335087608698 38:0.9526714016748413 39:0.9604924787517396 40:16.683235669010543 41:0.2972028799992045 42:0.8091805059840782 43:0.8620340150739241 44:3.8322852422937075 45:0.45190400191580843 46:0.6410271125964653 47:0.784304141281483 48:-11.182635770886243 49:0.5684903546645534 50:0.47511576445402043 51:0.740888839826433 52:-26.112811973513146 53:0.6626562549616167 54:0.28005782812438934 55:0.7194064910281984 56:-43.08966515257538 57:0.7187073860908211 58:0.06930557507858107 59:0.722041251978357 60:-60.49194923661548 61:0.7523380647683436 62:-0.13920463272205905 63:0.7651081580212433 64:-76.48284482570199 65:0.7657903362393527 66:-0.3499568857678673 67:0.8419647623113008 68:-90.55982521455522 69:-0.5592584036550377 70:-0.6593591296010752 71:0.8645949478496092 72:-16.30410380476627 73:-0.48527091056448796 74:-0.8028500252918384 75:0.9381130101172207 76:-7.150247585187444 77:-0.3328118338930522 78:-0.8454488849500337 79:0.9085964636968998 80:2.5128689862490887 81:-0.17138457624094372 82:-0.8073341157821746 83:0.8253248133184132 84:12.014911104021081 85:-0.03461981628568515 86:-0.719894351220616 87:0.7207263063042767 88:21.246759378308468 89:0.11559721514058247 90:-0.6840216272979251 91:0.6937206229885051 92:-146.40784900651255 93:0.2702983370571864 94:-0.7512829846529704 95:0.798428026840839 96:-136.21216549072315 97:0.4384517304447994 98:-0.760251165633643 99:0.877622786154366 100:-126.02710941402863 101:0.5909108071162352 102:-0.6929898082785978 103:0.9107197463241743 104:-115.54584920055399 105:0.6604142097164486 106:-0.5450148220974984 107:0.8562640274479415 108:-105.53156585418593 109:0.03264154106936005 110:-0.5091420981748076 111:0.510187363952919 112:-152.33173820089507 113:0.02143131484351918 114:-0.3768614287098854 115:0.37747031367403994 116:-152.74521541701486 117:0.010221088617678316 118:-0.242338713999795 119:0.24255416499331622 120:-153.58487471382315 121:0.001252907637005624 122:-0.10557395404453646 123:0.10558138827532418 124:-155.32006951394794 125:-0.15120616903443015 126:-0.002439872766800479 127:0.15122585272759032 128:-65.07555173182114 129:-0.08394481167938496 130:0.024464670175217598 131:0.08743712881076086 132:-82.24810568720643 133:-0.009957318588835242 134:0.04688512262689933 135:0.047930813859342634 136:-144.00984738164414 137:0.070756310237219 138:0.03791694164622664 139:0.0802754626407655 140:-37.81400140014001 141:0.14250175808260054 142:0.022222624930049426 143:0.1442241176621083 144:-57.136326483181364 145:-0.4426720509062927 146:-0.49120573621346225 147:0.6612424819554418 148:-18.02501130267536 149:-0.3552322863447339 150:-0.5450148220974984 151:0.6505621673350479 152:-9.09569084343402 153:-0.24313002408632525 154:-0.5360466411168258 155:0.5886070081683092 156:-0.39720614357148065 157:-0.1467220785440938 158:-0.4553330122907715 159:0.47838846183210465 160:6.13948830637905 161:-0.2520982050669979 162:-0.4329125598390897 163:0.5009658565854919 164:-6.213549889994098 165:-0.36868455781574294 166:-0.4329125598390897 167:0.5686313284002416 168:-16.418960041888624 169:0.21873129641831843 170:-0.4306705145939216 171:0.483032578790946 172:-129.07464675935933 173:0.32634946818639077 174:-0.500173917194135 175:0.5972251860285746 176:-122.8766777408976 177:0.4384517304447994 178:-0.49344778145863044 179:0.6600989569424294 180:-114.3773932488404 181:0.5191653592708536 182:-0.4261864241035852 183:0.6716900612313952 184:-105.38280875506939 185:0.4362096851996312 186:-0.38134551920022175 187:0.579399080492926 188:-107.16077418435879 189:0.3196233324508862 190:-0.39255574542606264 191:0.5062203946049798 192:-116.84712893273655 193:-0.265550476538007 194:0.3473191854794345 195:0.43720438263089323 196:-118.5994890191131 197:-0.18707889295712093 198:0.2576373756727076 199:0.3183952410661657 200:-120.01537618740211 201:-0.08618685692455313 202:0.2083123802790078 203:0.22543784527900224 204:-133.52323561452238 205:-0.027893680550180627 206:0.23297487797585772 207:0.23463876743305084 208:-149.1725746985754 209:0.03712563155969639 210:0.22400669699518502 211:0.22706235446986572 212:14.589652941754352 213:0.1380176675922642 214:0.29575214484056656 215:0.3263712728556302 216:-1.0168934780999876 217:0.2030369797021412 218:0.39216009038279803 219:0.44160338723294684 220:-3.37241171355209 221:0.12232335087608698 222:0.5692816647510837 223:0.5822753781427819 224:11.87306625251587 225:0.01918926959835101 226:0.6522373388223061 227:0.6525195584974613 228:22.314805001774744 229:-0.05704026873736688 230:0.6612055198029788 231:0.6636613079542595 232:-151.06946731283017 233:-0.1310277618279166 234:0.638785067351297 235:0.6520848385299527 236:-144.40826119662083 237:-0.21846752638947536 238:0.5491032575445701 239:0.5909673827994187 240:-134.30425178457085 241:-0.213983435899139 242:0.3562873664601072 243:0.4156075051515308 244:-125.011298368218 245:-0.09067094741488949 246:0.30696237106640745 247:0.32007361333890744 248:-139.54384444250718 249:-0.03237777104051698 250:0.3181725972922483 251:0.31981576215885194 252:-150.1894881837381 253:0.03264154106936005 254:0.3181725972922483 255:0.31984257357499785 256:18.14247985993144 257:0.1447438033277687 258:0.39888622611830254 259:0.4243359400153249 260:4.055689589421021 261:0.01918926959835101 262:0.48856803592502945 263:0.48894473490912965 264:21.75077524552819 265:-0.05031413300186236 266:0.49977826215087034 267:0.5023045125203169 268:-150.2512361268941 269:-0.11309139986657121 270:0.47959985494435675 271:0.49275316902728167 272:-142.7318202674251 
-9.506869609303469E-4 -2.3570290079375893E-4 1:-0.7162496680056628 2:-0.49383382471784154 3:0.8699916283239016 4:-28.4148386128645 5:-0.7376553129328757 6:-0.28929099541336273 7:0.7923538608004337 8:-41.58606098308613 9:-0.7400337179247882 10:-0.07285614114932126 11:0.7436114045445744 12:-57.37736313437551 13:-0.7210064779894879 14:0.1483355230985453 15:0.7361071720311689 16:-74.62547760307982 17:-0.6663031631754993 18:0.3552567573949366 19:0.7550942119579789 20:-91.06546168268224 21:-0.5664101535151725 22:0.562177991691328 23:0.798037941671432 24:-107.78514405353522 25:-0.43797628395189514 26:0.7595856060200691 27:0.8768087124208944 28:-123.03229487381242 29:-0.28100155448566727 30:0.9236955504620346 31:0.9654922804283432 32:-136.07948006940705 33:-0.07170191519736341 34:0.9974261052113235 35:1.0 36:-148.8882545370741 37:0.14235453407476553 38:0.9593716253407227 39:0.9698756254698556 40:18.559858891286055 41:0.3350053384196816 42:0.8261809457936203 43:0.8915175443938983 44:4.928102980378355 45:0.5014936878535596 46:0.6525573813840045 47:0.8229988183197547 48:-10.542462182316946 49:0.6251707474330119 50:0.4741770069905638 51:0.7846542534164203 52:-25.820555833628752 53:0.713171732133776 54:0.2743909876699101 55:0.7641363318342868 56:-41.95589881610003 57:0.7678750469477645 58:0.06271294338969373 59:0.7704316978120972 60:-58.330972372016284 61:0.7987943118426276 62:-0.14896510089052267 63:0.8125656612948031 64:-73.56359955830295 65:0.8011727168345402 66:-0.3630215501626516 67:0.8795807911059296 68:-87.37588495022156 69:-0.5973294184100356 70:-0.6508085541840694 71:0.8833765948321419 72:-15.546540702419897 73:-0.5283556736445718 74:-0.7982696636826471 75:0.9572847924355717 76:-6.499626139362036 77:-0.37138094417834394 78:-0.8505945735047231 79:0.9281351917552098 80:3.413276047217636 81:-0.20964940472829094 82:-0.8244321185936851 83:0.8506710239991713 84:12.732353188026792 85:-0.06694510521353832 86:-0.7435663488686586 87:0.7465738826679643 88:21.855390749463524 89:0.14473293906667808 90:-0.7197822989495332 91:0.7341894725014476 92:-141.6306481950636 93:0.2969508585490809 94:-0.7816208287392593 95:0.8361285381519294 96:-132.19737624636105 97:0.4658176129748715 98:-0.788756043714997 99:0.9160361046675733 100:-122.43507019018968 101:0.6204139374491868 102:-0.7197822989495332 103:0.9502631275927098 104:-112.24041559029625 105:0.6917660872065632 106:-0.5651859744752178 107:0.8932947470754432 108:-102.24947223674182 109:0.02581268947105089 110:-0.491455419725929 111:0.4921328321863092 112:-149.99341919791777 113:0.013920664511488172 114:-0.3463727152192638 115:0.3466523370017958 116:-150.69853030084698 117:0.002028639551925453 118:-0.20129001071259864 119:0.20130023296337662 120:-152.42258163202638 121:-0.009863385407637267 122:-0.056207306205933456 123:0.05706616898502262 124:17.04694601332774 125:-0.1739733298496028 126:0.036550488478655746 127:0.17777136357407805 128:-74.86485398611597 129:-0.10024277510031393 130:0.07222656335734391 131:0.12355278391936189 132:-98.77336845054299 133:-0.016998600383374897 134:0.0936322082845568 135:0.0951627177167419 136:-142.71022194983868 137:0.07100238431738923 138:0.07698337334116899 139:0.10472716147084313 140:-15.685594682847821 141:0.14948974905050316 142:0.0555777284139561 143:0.1594868927744154 144:-42.60572790083772 145:-0.47127395383867077 146:-0.4676713698068035 147:0.6639394925019189 148:-18.219833724377885 149:-0.37851615915408154 150:-0.5199962796288795 151:0.6431723047276164 152:-9.051655818502766 153:-0.26435271954227946 154:-0.5128610646531419 155:0.5769825231032161 156:-0.2687081342719324 157:-0.16208130489004008 158:-0.4319952949281154 159:0.46140035135973567 160:6.434296189338241 161:-0.2738663395099296 162:-0.40345443502516487 163:0.48762511528636726 164:-7.168803572542288 165:-0.39040818411364425 166:-0.4058328400170774 167:0.5631330608828076 168:-16.890213978158563 169:0.23035551877552965 170:-0.412968054992815 171:0.4728702564920869 172:-123.84701683124064 173:0.3421405533954192 174:-0.4866986097421039 175:0.5949249490503995 176:-117.89345683284331 177:0.45868239799913385 178:-0.4795633947663663 179:0.6636042433816088 180:-109.27492766800856 181:0.5419265727160729 182:-0.4105896500009025 183:0.6799031334709765 184:-100.14932089835366 185:0.45868239799913385 186:-0.355886335186914 187:0.5805554459369133 188:-100.80747038607986 189:0.33976214840350666 190:-0.37015676513838924 191:0.5024483538290112 192:-110.45157625095365 193:-0.2857583644694923 194:0.3504999474111115 195:0.45222566932834674 196:-113.81005567473527 197:-0.20489259474446586 198:0.2672557726941725 199:0.33675899901781264 200:-115.52429270330911 201:-0.10262118009222647 202:0.2196876728559216 203:0.2424742877262899 204:-127.96163677031396 205:-0.021755410367199985 206:0.2506069377507847 207:0.25154946855255117 208:-148.03854105327082 209:0.05673195436591396 210:0.23633650779930943 211:0.24305032311220898 212:13.501701097729509 213:0.16851698898580353 214:0.3005534425809481 215:0.3445727026682478 216:-2.2788669512301283 217:0.25176116370274254 218:0.39568964225744985 219:0.4689925122417071 220:-5.466931869909779 221:0.1566249640262408 222:0.5288803218045524 223:0.5515847841885307 224:10.503637740737275 225:0.04483992940635124 226:0.5954756615781035 227:0.5971615215342049 228:22.693695903783095 229:-0.047917865278237964 230:0.6002324715619286 231:0.6021421275165564 232:-148.4356332340639 233:-0.13829725497091463 234:0.5788268266347157 235:0.5951190015152478 236:-139.56242050940182 237:-0.23343345464741638 238:0.4979610569096892 239:0.5499603548868247 240:-127.88382472663956 241:-0.22154142968785367 242:0.34812154241919896 243:0.41263690257229824 244:-120.527690258748 245:-0.10737799007605156 246:0.3267158974919861 247:0.34390886936333376 248:-134.80644643342964 249:-0.026512220351025073 250:0.34098632744346136 251:0.3420154577373964 252:-148.55410804561834 253:0.054353549374001414 254:0.3386079224515488 255:0.3429426095959878 256:17.880641390018 257:0.18754422892110387 258:0.38855442728171224 259:0.4314480047025723 260:1.2347110581937812 261:0.04483992940635124 262:0.42423050216040037 263:0.42659364532589095 264:20.966405163679823 265:-0.038404245310587795 266:0.4337441221280506 267:0.43544098284211724 268:-147.94015503037977 269:-0.12164842002752682 270:0.4099600722089251 271:0.4276278743261958 272:-136.47267311188736 
